solver_type L2R_L2LOSS_SVC_DUAL
nr_class 3
label 0 2 1
nr_feature 35734
bias -1
w
0.67497679164783608 -0.77296601175853374 -0.83045500797483918 
-0.077156233531957011 0.11786429463153225 -0.01409573073084493 
0.11964074306711431 -0.32989086530803896 0.11007985171884653 
0.10331545478840627 -0.19544437103828144 -0.20136890383620198 
0.1077666115002881 -0.044248512820723854 -0.10233117426493056 
0 0 0 
0.22135575678477998 -0.042777663024566447 -0.733290588791501 
-0.00088911379234296009 -0.34655484614527382 0.43607322941068999 
0.22281177242349376 -0.29055848239259963 -0.21346070952552282 
0.52831523346024623 -0.66405827886146618 -0.11572505429226601 
0.13103808279584117 -0.22379178224184865 -0.29212145226294006 
0.2199443498374255 -0.30688932801466406 -0.1624265322746152 
0 0 0 
0.17819828985942485 -0.25228524208444636 -0.36994562587525598 
0.2302410242117077 -0.27392546536631135 -0.35379990772794306 
0.037231301417535619 0.004936852007459424 0.11475228061821256 
0.21541508528373282 -0.21785115331003635 -0.47615116239942634 
0.31252456247149907 -0.20414990180894971 -0.67595869858210256 
0.28503956297690081 -0.38000178547369662 -0.48014071180127904 
0.27998822239367338 -0.045703139880272949 0 
0.30268891502520828 -0.30126295736593695 -0.66026616692489148 
0.29236411588067945 -0.22555720251436248 -0.54672845926190727 
0.85122582458152551 -0.86691249011882165 -0.66666666666666663 
0.004226757580659225 0.097813955709418657 -0.1198187250816703 
0.41659273679144598 -0.27570509988850178 -0.47589451990450238 
-0.077949166372496756 0.072822017876157608 0.10094603096307567 
0.61786437178007403 -0.72966831434130031 -0.47782948695154237 
0.34508572982518937 -0.29972153107648142 -0.77400746342390736 
0.14328139290510572 -0.069798626137619058 -0.31576005639797577 
0.16224003516386301 -0.029105843721979864 -0.11520466247897972 
0.24341377522187585 -0.18161559835508312 -0.46305457861737492 
0.21927604124502759 -0.35948383642114934 -0.13857601071843617 
0.24489845922060216 -0.23029562632717629 -0.56027669261557367 
-0.14629410791074665 -0.24079195844268744 0.68482835044602663 
-0.03540111878972188 -0.042468019103778495 0.20575244477436846 
0.27228472857393532 -0.061173618452279782 -0.079308648182481317 
0 0 0 
0 0 0 
0.26116840441844352 -0.26568606887508456 -0.19727204447695892 
0.15963900346139909 -0.20126359599304253 -0.094631851174252407 
0.25754365301810533 -0.29678782901952439 -0.48329784298018985 
0.20535270215757156 -0.15712366940632241 -0.61691687164815101 
0.17010323916121156 -0.085092572319172749 -0.18374961017885383 
0.5101366685273353 -0.61057481434578353 0 
0.017539126920688101 0.050052307922924068 -0.4047791602174286 
0.043552374093771384 0.024680940113384044 -0.07962756915459826 
0.50613052822210758 -0.61259087092744746 -0.65723341842297267 
0.63024232320990392 -0.61991223479990942 -0.85885136732171086 
0 0 0 
0.068553700969414488 -0.046509898192632446 -0.70578549358065368 
0.81892806172941068 -0.64750948532672647 -0.50094152910724288 
0.023082649660393494 0.10788595437006455 -0.21940661603674055 
0.31876446381356838 -0.22444140160528467 0 
0.2210514890327665 -0.25382351287599675 -0.38879167088539063 
0.10040559317644114 -0.3613437247026724 0.12703495006470594 
0.78374130135401698 -0.59798753999515075 0 
0.20710485124310021 -0.19452456914966318 -0.40098765952316323 
0.11024129899431963 -0.0574979046810776 -0.32062723193321513 
0 0 0 
0.1987407094441726 -0.15964079384170593 -0.54744423262962394 
0.071494843878428388 -0.14269984838979657 -0.13954022886089568 
0 0 0 
-0.59652625877457899 0.76875646572605738 -0.48925866896784725 
0.13738235006574684 -0.18659293739879979 -0.15411335692446274 
0 0 0 
-0.012385726925978656 0.056223027083153743 -0.016697037160834358 
1.0223620271298139 -0.42887766634902708 -0.4515500020615888 
0.21078920410459256 -0.21227153977565821 -0.20098570277703959 
0.27206549403656349 -0.23760159126402058 -0.44581768069541211 
0.80914351237568949 -0.67017223403531268 -0.14866233672282034 
0.35805672530819516 -0.15136777980640764 -0.24998318065286537 
1.3146882681353953 -1.2628059781255787 -0.0036107515916282947 
0.41649714394380877 -0.50820339469741327 -0.3678190508864162 
0.32618741462943579 -0.36641665043499239 -0.38022350992728654 
0.053341105152382398 -0.086383450684363039 -0.79882245879273595 
0.36071493302020885 -0.54340444505268259 0.30871093435622754 
0.22120731845733899 -0.062177826680707669 0 
0.1472040696891255 -0.35929039376592709 0.023870563681934433 
0.051978597138680853 0.039628548060190866 -0.22710707456439633 
0.15255906295558769 -0.22098964223804085 -0.088634945493635459 
0.14203118301405179 -0.05607331791037623 -0.42148480282652562 
0.17307117687230555 -0.048350100173592814 -0.063132638963244503 
0.049732626092852013 -0.09110196177452129 -0.081125209217377287 
0.077285019967019364 -0.0053318738271167709 0 
0 0 0 
0 0 0 
0.069293256788287794 -0.061890019677154309 0.095585648720684563 
0 0 0 
-1.2546498974970437 1.4446636593590148 -0.24912304633182752 
0.31489029762128801 -0.30282567711286074 -0.65962595260342938 
0.0087051029012702522 -0.25894317481349605 1.008976201619225 
0.17173038056210879 -0.23360650321660709 -0.33796940317388585 
0.39165518010390415 -0.36268921792948672 -0.1938852743212448 
0.39116900850277375 -0.26831613708711127 -0.59158365150997461 
0.31848789019604462 -0.28418370251365044 -0.052178269261367885 
0.33556232777602646 -0.3802568404642041 -0.060860545407836572 
0.95821109090274148 -0.51366813075885087 -0.94818490488282592 
0.075435750457364725 -3.4694469519536142e-18 0 
0.18102094170311162 -0.29277598535054045 -0.059996624387550185 
0.12878848711850105 -0.12250040779849505 -0.039853497542064922 
-0.0036865246683371461 -0.069894223967160274 0.35138043992472212 
0.072976824257573486 -0.12557144336563397 -0.17939960466887733 
0.26923706283558568 -0.3902986745474939 0 
0.50675772053951529 -0.13339870143469568 -0.0059650650890819279 
0.40018857895816096 -0.37312487603413441 -0.92997594082870572 
0.031295173770082986 -0.081325545212481795 -0.0302011254299689 
-1.3096940708124802 1.4824161986886124 0 
-1.6109804989719214 1.4227106232541364 0 
0.215605628795731 -0.19673141996214819 -0.32811125733979829 
0.24686898672207216 -0.17880419685041773 -0.29180508288250073 
0.17917845440852753 -0.25623361930032124 -0.19963882621753629 
0.20093364569384656 -0.21859609351435227 -0.52051779926340158 
0.040032231713979641 0.068688711860382973 0 
0.16144070959351406 -0.18822522392624358 -0.59095268881748253 
0.2995020427482642 -0.27784880940837287 -0.044530927749582366 
0.7745843294671747 -0.26486520265696867 -0.20019829791609633 
0.85513741104077878 -0.76448149701926327 -0.39063121288615649 
0.14417062612156245 -0.20143735125100581 -0.28815986730317183 
0.64860130656857007 -0.72907168395838684 -0.74331441340928128 
0.026962576540166726 -0.07073320218877889 0 
0.89450494249832035 -0.88310290385544365 -0.41806948647305719 
-0.080436777308519322 -0.14681487556927081 0.11868398255603402 
0 0 0 
-0.027275800255484046 -0.0092570224425862178 0.47164024605857913 
0.65512046852392436 -0.63585480932075833 -0.31768947790171487 
0.44791062212208388 -0.37744693712394373 0 
0.035509050088469392 -0.20529573536464313 0.19645652273096509 
-0.31708160006581171 0.44593339207428384 -0.17555235025528707 
0.58017121607018696 -0.67451869930624619 -0.30959664373654433 
0.41191951694490092 -0.51766953710331531 -0.45945262765796219 
0.57477435958198486 -0.46318365408385254 -0.073272956505214634 
-0.21282463256070397 0.11138163730169497 -1.3877787807814457e-17 
0.33266170957025776 -0.35337764804007527 -0.42969057529232157 
0.0799806589596877 -0.19363947495462347 -0.27919908341326083 
-0.80173056376174356 0.29872773074970288 1.2049430410895503 
-0.13295579548145214 0.43442794979303956 0 
0.19911399460484028 0.027096069723697984 -0.24291188387154694 
0.63205465687013984 -0.72487690671465055 -0.53714181703496455 
1.0181560643813965 -0.43898437633166298 -0.61633611853190196 
-0.37745175329358716 0.60837187583377028 -0.60516272441742791 
0.71477214837954151 -0.63410838602987907 -0.6103905543557725 
-0.5984538296247075 0.61860070732915318 0 
0.49817544693688048 -0.51964071515880494 -0.90359636882421324 
0.092380347651942668 -0.23954256905195964 0 
0.12844961033854638 0 0 
-0.33298617325707675 0.29711754186155159 0.49952925089956557 
0.12844961033854638 0 0 
0.25635447407712197 -0.34733884643550034 -0.1195503752668543 
0.42549842259252768 -0.44395949464742662 -0.56441930181100619 
0.12844961033854638 0 0 
0.38488296166555014 -0.25607900878803813 -0.054956777383725189 
-0.35131003293612056 0.1626085626878212 0.85742653534452429 
0.74210602450270391 -0.60803599105147055 -0.60966262280313288 
0.29178165460544803 -0.28681972153678004 -0.59858722093760663 
-0.039566854454436917 0.25436004562652237 0.028331055711757626 
0.36299393430670779 -0.53216182761867703 -0.61605973956392868 
-0.29051610326324107 0.22045867155626658 0.16642945825146963 
0.62040891505725648 -0.67239415515510381 -0.45008715252208986 
0 0 0 
0.29271023622306463 -0.10150541895122502 -0.41452787174555161 
0.25413291175553099 -0.28590107932184589 -0.28595873827688578 
-0.8569749797391405 0.6184644494897017 -0.23446401512147236 
0.77031194479801512 -0.56808945633615016 -0.52979171942417014 
0.14018208844285976 -0.16593481203890867 -0.27178179914095246 
0.17182177818967009 -0.26075819195442851 -0.64606455725418599 
0 0 0 
0.23384456756306732 -0.17637824483319106 -0.74004172566365445 
0.016954993144245145 -0.21227153977565821 -0.14298953797538091 
0.31489147151699365 -0.37987756293168468 -0.44813316483025778 
0.083885051606636285 -0.069268905327503807 -0.12163659281596054 
0.1436863485947576 -0.55483041825103485 0.65215391278122015 
-0.66454142338245747 -0.19114889010215733 1.0526412772906404 
0.003658633161887863 0.13569784715894942 -0.60335267544463078 
0.40876383196379229 -0.56832139952791949 -0.44171086881051602 
0.50826838384652218 -0.548464522243441 -0.90717132636146702 
-0.23191980160974929 0.37352611522329365 -0.028419503943016736 
0.68309594940492691 -0.39846672828713292 -0.45408348105076685 
0.58042075109391178 -0.63981944414198511 -0.21316058379507549 
0.86968990559733583 -0.014401239597037346 -0.80128294918982279 
0.74973227812958321 -0.85714285714318417 -0.77744819990999936 
0.022041466146160205 0.29276480328766469 -0.31629640091561806 
0.69822752730204263 -0.39147337499226081 -0.51485144240318337 
-0.52339142871779598 0.57942399930767796 0 
0.30788638603599267 -0.29041437319854996 -0.25891463175912044 
0.30788638603599267 -0.29041437319854996 -0.25891463175912044 
0 0 0 
-0.15713617915967046 -0.013087953252510841 -0.012679570057929484 
0.46421445616590867 -0.51082982919420572 -0.11555930967829769 
0.43128286569028679 -0.43192226076799767 -0.2460267414784198 
0.33766417663597775 -0.42796477784032783 -0.64635675404477333 
0.23649596705296891 -0.66415441784943974 0.41693146457415509 
0.21158842096552616 -0.23020765940497351 0 
0.31200633857217708 -0.19783729220494706 -0.33952932285306392 
0.8239872537791737 -0.84836115872788309 -0.42041223128614996 
0 0 0 
0.065899087813040352 -0.25067540145352379 -0.01718785690622153 
0 0 0 
0.29335687954894196 -0.61467046250744317 -0.31334611610007229 
0.10306902015949444 -0.1144977203767011 -0.010593951772181143 
0.1012538181868691 0.068464362564640904 -0.29898491948532707 
0 0 0 
0.30974590377665867 -0.54694297847420381 1.7347234759768071e-18 
0.046622361167891327 -0.35861699168801825 0.22842775840709301 
0.88189703563825095 -1.1656564070080324 -0.2886305355524228 
0.25946725724244152 -0.27684161705659704 3.4694469519536142e-18 
-0.46450819726774617 0.045835563792812957 0.96476833692045205 
0.28811394752665653 -0.22848712327425685 -0.67189504367573494 
0.25667246493706841 -0.10010285249062317 -0.20331423960946657 
0 0 0 
0.30084497493713919 8.2399365108898337e-18 -0.22722239525139609 
0.10342531229481154 -0.12890987484566047 -0.96075305482829576 
0.030307694826390171 -0.17510888883186149 -0.10618948768072127 
1.214306433183765e-17 0 0 
-0.41998541438431769 0.4226254976647813 0 
0.051925935086532697 -0.1165889564652724 0 
0 0 0 
-0.11194195487089603 0.04424689238928553 -0.012021170751030725 
-1.7454225274050623 2.1510973245902423 -0.14391473953046494 
0.45885342937329265 -0.43608265881581343 -0.65845777475040834 
0.88843843593567362 -1.1266282109383305 -0.73177127177795276 
0.4677397116525791 -0.38200567937850494 0 
-0.035859129544089527 0.29138567126399056 -0.11231404734394211 
-0.29904297977638405 0.027214062833215841 0.91205276918578759 
0 0 0 
0 0 0 
0 2.7755575615628914e-17 0 
0.092231424899851019 0.26660893570773525 -0.14516038137526133 
-0.049665821089234681 -0.29017518747037518 0.28773347811188527 
-0.01697562787169056 0.032297836775573074 0 
0.37366690293469684 -0.066634911623285817 -0.23517851361445152 
0.23784469633987881 -0.13694904115393647 -0.25938861647179751 
-0.11393657079011495 0.33600682398497328 -0.23760753948143734 
-0.012004045316277738 0.0012609227752760355 0.0053716075002674954 
0.66907362105365253 -0.79616335188832754 -0.17143441005339002 
-0.784702360027694 1.007948115502316 -0.43387180522872065 
0 0 0 
0.041500604104252041 -0.47247571854975129 -0.38402898866983792 
0.0056994912549132078 0 0 
0 0 0 
0.21181959812990869 -0.16208124801972426 -0.4514824553939536 
0.14889696474403913 0 0 
0.042394905222364623 0.010491186360095288 -0.55577514811541739 
0.018293972241724264 -0.0085491351630030323 -0.13090156601414851 
0.041229457043020307 0.018837575078229741 -0.23868676046969597 
-0.052859223900991271 0.074510878639087119 -0.18078028297682081 
0.73458374756077738 -0.32322896826789987 -0.25111315760229652 
0.034906829748850107 -0.023462078871284275 -0.57201005693546059 
0 0 0 
0.011719999697140332 0 0 
0.14472071539999315 -0.45842673171838416 -0.088891959713901111 
-0.069310831728803035 0.16933964289698 -0.022731046812802795 
0.011719999697140332 0 0 
0 0 0 
0.69062292828907101 -0.62991881861596899 -0.4631221187502893 
0 0 0 
0.89564248710582717 -0.89620032387893589 -0.67897470837719087 
-0.028522420656647684 -0.11714462850506041 0.26759128091447798 
0 0 0 
0.35933701221124076 -0.20159471032274306 -0.11660799864399092 
0 0 0 
0.069068243631060885 -0.19147195442672346 -0.034234476762628786 
0.43842327083830429 -0.59247788640041299 0.11405064804893092 
0.12298839071202655 -0.24525633043723058 -0.07313641836243806 
0 0 0 
0.28815413126560091 -0.15482535592848973 0 
-1.1042672455119655 1.3572635484086595 -0.66666666666666663 
0.42583956960216246 -0.25441056663548922 -0.29135455109940989 
0.045019806483139996 6.9388939039072284e-18 0 
0.12934672335565198 -0.10194555655955141 -0.24484492670211483 
0.19941763102745236 0 -0.070180695498098036 
0 0 0 
0.066868957621286071 0.035225176320642038 -0.36646782815949547 
0.12483360460141826 0.012159307787903962 -0.72961568135721522 
0 0 0 
-0.59396765623028791 0.63953405690868492 0.54480163509025292 
0.24037929991973778 -0.23582906679569798 -0.36700410531613031 
0.13378225994331916 0.0093708630231521574 0 
0.19648095032780316 -0.40235974736768615 0.44642506406512061 
0.51555612660763417 -0.471888685612742 -0.75541104641331502 
0.47547916089905795 -0.4970818951765017 -0.20481261610050711 
-0.12868103561576047 -0.095715643031394473 0.53586873959810766 
0.17876523863890881 -0.096816400201497219 -0.064262976559334731 
0.6336380458614479 -0.57749136631284315 -1.0483649087499582 
0.55461987435434468 -0.51409805690088506 -0.80023079979876288 
-0.23407755828539298 0.2342939930044044 -0.0044002146960780454 
0.19291757381585728 -0.20399162584884814 0 
1.0414702693185991 -0.93199192249322604 -0.49059107460748713 
-0.12157481167074434 0.13853493854140997 -0.20452348124161113 
0.13025500465235373 -0.019292128317385492 -0.65204910855470577 
0.34595005080714275 -0.19523738654599604 -0.53792517761462866 
0.087343682716758381 -0.13009868533311131 -0.068548355095493563 
0.044843569725586549 -0.054859831282242581 -0.085990852157214553 
0 0 0 
0.0063165228002590411 0.010369163630756625 -0.37527710110063323 
0.011247105653559792 -0.46042282563747022 0.63226346829471336 
0.35271980002941838 0.08184071234757824 -0.502259903866904 
0.3556669120419006 -0.39963140483494131 0.050143059707684484 
0 0 0 
0 0 0 
0.24652948151076676 -0.17263574982848512 -0.042335094094306636 
0 0 0 
0.12262742595813031 -0.23965769644218576 -0.012996312168548532 
0.045855516855042577 0 -0.12566690417220189 
0.51067325189566515 -0.34507989938968847 -0.67733090295570419 
0.45757665362481098 -0.68544327342223543 -0.07966904130649273 
-0.11786176718503469 -0.050794715568122886 0 
-0.0034822532665024358 0.091809310418987586 0 
0.8664858445597009 -1.1411413225294331 -0.43721929402697807 
0.28760644841003641 -0.20869802614255711 -0.0022305594523595517 
0.76539695678969943 -0.86923026131766234 -0.92186841101200845 
0.42253207773898349 -0.30249359651881186 -0.26248809464502165 
0.046161212760561871 0.0071810597445112131 0 
0 0 0 
0 0 0 
0.28693945211020755 -0.21476832970120768 -0.36100126956873663 
0.76646914864175719 -0.10919862288252573 -0.43080359357919962 
0.7548243639920077 -0.82329549778515609 -0.44266369872878214 
-0.12750013569270482 0.10943258437526056 0.60730076255060317 
0.1526556604540053 -0.15484163960404385 -0.3036556905661747 
0.24558671506534269 -0.11703507791372779 -0.33413114576620179 
0 0 0 
0.74225579901269467 -0.76051645872967755 -0.26689221836258864 
0.60284630807850303 -0.33156757184179597 -0.27854994425274443 
-0.013463803455242817 -0.0078454115202366507 -0.3252020430353123 
0.30550638084629456 -0.23158977542694481 0 
-0.98002069102247724 0.93922178845244086 0 
0 0 0 
0.43849758649230308 -0.30969842151605953 -0.24868800684205869 
-0.3119696920914129 0.13124620417622113 0.35339007386500226 
0 0 0 
0.34884235664119123 -0.41220134974554057 -0.41238003371476245 
-0.86431083181300505 1.3461603304932837 -0.44051610626844878 
0.76040221251859486 -0.85373137756731565 0 
0 0 0 
0.069397436689982606 -0.14998502438560429 0.20828961320711337 
0.25326180916861851 -0.26493865370968522 -6.9388939039072284e-18 
0.45838003410902362 -0.44193456896799949 -0.0055094043214590945 
-0.12409498686879912 -0.11592614294081752 0.058101261774077373 
-0.026610706571474595 0.098125733182854891 -0.41949996207900186 
-0.51212930877281371 0 0.76401980621786825 
0.086734453112529503 -0.027018827673028014 -0.23482080693258153 
0 0 0 
0 0 0 
0.24757321568888779 -0.056172653319265763 -0.15882951192344455 
0 0 0 
-0.026480138668619632 -0.22488684085025251 0.6228801595818384 
0.41365355122066588 -0.5019451848322859 0 
1.7347234759768071e-17 0 0 
0.41137532860896225 -0.40991380122472543 -0.33133307239647608 
0.54654937642170209 -0.37401771159196823 -0.23651647170872517 
-0.30725179782634615 0.28347465975145048 0 
0 -0.064629613642240888 0 
0.29866716563517204 -0.091633053074528736 0 
0.16042180166373859 -0.22858680858368793 0 
0 -0.015161705334860163 0 
0.23689683277996859 -0.1663948017788687 0 
0 -0.01516170533486017 -0.014815544953215784 
-0.29290195468272129 0.39926356157587506 -0.053082552313853851 
-0.31945916098483901 0.28375136694918252 0 
0 0 0 
0.41699896756198684 -0.35722003938358238 -0.13934604222074595 
0.45568547987634578 -0.31566118501679091 -0.35838895428224726 
0 0 0 
0 0 0 
0.79611754499717091 -0.44098568167762614 -0.82578712692757839 
0 0 0 
0 0 0 
0.51831680387046442 -0.64406310428992664 -0.60829456604601728 
0.27916689796649741 -0.25074625387468102 -0.90947610612718255 
0 0 0 
0 0 0 
0 0 0 
0.062162315855872105 -0.18472775162415689 0 
0.73626022281550618 -0.72576196512500302 -0.543184961684825 
-0.35141635304347657 0.30509929403004471 0 
1.1343750214070463 -1.089315952397284 -0.57546140715962868 
0.66951597688818287 -0.62590443155777664 -0.312672317713586 
0.56305017255294021 -0.52259138791006055 -0.097130221898337907 
0 0 0 
0.20995829388832643 -0.33626612303541814 -0.026983296583460128 
0.10423962794032256 0 4.3368086899420177e-19 
0.56658413035977151 -0.61053215826821483 -0.86838549781053487 
1.0419948367432275 -0.89050186373766294 -0.12370467713037317 
0 0 0 
0.43302728618044878 -0.46753865119632115 0 
0.79512403687650113 -0.60729235718343677 -0.34390771908083917 
0.53651274604024357 -0.21652379821843032 -0.33720672503173688 
0 0 0 
0 0 0 
-0.048930373236954816 0.12522434441468783 -0.64696601483189531 
-0.35255551154898274 0.31528456805374311 -0.37853688874020125 
-0.3210738622581123 0.0086112200813992807 0.5138798630250605 
1.0290028246755412 -0.68661154920090184 -0.19642562048423845 
-0.1039009794405707 0.058265920807881663 -0.061393358443580931 
0.28552073086979646 -0.3336018113154488 0.07759205588977211 
0.00388622925286531 -0.10353641794935277 -0.1822644106632888 
0 0 0 
0.5279436630075699 -0.47489487498440358 -0.45540464002607489 
0.021203883862107788 -0.052922564066882768 0 
0.55975699881550423 -0.24974752840316966 -0.36449409549750572 
-0.10955402860949107 0.16095681614920732 0.34610598473561999 
0 0 0 
0.43064926513222179 -0.25382068528168722 -0.98891081100668932 
0.36883523401535279 -0.15342146252365688 0 
0.25899353236969269 0.025416271766630236 -0.3793486708134734 
-0.092441790952015268 0.1810071840592534 0.058462449136974196 
0.092764903589876005 -0.18403042958500365 0 
0.22661447820592659 -0.073280217845307846 -0.33602141070209174 
0.39535547824377093 -0.49221483403203869 -0.60440192028512074 
0.57008363455444788 -0.65279940240547396 -0.41584399311396564 
0.3804495192813297 -0.6062693063235427 0.015298892679817249 
0.097010958326849667 -0.18695427066845649 0 
-0.14136141792051468 0.31501500103922164 -0.57481033729975617 
0.088042291140602802 -0.036166817826697652 0 
0.42469093339177066 -0.22874481942646269 -0.93417792051291748 
0.21500501683612691 -0.28609459371420598 -0.86283413595629899 
0 0 0 
-0.12734193750028211 0.21060205572444701 -0.34389988861383525 
0.11070183648199704 -0.32378455840863163 -0.038559783210227058 
0.59605649978918451 -0.7030724759057515 1.3877787807814457e-17 
0.35781827398869642 -0.33796469092415249 0 
0 0 0 
0.44997600055089015 -0.53994482063917149 0 
0 0 0 
0.48564540341760659 -0.57326118341852295 -0.6026639671151135 
0.21421860818162083 -0.24547874050306084 -0.21608897640709721 
0.3273256947749299 -0.25636043489201787 -0.24081729353546405 
-0.02049616271723121 0.0092241995899943561 0 
-0.34077870734120513 0.16917920144595336 -0.085358530925896764 
0.44309300704280813 -0.39568099825860203 -0.32418834270627772 
0.43957405989244575 -0.3838411958372957 -0.67686422115320866 
0.067082271782775399 -0.033436822932215192 -0.66666666666666663 
0.27607858764155124 -0.1055762352160908 -0.76344503250813422 
-1.2230922322158366 1.102739334608086 -0.18513662450776289 
0 0 0 
0.069578680852205116 -0.37646582931715611 -0.0015253924187678489 
0 0 0 
0.053012706742303232 -0.17358042041435207 0.15440957141312531 
0.082919665735471659 0 -0.033019875188660605 
-0.062015506789386485 -0.19003953117976752 0.45638062642045918 
-0.41730832310727595 -0.22354976859460335 0.95003829031455556 
0.16858783832559004 -0.054690040507117219 -0.54564981206611229 
-0.66223449962387404 0.65694805070086792 0.32462992262431523 
0.33591230334791872 -0.9934767949500487 -0.15564805750228453 
0 0 0 
0 -0.047457033178667188 0 
0.23602658145226563 -0.18857859015985917 0 
0.21005164904056017 0.13679450825353148 0 
0.057366910214573567 -0.14096347538893858 0 
-0.15426398277905787 -0.18436357408145679 0.73991164191611347 
0.004011593474904724 0 0 
0.10008364100697499 -0.41653842269485236 0.26744702941477083 
0.88046398222300315 -0.59042549822089596 -0.4856116096988693 
-0.27298241743776086 0.11850756636524008 0.0049792506584635425 
0.084409298509299374 -0.21058741764220945 0 
0 0 0 
-0.16277436639686593 0.21858512613021283 -0.12920951667692299 
0 0 0 
0 0 0 
-0.14021200883391055 0.17029026576380304 0 
0.62116529057078551 -0.47852814353723661 -0.37934867081347334 
0 0 0 
0 0 0 
0.43361852122556166 -0.085931923715859282 0 
0.33438934792701858 -0.095860618641212106 -0.29898491948532707 
-0.28150985577466969 0.64269432573422458 -0.90185502266325746 
0.15314096904570151 -0.37591648330095906 0.38138667757213573 
-0.53107019849940185 -0.26888710425592688 0.61803294504515027 
0 0 0 
0.27755326701990557 -0.25854195633233923 -0.61806492768908605 
0.23848933326721955 -0.33362110625086155 -0.12090243453752139 
0.20245992201393229 0.070312100367991043 -0.67775132578615138 
0.31985517576173339 -0.2306090171019628 -0.50799654498407998 
0.20802789943565689 -0.17895341094977657 -0.46283544678865662 
2.5272690476574575 -1.1310498955840493 -1.4320289693499815 
-0.58933923602281968 0.70814888894670469 0 
-0.25383903390396528 0.17862244482384307 0 
0 0 0 
0.49200932911305395 -0.062421588794474847 -0.51750784602000843 
0.25039223454423232 0.25261364324178737 -0.49458021902130411 
0.23305086203390826 -0.072426798439296627 -0.33334896018333854 
-0.029912227628718716 -0.21410706925023953 0.28908977296634669 
-0.20497489567749294 0.27048854827263952 -0.14729188300362564 
-0.26045967806827863 0.43031463029798123 -0.11685091714283619 
-0.0020504635006428178 0.11366983217268666 -0.21759291289141197 
1.0408340855860843e-17 0 0 
-0.64226339711511715 0.91156092463029714 -0.21223351245076555 
0.058966164152208775 0.069510572631770171 -0.21053336289683633 
0.2348421304568872 -0.079658503471574271 -0.44791141311404292 
0 0 0 
0.10984649246544445 -0.30530108777178394 0.08841288588920887 
0.46145543817755075 -0.56242015891124986 -0.5519083442208752 
0.26396485577702522 -0.96762196848750781 0.5122138015709945 
0.074361346622563884 -0.36359302768735952 0.36731083762431466 
0.43071597078985385 -0.69096004164561298 -0.45144343985693952 
0.87405590496801877 -0.91508164649813017 -0.81949968195225764 
-0.42090787403666641 1.1709383462843448e-17 0.36885205279869382 
0.077292073440489398 0.032744197707981391 -0.49108497999638839 
-0.21503126734990802 0.13959430808901227 0.17634364543541461 
-0.58645201539925162 -0.14106936657167132 0.62934240654629225 
1.1275341093171973 -0.75637052189607434 0 
0 0 0 
0.47137640298839251 -0.40624854537994348 -0.068632254110880392 
0 0 0 
0.36201822148495005 -0.37599261445282961 -0.56795561892747259 
0.030307392400700853 0 0 
-0.22156610599617346 0.41610955053406762 -0.083277854459425371 
0.27771554421521344 -0.32305218904700073 -0.076071880078664139 
0.2118029058989514 -0.27938037138131772 -0.14808499691189655 
-0.98024198889807257 1.057294708434076 0 
0.10633137457887225 -0.1618129013329267 0.23258425903515814 
0.17926209539564497 -0.27896095727282633 -0.52413522452642247 
0.074132693419635839 0.34805162546269064 -0.46753956306526334 
-0.21284621876853643 0.18769910940238757 0.40609669017544259 
-0.19308647604854218 0.19857137245653972 0 
0.025276531334912401 0.074253842971070391 -0.17755731623152532 
-0.63608977924994048 0.5240161526009417 0 
-0.045096908757116499 0.21675043986557543 -0.034344703809866824 
-0.63608977924994048 0.5240161526009417 0 
-0.63608977924994048 0.5240161526009417 0 
0.2933350020824505 -0.32887708874265542 -0.44410075479267913 
0.47248895857726164 -0.6145732321050924 -0.55664837280075219 
0.054417219833838751 0 0 
0.22345443600721093 -0.30813495398618368 -0.10573419658201588 
-0.12581330863433926 0.15819065748867467 -0.38454832459735455 
0 0 0 
0.066089379996770739 0.00087006300929058818 -0.23187188952125534 
1.1799702185511864 -1.095241892764192 -0.51729032385769225 
0 0 0 
0.66775245608573841 -0.64856427930432858 -0.30138658478973823 
-0.094454505076305706 -0.36559353019686841 0.52546673457024773 
0.0052623625140757538 0 -0.19277715887101071 
0 0 0 
0.23752290356048303 -0.14876404697949339 -0.50873230257040336 
-0.074286064470130808 0.12234404829542875 -0.0011058164169992536 
0 0 0 
0.18754592952838431 -0.31348395064556178 0 
0.69247773486910835 -0.62260327322573716 -0.89337279992161922 
0.055994172662273224 -0.026672250005870569 0 
-0.65228250188974157 0.82821077868179649 -0.30925477390328748 
0.31095679014385541 -0.39713490532585904 0 
0.07292352690850594 -0.31299971346319749 0 
0.13134493733907465 -0.037972408361818782 -0.17534265765230517 
0.61088553156760783 -0.29849882073667555 -0.69364255391413832 
0 0 0 
0.24840281747358836 -0.17121534136751401 -0.074286342561329308 
-0.33744282317572771 0.59405169725727036 -0.21773222177645557 
0.18712669676648308 -0.26179125287451821 0 
0.18712669676648308 -0.26179125287451821 0 
0.18712669676648308 -0.26179125287451821 0 
0 0 0 
0.02194473814848058 0.0054899376363440125 -0.30843236571674992 
0.45931515408406171 -0.60410939396285201 -0.10798326218744989 
-0.66714203781668446 0.94435277923993832 -0.067323658687364285 
-0.19473292148307356 0.35955748669118914 -0.11861652512141611 
-1.4977120816128973 1.5732792626676615 0 
0 0 0 
0 0 0 
-3.4694469519536142e-18 0 0 
0.63856611126200846 -0.62346809887137644 -0.36911732533629665 
0.18741109499866221 -0.028775818732406862 -0.039192138202480402 
0 0 0 
0.007988553218225225 -0.23304097064899798 0.068261186786999661 
0 0 0 
-0.21915816172012464 0.20826226390153402 0 
0.1884883169292712 0.11226729153907898 -0.3309420674345136 
0 0 0 
0.21776525767954638 -0.12348549337627016 -0.35603290480089778 
0 0 0 
0 0 0 
0 0 0 
0.62421695223123486 -0.78306136656786496 -0.34834368119389336 
-0.87716063046228099 1.0088793930054334 0 
-0.15859606400018866 0.11063463748592992 -0.862585335500755 
0.99207179939630841 -0.13676574841576883 -0.29808961376195253 
0 0 0 
0 0 0 
0.34202311823103793 -0.44070905681507322 -0.40468278410230385 
0.020489182459079283 0 -0.0014119300009014677 
0 0 0 
1.4511138712037717 -0.71543919030895631 -2.1521601628462697 
0.56613271041022095 -0.53566002087859699 -0.4383904839751645 
0.62297118027948128 -0.51022079294262024 -0.86009713567140145 
0.61656763448625118 -0.25316431089001978 -0.2466260469262074 
0.63372885502409504 -0.77486070602256307 -0.59534601929316189 
0 0 0 
0 0 0 
0.10742489668960283 -0.24337212812721207 0.3190906710868579 
0 0 0 
0 0 0 
0.0044663634906215027 0 0 
0.40127947887473231 -0.37378501245787787 -0.50500901942828702 
0.36877248017820713 -0.29776896546264608 -0.76700408749289684 
0.013011488335658933 0.079269474556295419 0 
0.0017400302484744529 0.26836625018489807 0 
0.034161054054618833 -0.058984507647905887 0.21492318724565496 
0 0 0 
0.31508625432798787 -0.34193924908124906 -0.72675164330034459 
-0.065678162451790284 -0.62158055048398086 -0.018760137341742849 
0 0 0 
0.32766445295260765 -0.0022779359970736676 0.00010459485421181018 
-0.44232108554907057 0.59492594922496145 -0.0057455585031584476 
0.81557535198830666 -0.66016106242172656 -0.50731577799515182 
0.78912112834986847 -0.47908642269810542 -0.074483518100570398 
0.2131230460099022 -0.068744520278191973 -0.46153846153781314 
-0.15376589863591633 0.29340413482889083 -0.79713668131037629 
-0.13127246473313214 -0.58700389266626818 0.55564339223972103 
0.53243502111621643 -0.5170256627296379 -0.29079843752187862 
0.083280401640165591 -0.0074900594162062295 -0.22844005225304129 
0.059114258181554323 -0.19814975076416388 0.037863681161137731 
0.14669646622268501 -0.045412188860450564 -0.67839970264200333 
1.0302326433951943 -0.78766812848598922 -0.45450632714495376 
0.36759268997311773 -0.31533944994265822 -0.36372184076600333 
0.55037160924780992 -0.52211829536099841 -0.37063156291379895 
0.056562500996137341 -0.025052892522424888 -0.12017270282261874 
0.32213036074346885 -0.085662281095640974 -0.61420393551482011 
-0.16426931533731726 0.1745561635362054 0 
0 0 0 
0 -0.015619725013577628 0 
0 0 0 
-3.4694469519536142e-18 -0.015619725013577628 0 
-0.44612487848721727 -0.066647054153731039 0.71214381355799627 
0 0 0 
0.13437677484605773 -0.18334617209927379 0 
0.35532248790775206 -0.33240256753291325 -0.13863990677540738 
0 0 0 
0.075786082386076342 1.3010426069826053e-18 0 
0.68333662657996597 -0.74072142573753408 -0.23046181467115529 
-0.3597952203145105 0.39387395067666919 -0.012302598851974893 
0.421164857730501 -0.61227230058957738 -0.27491650104285992 
-0.0057592781215570973 -0.19545772965083016 0.39990515368462937 
0 0 0 
0.13722704408771222 -0.092897752744354689 0.12948111917053209 
0.06982596981356827 -0.62585878926211991 0.35648262543583153 
-0.92148218404473015 0.89694397073089238 0 
0 0 0 
0 0 0 
-0.50289260820016946 0.35039681327220557 -0.097999458528901309 
0 0 0 
0.94442927838980872 -0.99817028132120367 0 
0.99652783128324718 -1.0880977792172619 -0.17640163747042775 
0 0 0 
0.26605406225301903 -0.36175559469026813 0 
0.13844242062027279 -0.11780642304358704 -0.05233272703554552 
0 0 0 
0 0 0 
0.37080684345932047 -0.31108457661687966 -0.20965847992344486 
0.11703422819753515 -0.23124146588347674 -0.34314318148770906 
0.8014768894331894 -0.36299856334579594 -0.29947299014891149 
0.2099312987060955 -0.3208784638088642 0.04426781794142929 
0 0 0 
0 0 0 
0.53593154742284954 -0.4990961024282724 -0.63406977597648106 
0.18308609350372709 0 0 
-0.76266304192614576 0.26282140535339632 0.65061998635820018 
-0.26951718196547042 0.4973221710746496 -0.71936307515442843 
0.16069570903647615 -0.0082353220224268952 -0.18880410375684842 
0 0 0 
0 0 0 
0.96130608331368927 -0.63795275836387622 -0.068632254110880392 
-0.9593901098061699 1.0674439802123721 -0.21807189451278908 
0 0 0 
0.77779137503209195 -0.91466622340530845 6.9388939039072284e-18 
0 0 0 
0.29750673313580456 -0.1706015943980411 -0.52634802648750867 
0.033362700234427126 -0.67816084091639883 0.48546236369028162 
0.42036868668750599 -0.3859987834812128 -0.72101861405705114 
0.78098240447279665 -0.80248602066683372 -0.8571428571433386 
0 0 0 
0.69307019248509727 -0.030043977247776688 -0.86161261781844878 
0.25264393252196293 -0.054874525082287573 0 
0.29997663553196247 -0.39306654121804491 -0.27558475564063006 
0 0 0 
0.22240235715246195 -0.16223382740417513 -0.023672797074672729 
-0.081856897809703344 -0.49115829697632374 0.54009511099226581 
0 0 0 
0.099696936576212147 -0.1359333933962964 0 
0.074977127399276311 -0.4692992830314911 0.0026612383606289328 
-1.1399722685421934 1.3371470984625939 0 
0.23566775641241916 -0.49075250380077295 -0.18078064535235672 
-1.1399722685421934 1.3371470984625939 0 
0.66510034596097822 -0.63698990992448401 -0.32336378377495761 
-0.31099604393364155 0.40189896247644463 -0.12565931019978532 
0 0 0 
0 0 -0.24781051685747119 
0.19876237237937711 -0.10482335221944107 0 
0 0 0 
-0.48852728302957926 0.24771993693083583 0 
0.049023227682004865 -0.12344300942325991 0.40009696363881458 
0.20910572693976132 -0.22093918022682654 0.34947778193929208 
-0.26294329280810835 -0.56569655676251318 0.86799314918852677 
0 0 0 
0.76565320599533448 -0.69480858216126073 0 
0.3543858400725648 -0.14671838568517903 -0.11134445206715575 
0.1923430638125973 -0.28835446436498557 -0.06928710524159705 
0.21264152089962748 -0.10153520613564114 -0.21712516828844203 
0.39738218297501327 -8.6736173798840355e-18 0 
0 0 0 
-0.809683377796235 0.89016117404491546 0 
0.31710077361295763 -0.45360244577778774 -0.0011199894373343771 
0.34717742296159926 7.0865169503268877e-05 -0.51757628567396741 
0.074654044241761572 -0.12589031149793317 0 
0.29668527674516598 -0.055148687298017529 -0.28511184479200824 
0 0 0 
0.073068635369049492 -0.24642741093845844 -0.069830727732210149 
-0.80473366505948507 0.9618600141079523 -0.15222182691819447 
-0.55254428313588 0 0.79411618973428322 
0.21672397356508938 -0.15127836633867964 -0.11346190154390513 
0.1707010743587643 -0.57589523561190148 0.21920393454784484 
0.20495962790900438 -0.25629878063599709 -0.07671850394216996 
0 0 0 
0 0 0 
0 0 0 
0 0 0 
0.28696475103013813 -0.34062408512667885 -2.7105054312137611e-18 
0 0 0 
0.037127887940580973 -0.042270383384890614 -0.66666666666666663 
0 0 0 
0 0 0 
0.083851792542563683 -0.0035487618101089297 0 
-0.17887903153932833 0.44069302835114488 -0.19936865249175675 
-0.27323259653910548 0.21008661505594992 -0.11365882072599365 
0 -0.20157230168566237 0 
0.91412760206365462 -0.60872180095087125 -0.01564178792050102 
0.49081075502861654 -0.1516362182656901 0 
-0.28315223089268737 0.27730623721574549 0 
0 0 0 
0.4039992288256305 -0.08203826083048267 -0.72567882423508556 
0.17030845545704451 -0.32394356239206801 -0.1671459642679213 
-0.1519600471115678 0.15084134883747458 -0.0023063690178208042 
0 0 0 
0.21677759459487489 -0.15131756728810966 -0.113302097995566 
-0.14793808018037641 0.064196558717812532 0.44331707212133231 
-1.7347234759768071e-18 -0.0012180693284021423 -0.050009023723362543 
-0.17711542082465792 0.19650923528807154 0 
0 0 0 
0.19212533932927953 -0.30148669919305204 -0.012207105145706342 
0.67159232475646602 -0.71575423175273323 -0.12291031513393662 
0.80492672918388164 -0.085052171112519032 -1.3445549664246279 
0 0 0 
0.46596780730775134 -0.47354629210916527 -0.11669812217998091 
0.06609393816700844 -0.031405608304224092 0 
0.40018758726781706 -0.47966967170525232 -0.18430532536052341 
0.20573998763630674 -0.36296546501754479 0.62869672886571337 
0.16352056572358573 -0.22350025130036616 -0.73469865035268456 
0 0 0 
0 0 0 
0 0 0 
0.22988604630636075 -0.27789598990242359 0.0075871512298538732 
-0.11683982656521626 0 0.27740456575295269 
0 0 0 
-0.20232109203381063 0.18200004217767071 0.20910790928791656 
0.19737568108330492 -0.13280569466303593 6.9388939039072284e-18 
0.015500082572593112 0.0078848650500334058 0 
0.17393519086644005 -0.12573753055949638 -0.2675026963358304 
0.62686102170581615 -0.99835761221716779 -0.063262492974909892 
-0.63449780634350772 0.94487895721976434 0 
-0.60208543337213405 0.58738601841554539 0 
-1.0089594457576345 1.2777918403361557 0 
0.10423250485993509 -0.006980431233323859 -0.41410588579787855 
-0.67455902055077133 1.0740716700153234 0 
0.62955575995235447 -0.35330095513089632 -0.19136378137247606 
0.18334732842735793 0.22034746376622369 -0.64483702103730889 
0.74440927248268163 -0.52388503087093585 -0.34113078378052958 
0.41309109561492469 -0.30072141229084554 -0.86962404784490044 
0.24322018205736562 -0.19852566874581301 -0.1850884629879051 
-1.17491732103409 -0.10952613578971786 1.1452186061014471 
0 0 0 
0.33013853136493498 -0.34894187088836404 0 
0 0 0 
1.2104717080314702 -0.52632259898017175 -0.045286315735881356 
0 0 0 
0 0 0 
0 0 0 
0 0 0 
0 0 0 
0 0 0 
0 0 0 
0.590967349578287 -0.68703076455275991 -0.35825062719827505 
0 0 0 
0 0 0 
-0.42408637646192077 0.258279728313344 -0.16311008120827411 
0.20920225568657908 -0.099540644028487113 -0.14326139753142808 
0.17969480763247508 -0.21734815319662268 -0.13216280635766658 
0.20177894484090542 -0.10553413421198657 -0.70026539187375803 
0.38420276195127112 -0.19272763733571699 -0.23447516065648644 
-0.12115112414476521 0.22356385363514014 -6.9388939039072284e-18 
0.27829537622342126 -0.124334230096311 -0.47666671844688191 
0 0 0 
0.43588542560105104 -0.27313664022972678 -0.17681675614710857 
0.10365930656841509 -0.073221919573654731 0 
0.30475285082961195 -0.58180902027079962 -0.17117530889870508 
-0.92986147513317952 0.73587798683979511 0 
-0.26459069099506316 -0.53250570179528034 0.56072639651465217 
-0.00090159960964010261 -0.13860005162718875 -0.53663664478099915 
0.18946981208791849 -0.1247544215762257 -0.24139025364172245 
0.18946981208791849 -0.1247544215762257 -0.24139025364172245 
0.95124127018505622 -0.85893431184101521 -0.0054739345179064709 
0 0 0 
0.1684775828674058 0.040796423246529163 -0.13574075837246308 
1.034703730843181 -0.76221638307250716 -0.76462988059562464 
0.078462263099214974 -0.22474958408018578 -0.21203224785198099 
-0.064109605513682971 0.33658800878926681 -0.39002355609683886 
0.26590772993748635 -0.30157477462366711 0 
0.67008096308690501 -0.61660538288064282 -0.92497783349531559 
0.54216098260887047 -0.27857460859394445 -0.6777230307148826 
1.7347234759768071e-18 0 0 
0.15461739503278848 -0.16028354023819746 -3.4694469519536142e-18 
0.46558317238911029 -0.58176007740204227 -0.22760747764329201 
0.49141878077070733 -0.23332117388910781 -0.18863345245023896 
-0.3146495224296505 0.28634256262167967 0.0058386552519257562 
0.22802951387319034 -0.40921324697584943 0.12875968137273089 
-0.29018719825576983 0.32639851390953584 0.42526828597119809 
-0.078683589070985271 -0.080606404436399867 0.065827788960117553 
-0.44512084601138785 0.12453382262367005 0 
-0.10736328684144641 -0.079727516359541534 0 
0.23764625014965068 -0.13493728146659054 -0.33882139720091131 
0 0 0 
0.056367386816812803 3.4694469519536142e-18 -0.027635716226437866 
0.010628017436278517 0.039747426935207442 -0.61400189773284375 
0.049748854916161982 -0.042981334759971374 0 
0.29615820580988089 -0.19980543379754076 0 
-0.28247829089756538 -0.54229929366229879 0.23353678598889471 
0.98910393670934393 -0.66617731427449856 -0.51485144240318337 
-3.4694469519536142e-18 0 0 
-8.6736173798840355e-19 0 0 
-0.1691210042818666 -0.32459891925141832 0.65492672809613717 
0.20328055683898991 0 0 
0.011215195397532888 0 0 
0.274391141932743 -0.36312174957660259 -0.45219127749169208 
0.31032057034921262 -0.72862060547704433 0.005073042544130775 
-0.27508103411132323 0.36989241312314364 0 
-0.34173151484607195 0.39629345571869928 0 
0 0 0 
0 0 0 
1.4371161396837235 -1.6348204121466905 0 
0.49915848063470336 -0.31585215584773391 -0.28238918763141435 
0 0 0 
0.62559214832131027 -0.69339106642201997 -0.72727272727250458 
0 0 0 
0.47876513175763447 -0.43214929961055104 -0.20138661338227157 
0.071842579087531055 -0.029193573127072065 0 
0 0 0 
0.0098984423735334684 -0.10618663115591301 -0.0070399466786642299 
0.40524583015790128 -0.38140609842889311 -0.10839958563554132 
0.39929090835921693 -0.22403887159660912 -0.078782360826673795 
0 0 0 
0 0 0 
0 0 0 
0 0 0 
0.24915256765989555 -0.33454087959794032 -0.048913157947782032 
0.093499728099926807 -0.18977498411746499 0 
0 0 0 
0.14228041627902469 -0.20693602147276555 -0.027478735805445624 
0 0 0 
0.35866659542627521 -0.039948710823760662 -0.0076030884500092391 
0 0 0 
0 0 0 
0 0 0 
0.070094969846287547 0 0 
0 0 0 
0.2141331404362169 -0.041440749589435139 -0.071853159210728809 
0.031117966161184549 -0.17098328144625996 0 
-0.47513909843901569 0.40359808820347365 0 
0.43345463101488457 -0.49631063358769995 -0.29468836879689586 
0.67698044723049533 -0.40094326615324344 -0.65322586489066559 
0 0 0 
0.14002595683832242 -0.18135042193254197 -0.11356082132041345 
0.3333925307815353 -0.293708787063997 -0.085282474008592596 
0.030579208522934088 0 0 
0.12537067268637594 -0.05291718086017394 0 
0.022315549304734273 -0.0079235626569012056 0 
0.31406135752070946 -0.074299632398342128 -0.61840190671995587 
0.15096028382706334 -0.022335494273702284 0.11550635324754395 
0.51456636980705728 -0.62843285140653382 -0.63919984213935566 
-3.4694469519536142e-18 -0.039177492860471459 0 
0 0 0 
0.59470160109296755 -0.24165574528629286 -0.32481960701776713 
0 1.7347234759768071e-18 0 
0 0 0 
0 0 0 
0.89839631237719375 -1.0075482736720365 -0.079535039831256316 
0.13637323412230795 0 0 
0.226745431700274 -0.18467571561156276 0 
-0.092617688477227053 0.12697416969106662 0.077513799040938192 
0 0 0 
0 0 0 
0.39858060720366151 -0.21883528061477275 -0.38695856689444258 
0.11447673396880838 -0.11984466630935466 -0.09084456992257961 
0.29571824799314267 -0.1337114576268007 0 
0 0 0 
0 0 0 
0.24394063800676002 -0.39629118973897054 -0.23923252051487723 
0 0 0 
1.3877787807814457e-17 0 0 
0 0 0 
0.44761674436778986 -0.47865446333762501 -0.044897860013996954 
0 0 0 
0.30487906489302896 -0.10113622250498717 -0.2145647216127777 
0.47575542925969527 -0.4105316308056764 -0.0064994997493227902 
0.75641016296092023 -0.83189684670869934 -0.70602265990734348 
0.2653782432926573 -0.34430724283180103 0.079245956173687931 
-8.6736173798840355e-18 0 0 
0.46114215826901134 -0.6284260738026537 0 
0.33222340884248347 -0.38653311525307943 -0.25694411935520994 
-0.1490994280970025 0.27378296266612279 0.36174263368734527 
0 0 0 
-0.20839978125725825 0.31306618844842904 0 
0.2831248036054595 -0.26075173323347739 -0.21948810345130276 
0.4860685223378724 -0.3199976081760475 -0.10540771119274735 
0.059178168377583419 -0.024646607539919943 -0.0075573830619892254 
0 0 0 
0.38832003559368838 -0.39686701478528014 -0.84983135959618228 
0.11988713564267323 0.060746683360125259 -0.49737802147083893 
0.013086103431394019 -0.11583512736969476 0 
0.35623175702673249 -0.27442850359129417 0.086225747090671573 
0.66400501414913726 -0.60118117488475686 -0.12763946516998892 
-0.40190349488856375 0.5477844104805597 -0.033319884012943266 
0 0 0 
0.24802611390495166 -0.13324972646961636 -0.40829256945359438 
0 0 0 
0 0 0 
0.13921225044586105 -0.14634590667804204 -0.010442175317517415 
0 0 0 
0 -3.4694469519536142e-18 0 
0.098915194569387355 -0.15331988149772985 0 
0 -0.083460277873794911 0 
0 0 0 
1.0035280813273357 -0.91096244036566043 -0.43201666264279281 
0.34093340084895229 -0.54562763645198609 -0.39308281150094049 
0 0 0 
0 0 0 
0.2844179697607514 0 0 
0 0 0 
0 0 0 
0.51253933066421387 -0.69216227696204813 0 
0 0 0 
0.20778356473354578 -0.31982872905633031 0 
0.0087557351957451776 0 -0.26204968347443419 
0.063480803965718896 0 0 
0.36644739757028316 -0.24593238259257316 -0.24985898864578554 
0 0 0 
0.47021757824942112 -0.37199992801359472 -0.12097427328256563 
-0.12486368886395219 0.13958474794317502 0.14395066238540136 
-0.55956064243075088 0.82556964552381662 -0.76123912126831728 
0 0 0 
0.013000050179944052 -0.025273534985260034 0 
0.27388786470207915 -0.46600774409492302 -1.7347234759768071e-18 
0 0 0 
-0.24454285518519445 0.48186389896043053 3.4694469519536142e-18 
-0.1909183184839443 -0.079939161747425908 0.49644903692397901 
0 0 0 
0.3494866130294329 -0.35146817519693885 0.15787205225642387 
-0.053037447324373467 0.01655820536484847 -0.0053840517069569833 
0.39532671820118237 -0.31471119700101025 -0.015341857957638068 
0.55486618265582122 -0.51494165205067399 -0.63848363019318022 
0.33051071261145404 -0.32057597554222028 -0.6017790760974987 
-0.86540674637745274 1.1621285977082141 0 
0.31907734215502964 -0.19580593272779989 -0.4684573608815859 
0 0 0 
0.13360719663422999 -0.24895851630920712 -0.040765718641363635 
0 0 -0.040765718641363635 
-0.081449088586356119 0.13953902662176187 -0.11688922981380499 
0.28301390391575731 -0.26934493020243955 -0.27929876924143643 
0 0 0 
-0.44066178672387452 0.44122558452244987 0.276466647741684 
-0.32756528976634836 0.20904789671860208 -0.076839209184988877 
0.12884507844900436 -0.22594414055040274 -0.0082174518535312827 
0.38752621387148606 -0.41983657475979747 -0.2863556725137032 
0.20658818960747791 -0.24786144800032001 -0.44632401199555499 
-0.2735318541852112 0.36450087515370544 -0.21898818598482914 
0 0 0 
0 0 0 
0 0 0 
0 0 0 
0 0 0 
0.38294268890444594 -0.37187715525795312 -0.10643051015800949 
0.50498273177848363 -0.49123458961136035 -3.4694469519536142e-18 
0.66494407764143437 -0.84384024399060176 0.033641747406200226 
0.35027308404013963 -0.36974602854524519 -0.57984391666501656 
0 0 0 
1.2276414483693625 -1.0750774155105112 -0.76823488449225685 
0.27998822239367316 0 0 
0.57360247906899053 -0.41036418799149915 -0.0049998246301596631 
0.12784054525712871 -0.19515467626135505 -0.0037957202368893578 
0.59968263487650586 -0.85241160422359574 -0.782285961210477 
0.48008861925372487 -0.37026189178522539 -0.75191249771069368 
-0.84583434767794607 0.47436976630914679 0.53221692309556901 
-0.54284014776435729 0.76055873827282094 0 
0 0 0 
0.031136619866015201 -1.8431436932253575e-18 -0.0011199894373343823 
0.70541840056273919 -0.76281778109020892 -0.66666666666666663 
0 0 0 
-6.9388939039072284e-18 1.8214596497756474e-17 3.4694469519536142e-18 
0 0 0 
-0.20797210264082494 0.17945480030198266 0 
-0.49743068350177383 -0.27282690245598534 0.96982727034453198 
0 0 0 
0.73332435032461685 -0.66561087781632489 -0.90777877305399635 
0.15105536803490238 0 0 
0 0 0 
0 0 0 
0 0 0 
0.19591713999381527 -0.14635829840370126 0 
0.13872809354175625 0 0 
0.2307790260338409 0.082926644687488796 -0.26476906938387512 
-0.70415391914153247 0.75485146500176958 0.38408462408670674 
0.13222032833286151 -0.022673480100800496 -0.33836365049167011 
0.11927458884303636 -0.33045070964950385 0 
0.1614340440903127 0.037689274945903899 -0.30015396156356144 
-0.26348387862945322 0.3269525866199342 0 
-0.5620475139672404 -0.49989457448844266 1.0702725015240808 
0.10637828732467608 -0.20321065292729415 6.9388939039072284e-18 
0.38867248135760696 -0.46105873253924617 -0.40095881203416117 
0.60534744677803121 -0.66271143617518891 -0.77503618058040025 
0 0 0 
0 0 -0.0017095273136142636 
0.49923262023221909 -0.60330576875092445 2.0816681711721685e-17 
-0.61987756457431931 0.78073901779861532 0.26216466012594858 
-0.08046653391285058 0.07159753508092874 -0.21323253972676459 
0.10114686258661684 6.9388939039072284e-18 0 
0 0 0 
0.084307091302682588 -0.10018813468104756 0 
0 0 0 
0 0 0 
0.11435820248480388 0 0 
0 0 0 
0.45917788815336513 -0.44912074054766066 -0.25298003364361388 
-0.25380243327677354 0.22752349263551555 0.18742991903193165 
0.26608260972156211 -0.17847642939252939 -0.12605326661503147 
0.016574397230704748 -0.021080135246580211 0 
0.38700115275940761 -0.44203410520126979 -0.0065901564758710854 
0 0 0 
0.032654364741112482 0.037137300553475257 0 
0.28855212135724978 -0.24032226682710797 -0.82196431406788317 
0.010869161866694427 0 0 
0.27767244614894065 -0.20593038047526241 -0.46160953208314115 
0.7259702284907632 -0.79055439617473433 -0.29495802001279803 
0.69562342344745676 -0.9064330209755771 -0.60094072819136335 
0 0 0 
0 0 0 
-0.29011163679298624 0.35448944634133822 0 
-0.3872463446432432 -0.50049736823784441 0.59375045411371574 
0 1.3877787807814457e-17 0 
0 0 0 
-0.30980757881224763 0.265779705903258 0 
0.024783708788825784 -0.49991181570361382 0.48382129392914608 
-0.065679997321682906 -0.28872104716615704 0.93900599949680541 
-0.19161175455312951 -0.24561323209525765 1.4063240398368233 
0.38807701362159364 -0.50576249378283578 -0.1142104031538588 
0.20551924433040142 -0.094309844364646317 -0.26622942218690726 
0 0 0 
0.10365930656841513 -0.099889366316482153 0 
0.27739858652930122 -0.2811290006521342 -0.34599148355639603 
0 0 0 
0.65510646842708353 -0.44061625597506326 -0.31960276400834153 
-0.22779418327459897 -0.5320442029430581 1.0677891304404967 
0 2.1684043449710089e-19 0 
0.15577068754023968 -0.13511400411797395 0 
-0.38047344534237765 0.4546398227704127 0 
-0.012803310296828898 0.14636152414729178 0 
0.57242402968020678 -0.54560334275665356 -0.74562599131134222 
-0.021563028517445345 0.037637089188536151 -0.53525409395337975 
-0.096109641480983457 0.14640612192609229 -0.16830405237262389 
0 0 0 
-0.57969995005417907 0.43176765229428088 0 
0 0 0 
0.71087321013312521 -0.80186490059945414 -0.93020520957140307 
0.2815623576290659 -0.17163271884834075 -0.33582504434059818 
0.69228641898356591 -0.83491226631291804 -0.99224892492672434 
-0.60004047135426197 0.64173628949695161 -0.29057216925188234 
0 0 0 
0 0 0 
0.27751701869575446 0 0 
0.30604457485877651 -0.17541960524500508 0 
0 0 0 
0.20044377697518737 -0.18944667685229677 0.51702383206355329 
0.52788524635036138 -0.71923101438093795 0 
0.056356466610767132 -0.098608696252472483 0.13225595785906311 
0.082313922908065384 -0.019835741858638983 0 
0.28732940050219807 -0.21775139514373623 0 
0.41098840498636047 -0.53406673019695905 0 
0 0 0 
0.3182481420640943 -0.35358480052823243 2.7755575615628914e-17 
0 0 0 
0.12861520067492216 -0.16466178915184737 0 
0.11724904963953288 -0.0042036740866504092 -0.10027041318084592 
-0.20452019740258465 0.22247949487017638 0 
-0.91247530341229255 1.1314017762473192 0 
0 0 0 
0.44461300842464108 -0.3681213672627569 0 
0.16462057523006673 -0.23927877963406025 -0.14297975073102986 
0.31445749480002183 -0.3116629337415795 0 
-0.10588185958607224 0.27017734254935094 0 
0.036526513393407942 -0.035544453775134224 0 
0 0 0 
0 -1.7347234759768071e-18 0 
2.1684043449710089e-19 -1.7347234759768071e-18 0 
0.069697000755399224 -0.011818962201112358 0 
6.9388939039072284e-18 0 0 
-0.17508923359675529 0.28265470991690839 -0.24099883605434821 
0.19734317514008654 -0.16775845638612644 -0.073617108484355293 
0 0 0 
0 0 0 
0.2418891491071542 -0.14585259233928644 -0.26422927825527115 
0 0 0 
0.12293942467991914 -0.050253235677003849 -0.092693199449994629 
0.71620559925170935 -0.65311954757702217 -0.19578386775593992 
-0.89545013208764379 0.57868550671982466 1.0035008846592028 
0.43581852402047816 -0.37357900935443211 1.214306433183765e-17 
0.38888309072097904 -0.36985897220434194 -0.7053898309640827 
0 0 0 
0 0 0 
0 0 0 
0 0 0 
0.1953371610739002 -0.25283508250514658 0 
0 0 0 
0.21677058507300256 -0.15132961461069719 -0.11293881700623551 
0 0 0 
0.26737892365353266 -0.3090047972942303 -0.3543734996163912 
-0.11510319141267056 -1.0115973934893665 0.45062755028749124 
0 0 0 
0.49085010880100888 -0.19537063767031476 -0.20024822731739386 
0.017099266980016854 -0.048895403421826238 -0.0015536521793364849 
-0.50068958595649593 0.35968585586174978 0.07451206210813284 
0 0 0 
-0.388617188378721 0.52288168517634759 -0.32414811261382265 
0 0 0 
0 0 0 
0 0 0 
0.2431452911607252 -0.049101722630130566 0 
0.53108698189271997 -6.9388939039072284e-18 0 
0.18537196703314252 -0.098302456437017655 -0.028874086084318608 
-0.11400564471324069 0.070350759127898815 -0.028874086084318608 
0.18537196703314252 -0.098302456437017655 -0.028874086084318608 
-0.12893299289409699 -0.29281369368133486 0.96147863642951592 
3.4694469519536142e-18 9.540979117872439e-18 0 
0.056291691759328619 -0.11697422828742285 0 
0.90810185261276932 -0.88540786175445707 -0.68014409203664772 
0 0 0 
0 0 0 
0.44066907405288164 -0.43105014514405959 -0.77664016396638236 
-0.32295300722734921 -0.0083439700031200555 0.5574473947483799 
-0.20903704674133305 -0.39593755805066 0.64143496277974155 
0.0022688212944683888 0 0 
0.75255323923005135 -0.78994139587024159 -0.60324154739083446 
0 0 0 
0.7982666397594862 -0.85456245622040949 0 
0.09310121081012479 -0.033455529447253919 -0.077032321371486231 
0 0 0 
0.99348176541235866 -1.0908139684171143 -0.061823078125126128 
0 0 0 
0.42931865383861978 -0.63300609050646395 -0.7029810850356204 
0 0 0 
0.36845580427677732 -0.31368895416545733 -0.69114967766401592 
0.66117390469412185 -0.58489240994445857 0 
0.13062104452917567 -0.1316821170769083 -0.2531805737014588 
0.061499201677359124 9.540979117872439e-18 5.2041704279304213e-18 
0 0 0 
0 0 0 
-0.50324418458016473 -0.1369039625207801 0.25978228628340139 
0.14119638032202514 0.25055545699884479 0.35216968432060225 
0 0 0 
-0.30303588651639851 -0.072815506899764931 0 
-0.37052740461220007 0.18480174674975955 -0.38974996705588988 
-0.071571119428763125 0.034715060042147861 0 
0.00081852092740663889 0 0 
0.31407810777353518 -0.22025856401898514 -0.13023556745132012 
0.00081852092740663889 0 0 
0.94482766490080294 -0.33852530426725425 -0.21922361475659258 
0.4133131760970718 -0.49577420728822802 -0.54152957823087444 
7.2858385991025898e-17 -0.056384005775532188 0 
0.28967326007989003 -0.35998722081227164 -0.67640479792698671 
0.70235199514225555 -0.72975777606227621 -0.53748458559096846 
0 0 0 
-0.27540668299497195 0.61890944170936724 -0.21277845893590089 
0.35747060918144419 0.026906811204941407 -0.60834508102979334 
0.52777905609806364 -0.040073254628202673 -0.35144545021710544 
0.66724926445630262 -0.61075928912782618 -0.63644616354485906 
-0.54687922661788124 0.46209412229590457 0 
0.18479138891321056 -0.18067858442649165 -0.027588628108074578 
-0.31987783027969674 0.34694804097368903 -0.20073735841747881 
-0.040227701886040614 0.047177036235498064 0.23097161846983888 
3.4694469519536142e-18 -8.6736173798840355e-18 0 
0 0 0 
0.57685118527887824 -0.58276332311758294 -1.083056299917212 
0.012983465440011522 0.35931886678757574 -0.3193145547604927 
0 6.9388939039072284e-18 -0.15154955653384242 
1.4831042993733092 -1.4927983248020167 -1.3877787807814457e-17 
0.34228922591962413 -0.3403610670611934 -0.11313680972907172 
0.011626840267043427 0 0 
1.1215018056245847 -0.73746400874197282 -0.29052368245639693 
0 0 0 
-0.35356251243802811 0.30619633398116536 -0.033524302070164234 
0.061067774584110106 -0.0023336547512955853 -0.0069526846493919089 
-0.66234948637731472 0.52134728378158202 0 
0.48554218449840358 -0.17141454695710293 -0.199627017206779 
0.2570713417396957 -0.39335963346716823 -0.36957648040599655 
0 0 0 
0 0 0 
0.12749896100606398 -0.018996324765847759 -0.13493363727187913 
0.58385102132609501 -0.84325531481727678 0 
0.058242133026420444 -0.02965531162776832 -0.24361297845745716 
-0.15292750418442264 -0.30340394475203947 0.43314365984008601 
0.45670164150654213 -0.51918427724240668 -0.23678763249125012 
0.28726349675024826 -0.098740429252062431 -0.58329025253002764 
0 0 0 
0.47149792108465804 -0.40563414716974994 0 
0.40195734587717524 -0.43030394873721733 0 
0.44222205486423255 -0.33795630053351711 0 
0 0 0 
0 0 0 
-0.0059488769661094482 0.026049481840920125 -0.61321680413667456 
0 0 0 
0.35612498147499899 -0.31375371006081104 -0.74505034178081397 
0 0 0 
-0.066283550806137223 0.10095591693967071 0.040548055694425912 
-0.27771837093982477 0.081179686677031168 0.075053326879157986 
-0.39338517295389275 -0.37613124725962049 0.59224467573889517 
0.60829176104160443 -0.45519454655621916 -0.11409343260508834 
-0.50923789249311124 0.44476467675689396 -0.1395746908962637 
0 0 0 
-1.4311468676808659e-17 -0.0058711555512091533 -2.1684043449710089e-19 
0.54121504693599287 -0.58376174063988617 -0.99268357711444832 
0 4.3368086899420177e-19 0 
0.40752837609647569 -0.61267861013297109 -0.065726223478589363 
0 0 0 
0.47213262864375194 -0.47543333960073475 -0.31454183401075198 
0.37529340803334643 -0.029821945184440413 -0.20024822731739386 
0.36402507620720254 -0.33209771239230185 -0.47270326231459237 
0 0 0 
0.21711926677329368 -0.096273059780251552 0 
0.34795201677354126 -0.25497070918876974 -0.46589749131491731 
0 0 0 
0.08200908763765119 -0.10090929922944511 0 
0 0.17823121089047933 0 
0.12935370246567346 -0.07558394674282104 0 
0 0 0 
0 0 0 
-0.14587481913413616 -0.044135425227851112 0.7802315765647565 
0.35103574324859932 -0.43463116425976062 -0.389741420916908 
0 0 0 
-8.6736173798840355e-19 0 0 
0.61022021880173105 -0.40391941103444728 -0.068992212594856314 
0.15815175128452041 0 0 
0.72765255862241307 -0.38762508048077637 -0.11660799864399092 
0 0 0 
0 0 0 
-0.090004644268248418 0.084688926622030369 -0.067852437713625161 
0.54758992318809818 -0.28017600451558999 -0.16812361764546888 
0.040416913141301122 -0.075619531222582956 -0.020093208367115929 
0.21496758083236339 -0.13696046120680128 -0.043027646890204531 
0.6029782237949568 -0.69707683428704104 -0.032615879945984506 
0 0 -0.032615879945984499 
-0.28621178780012968 -0.51617037185374759 1.0964294325321322 
0 0 0 
0 0 0 
0.01479793686861784 -0.014757888962782734 0 
0 0 0 
0.59386795276622584 -0.48630289433121365 -0.29468836879689608 
0 0 0 
0.093726962303371852 0.52545466075995961 -0.14120646335626069 
0 0 0 
0.5630694200817683 -0.48748901495274233 -0.84546606050952311 
0.58036669789842976 -0.63444752809505234 -0.83244623720398048 
0.14881270425733667 -0.078311743228143826 0 
0 0 0 
0 0 0 
0.37448989094134805 -0.30326830488481249 -0.19844310113106209 
0.51929215041581889 -0.61625920784061328 -0.3117268539805545 
0.02215750440286729 -0.15637569329001122 0 
0 0 0 
0.43203062554222932 -0.30121180611389375 -0.60229905954846219 
0.33136801905101143 -0.32163308939488999 -0.029039448904438624 
0.20082216737166711 -0.30756645640210933 -0.035943730770100345 
0.35747065568946518 -0.2127771463967186 -0.58635416109658722 
-0.32113743523729199 0.24613133274201723 -0.039947322107432494 
0 0 0 
0.38464700548706893 -0.22841098542446239 0 
0 0 0 
0.16185948951891316 -0.20512416635267999 0 
0 0 0 
-0.33248901920459267 0.42624819455015661 -0.15731051402683235 
0.39202905819929912 -0.40791306675581301 0 
0.19343470939291066 -0.1310069814262631 -0.015460528242680556 
0 0 0 
0 0 0 
0.70235783110039707 -0.78637997987743169 0 
0.76446203713504479 -0.82705119838554908 -0.90348321794384945 
0.92181631053213686 -0.042712007122248083 -1.1946488756730489 
0.49658428693863427 0 -0.63785312285184281 
-1.2668783603594922 -0.28976606195350868 2.0634855006522823 
0 0 0 
0.054961366374530592 -0.018398472083928686 0 
0 0 0 
-0.22019687154704418 0.25846889050232286 0.15617834798998778 
0.4501616984333463 -0.43550873639429194 0 
0.64041498065132407 -0.64572169403939583 -0.6477295590034734 
0 0 0 
0.28050543399353756 0.22343485438295074 -0.31960276400834164 
0.37582318074364129 -0.51078502776243007 0 
0.066567737673525362 -0.19866512581642265 -0.24381819748360253 
-0.37711183612783972 0.61470037184327142 -0.059936363193223811 
-0.14494170681305765 0.17952665147009605 -0.42136851831198396 
-1.0931553860473464 1.1478222987736517 -0.033807857539097111 
0.21679698459217622 0.076063720777973173 -0.45035984367429971 
-1.7347234759768071e-18 -0.29885603422338647 0 
0 0 0 
0.13479299868873806 -0.07316364542045499 0 
0.33192231470599826 -0.42470162213331725 0.083322791619009268 
0.67345022325022497 -0.71643763869076316 -0.61250512988507377 
0 0 0 
0.20755506890719366 -0.11154995443780583 -0.18028889963683567 
-0.073845689407465026 -0.59565793612578166 0.57042914117797672 
0 0 0 
0.17935381067461309 0 -0.51398352958125937 
0.49085685329661094 -0.43794937657152033 0 
0 0 0 
0 0 0 
0.38644449119752944 -0.095796033123519295 -0.04530902980227175 
0.22319560885236539 -0.1878557067131445 -0.066283200566380554 
0.14783463676278205 -0.16588913054907567 -0.36975684212136684 
0 0 0 
-0.99842092289312934 0.96138646613806178 0.97704303498600786 
0 0 0 
0.81757657504176173 -0.80989839936686914 -0.8677078894201099 
0 0 0 
0.18722627425011762 -0.37504194344401848 -0.12846381503967239 
0.15038133053416367 -0.2473132106689627 0 
0.15038133053416364 -0.2473132106689627 0 
0 0 0 
0.15038133053416367 -0.2473132106689627 0 
0.60822307803814513 -0.49209291989341475 -0.0017095273136142671 
0.15997146471521762 -0.20619353679050359 -0.026952638658785683 
-7.8062556418956319e-18 -0.038314960697531181 0 
0.1148891743537129 -0.11707417949388788 -0.17255338606233545 
0.59330541378912471 -0.64666212117516264 0 
0 0 0 
0.62464472316196296 -0.62024521970657376 -0.11794602596451331 
0 0 0 
0.4584790660592562 -0.36578841052590416 -0.45244988963294974 
-0.016761086155436852 -0.087183776411776742 0 
0.12418073440473865 -0.14202987595061012 -8.6736173798840355e-19 
0.9415495226814623 -0.79945068438106781 -0.34212221977198937 
0.41302789880565421 -0.61996752720459403 -0.22248058972720794 
-0.25392672425468149 0.40912473720599346 -0.1180990582335201 
0.11947116746659343 -0.12707304148147724 0 
0 0 0 
0.4041963153812429 -0.65808067879228749 0.016579579265620953 
0.0056684056785609623 -0.18800232253970423 0.19707769028276145 
0.50310300326140234 -0.4259994886811509 0 
-0.34627835489839387 0.34936771818016421 0.77977678039645704 
0.20353779099796054 0 0 
0 -0.015619725013577628 0 
0.42039968749875722 -0.31537798812673778 -0.5080211638002875 
0.59721858116348103 -0.54844335146849088 -0.21199657933158605 
0.68356790233942633 -0.78977339335899799 -0.45260363423944072 
-0.34326394961545875 0.47845574830900739 0 
0.43093711178556537 -0.51606987654426117 0 
0.47458478159320461 -0.42402270147790544 -0.031227264815798003 
0.044562968252806437 -0.028610806033243692 -0.13503134652836243 
0 0 0 
0.088294104071529295 -0.048762922338713557 -0.010442175317517415 
0.072883131286464564 0 0 
0 0 0 
0.39266452532603258 -0.2441552207458085 -0.54681955943302862 
-0.69996841495836049 -0.13833565417638921 1.1589269487747773 
-0.23055951190200127 0.20564590515150197 0 
0.37313421157658222 -0.38565163654959345 -0.087237485818786403 
-0.2111708465756893 -0.23985644783032317 0.18274852938401859 
-0.53397823935600641 -0.35045921328900664 0.18887860863725633 
0.012185589820916425 0.33898762961789664 -0.04750636149379666 
0.80377377898709379 -0.56290419081118137 0 
-1.6823144579689377 0 2.1328171506371145 
0.14429491701467004 -0.32544478014440198 0.52764069735289576 
0.37990768527455332 -0.1206540615046085 -8.6736173798840355e-19 
0 0 0 
-0.1755224615009397 0.208963601100875 0 
0 0 0 
0.53839468994044404 -0.56315934138548551 0 
0.57855111840380169 -0.69585319637807064 -0.40000000000000002 
0 0 0 
0.31495353715954044 -0.36644665120765957 -0.39999999999999997 
-0.4391241901610099 0.6358643375697659 -0.22705430390856951 
-0.28188972572099769 -0.12040980540594745 -0.046343332393606086 
0 0 0 
-0.34956536258267029 0.4885563417112373 -0.1385393202069547 
-1.0016402444237524 0.78851866212142041 -0.070180695498098036 
0.2249227259259686 -0.056582154597012851 -0.070180695498098036 
1.0748528558467074 -0.77243872649378209 -0.12121108042119155 
0 0 0 
0 -0.035675304435012205 0 
0 -0.035675304435012205 0 
-0.646125017994303 0.72920116170825044 -0.071111543301546121 
0.21674771110587215 -0.15137500558368278 -0.11297432531592014 
0 -0.035675304435012205 0 
0 0 0 
-0.12034538092771394 0.16168187732036629 1.7347234759768071e-18 
0.13563742884754088 0 -0.078618041183551285 
0.058185820149307253 -0.17054555859878312 0.091340794642148379 
0.48560722156586322 -0.60493550052556044 -0.24875053323225876 
0.41925805186950044 -0.51179097276223906 -0.66902235860846249 
0.13711634406530107 -0.85198382924263405 1.056225184533802 
-1.1149344762659485 0 1.4860209438221264 
0 0 0 
0 0 0 
0.73388777967794694 -0.93264219075508681 0.37850521682387739 
0 0 0 
0.59577667256818301 -0.62670771705276329 -0.024296036254722451 
-0.31081288997202217 0.31078159679710904 0 
0.57912128056828482 -0.58675068032027367 -0.072407458246335682 
-0.035981607115405573 -0.0086307498420420334 -0.061270816621946361 
-0.2403379032109583 0.39185482388051879 -0.052178726006924046 
0.56637633603181781 -0.52588177763422683 0 
0 0 0 
0.49473919365872149 -0.30795249710716327 -0.55906934166655775 
0.63422410457596667 -0.68782072374062941 -6.9388939039072284e-18 
0.25519814474140068 0 -0.1419994850949233 
0.21677333595246989 -0.15137998537616243 -0.11296288159968453 
0.32937888331804788 -0.25838242319404053 -0.22854240391954306 
0.016702946812816769 -0.024238395750820575 0 
-0.042898183444874283 0.54869457755597428 -0.35284808065211237 
0 0 0 
0.29878994399065884 -0.29184158263761778 -0.37335284845336514 
0.26096618759619206 -0.2590947686569291 -0.45631479000640046 
0.20783184657741557 -0.20481515072176973 -0.22504017152516004 
0.5732090248803029 -0.43440149916007409 -0.50218960395468248 
0 0 0 
0.23519146916049646 -0.18514978502112484 -0.031695571333837491 
-0.81239857635447565 0.26939328779873184 0 
0 0 0 
0.63411215673759469 -0.75357021663462009 -0.18450719655641243 
0.15286458014095286 -0.13123409746726966 -0.054976584496974248 
0 0 0 
-0.11987394984554309 0.16676559931429455 -0.048856648030492195 
0.48848992460358209 -0.61195426609704717 -0.55333822795409426 
0.56590471738911008 -0.58013356079714129 0 
0 0 0 
1.2022210964448385 -1.3649887864800485 -0.39816438103789986 
0.36575626517772586 -0.35030903249632223 -0.075663904962314621 
-2.4719809532669501e-17 0 -0.075663904962314621 
0.7679209290387965 -1.3878697975343197 0.29556433808818772 
0.50057112431754658 -0.48507877527144927 0 
0.0050973856481263367 -0.81038680750031311 0.40154744590495534 
-0.61430259689578959 -0.43405036300119892 1.5446773103287714 
0.048126301380577136 0.009708339291404848 0 
0.35280663699287229 -0.42448300316874787 -0.037864135922170229 
-0.77528315774556333 1.018938554096126 -0.36447158135272156 
0.075038030321526755 -0.10088921861508833 0 
0 0 0 
0 0 0 
0.015467137524742901 -0.14786913806682761 0.34411238414298168 
0.05963925190778796 0.30478705322048172 0 
0.83125400146806161 -0.88589323920665319 -0.43466918448161712 
0 0 0 
0.50988477495360318 0.19144210198507178 -0.77175549116301989 
0.20625964245253003 -0.28676528960960407 -0.26181098198920338 
-0.82531392280436366 0.96494312146041461 0 
0.87661026555195221 -0.96924774959768289 -0.90793576196165193 
0.086839096668466634 -0.042414797514273968 0 
0 0 0 
-0.064531546507599541 0.012018506045130453 0.14501561858537296 
0.19606598026142097 -0.19832480237620739 -0.011204603843912536 
-0.094715603291398998 0.19652641819238575 -0.077928236486072583 
0 0 0 
0.425814776717092 -0.5226978250310812 -0.4668276685510781 
0.30128476542912258 -0.36454096694725047 -6.0715321659188248e-18 
0.29999149710813511 -0.28258087310512947 0 
0 -0.077717577487758913 0 
0 0 0 
0.0026751492088055166 -0.17921762260674545 0 
0.16143448884460143 -0.20682348090677574 0 
0.27229487451871298 -0.092165973186388792 -0.39670336219688074 
0 0 0 
0.71044655937008161 -0.34340903416669633 -0.1421516051560148 
0.61593360590953661 -0.45486230400706046 -0.43135178762774556 
0 0 0 
0 0 0 
0 0 0 
0 0 0 
0 0 0 
0.59314715353132264 -0.63680520948947694 -0.055557673905540089 
-6.9388939039072284e-18 1.2576745200831851e-17 0 
0 0 0 
0 0 0 
0.099591111807322677 -0.03622079016930544 -4.3368086899420177e-19 
0.94494857312520664 -0.73745930017345573 -0.36067869640537359 
-0.15350451738606291 0.17324929792175389 -0.42433065606237547 
0 0 0 
0 0 0 
0.52229289664579981 -0.41843936818614136 -0.024413520577615672 
0.083697164244200734 0 0 
0 -0.061150476243461933 0 
0 0 0 
0.37296323636117112 0 -0.11685091714283619 
0 0 0 
0.08010730909980586 -3.4694469519536142e-18 -0.040383879270989673 
0 0 0 
0.14412198681460933 3.0357660829594124e-18 -0.08758777379034427 
0 0 0 
0.010588337766104636 0 -0.087587773790344256 
0.38676383474138576 -0.41079885144428979 -0.087587773790344256 
0.010588337766104636 0 -0.087587773790344256 
0.49834876199469469 -0.4089589520122387 -0.098264503938151671 
0 0 0 
0 -0.11634936971727569 0 
0 0 0 
0 0 -0.098264503938151657 
0 0 0 
0.27751701869575446 0 0 
0.0098914425650527341 -0.022899059353212708 -1.0408340855860843e-17 
0 0 0 
0 0 0 
0.29719549324378397 -0.16043864697775095 -0.003503407710110771 
0.9504701415152822 -1.223277529278868 -0.033807857539097111 
0.14830370161195724 -0.16043864697775104 0 
-0.27532968032429489 0.38234024288716295 0 
0 0 0 
0.14830370161195724 -0.16043864697775104 -6.9388939039072284e-18 
0 0 0 
-0.32233224324385135 -0.78419689564434125 1.164357562004104 
0 0 0 
0 0 0 
0.23917105110166981 0 0 
0 0 0 
0 0 0 
0.3976622608576561 -0.35877306366087547 -0.43197242910414141 
0.74971937891257401 -0.43905374913378542 -0.46946213205451698 
-0.40714541480484162 0.49128610809894052 0 
0.042618502851204047 -0.006536514502958269 0 
0 0 0 
0.22540261337153636 0 0 
0.17590235592068945 -0.12851941492038405 -0.77033770567520521 
0.60476131200240646 -0.33632435614388834 -0.014490280615757545 
0.045019806483139996 -1.3877787807814457e-17 0 
0 0 0 
0 0 0 
0.12681224628699023 0.24926672355231039 -0.50648732909940175 
0.71022247266957561 -0.17596452713825134 -0.46753956306526334 
0.26591596749205232 -0.03879447952414064 -0.42431571420941122 
0 0 0 
0 0 0 
0 0 0 
0 0 0 
0.019646381479258318 -0.032035788165476753 0 
-0.21448133427185384 0.10209807537688242 -0.68532238968329839 
-1.0586157728521073 1.1992685059215509 -0.32481960701776713 
0.44939254086786579 -0.4558249696704848 -0.24781051685747141 
0 0 0 
0.14839737119865631 -0.28002033530727732 -0.06772422996446377 
0 0 0 
0.16902915521508396 -0.28749542767336295 0 
-0.092215340523618544 0.13962417385367529 -0.13611398296259591 
0.31113558332142188 -0.29845893306585281 -3.4694469519536142e-18 
0.41688500695148839 -0.32573513714154662 -0.28316066847716326 
0 0 0 
0 0 0 
0.063591504758314599 0 0 
0 0 0 
0 0 0 
0.085186117613440318 0.24656078591228914 -0.074802508691705114 
-0.37211999790297096 0.26606682161862483 0 
-0.40872713373153124 0.514365776813696 0 
0.079153927132981819 -2.4286128663675299e-17 -0.13710454006580627 
0 0 0 
0.4791554981213374 -0.2781228572266064 -0.70346589755219879 
0.10028912597356054 -0.097751702984235883 0 
0.65340041949270056 -0.63359834121655079 -0.34767984346180891 
0.34634555167745429 -0.29245358501182506 -0.32955431543489266 
0.080472198214920715 -0.65565968050906254 0.40646826881597264 
-0.15236046651217308 0.10683075756772216 0 
-0.46577807253119952 0.16034416978357408 0.31591237363137198 
0 0 0 
-6.9388939039072284e-18 0 0 
0 0 0 
0.48874275781441828 -0.043204043017594972 -0.38695856689444258 
0 0 0 
0 0 0 
0 0 0 
0 0 0 
0 0 0 
0.30614320118382066 -0.26711957219770655 0 
0.01685661003310656 0.058277385802659912 -0.21056914349067182 
-0.099163333557173924 0.14412886915213266 -0.34772856968115573 
0 0 0 
-0.2307378043736846 -0.01769885565183997 0 
0 0 0 
-8.6736173798840355e-19 0 0 
0.069447018661484686 -0.19777912846521326 0.20300095393140247 
0 0 0 
0.45784622564084532 -0.26381350874162607 -0.32644581585101995 
-0.086656095314235793 0.3347887184174787 -0.077341287611134124 
5.2041704279304213e-18 0 0 
0.45478853861387464 -0.49001351647077668 -0.26915833817133744 
0.18414769565396391 -0.062507652409715106 -0.26002839839485092 
0 0 0 
-0.68171764709830118 0.57819415345412095 -6.9388939039072284e-18 
0.14684780218647536 -0.12750803837447935 0 
0.0052623625140757607 0 -0.29405256119876694 
0.25022704500423126 -0.19002910231580838 -0.34391369700641061 
0.13082445548329047 -0.30375977048362485 -0.022328910660034378 
0.020297751132107238 0 0 
0.095319469358062389 0.069093782865021491 -0.2666324207121884 
6.9388939039072284e-18 0 0 
0.9303062421613576 -0.50049736823784441 0 
-0.40578241581785512 0.44197878414574687 0 
-0.2615604201107482 -0.1674764596209917 0.85017344643905046 
0.42627358525361708 -0.41524243277687928 -0.35632625924647277 
-0.35866818653894067 -0.27873568614569083 0.81993347425065388 
0.26938476425183527 -0.27742848581752538 0 
0.27559214042667984 -0.86420657274712087 0.085352926368788815 
0.37598927985300457 -0.39046685945632476 -0.38171767897919123 
0 0 0 
-0.018994629115223011 -0.01996215140299213 0.061029841659967832 
0 0 0 
0.43752759883595094 -0.33603176815063529 -0.073604727469024384 
0 0 0 
-0.12676652417279566 0.18198855121698998 -0.15481890961750183 
0 0 0 
-2.6020852139652106e-17 2.6020852139652106e-18 0 
0.4846781637097991 -0.41355087274194746 -0.53005392905796833 
0 0 0 
0.42720694612849935 -0.51773778957824623 -0.56190405931545329 
0.28016724641962604 -0.28948142044740205 -0.22632759491198795 
0.52014904559760555 -0.51495137086743759 0 
-1.3694371526219069 1.284892454468632 0 
0.61242208039250479 -0.38069167280792865 -0.31488380260422283 
0.65570735007101844 -0.47715202276781349 -0.30954403897109478 
0.32390293421745531 -0.44277163024155858 -0.18382350552835361 
0.18750991167993816 -0.097304148833102094 0.28675085039286397 
0.72691722601161546 -0.16433796217724989 -0.35224813849170111 
0.73151583699452782 -0.22266981545802753 -0.26577483438317795 
0 0 0 
-0.10600365903385359 -0.095765249130344274 -0.33895637429184233 
0.20937014156106457 -0.15203232188890722 1.7347234759768071e-18 
0.073461666004006873 -0.1129050294982471 0 
-0.4366113208186348 0.38938314367705967 0.001401827113009152 
0 0 0 
0 0 -0.2922079184467713 
0 0 0 
0.12153964814265164 -0.17720416827637731 -0.40000000000000002 
0.17061873127202845 0 0 
-0.31490623178732513 0.24818971535690132 0.21149048023787104 
0.44898016766250248 -0.2226297897403593 -0.0040668968971234653 
0.10652223503717687 3.4694469519536142e-18 -0.075250629791592305 
0 0 0 
-0.0065710781107237186 -0.22255201883257342 0.31889051849559696 
0 0 0 
0.15815175128452044 -0.22513200458581925 0 
0 0 0 
0.17001474335014938 -0.069392741886097814 -0.53392872589380946 
0.19886711181200753 -0.10029371962425822 -0.026728388247009693 
0.22331501825650918 -0.31542798008194911 -0.10621587920357488 
-0.56071154679449409 0.27298282336562152 1.1589049130936773 
-0.16353535520860427 0.33763230073500466 -0.22760159229530369 
1.4311468676808659e-17 2.6020852139652106e-18 0 
-0.27206802785857886 0.83909410382092209 -0.45003816364089161 
-0.60869069153570987 0.65518577309187864 0 
-2.6020852139652106e-17 2.6020852139652106e-18 0 
0.28155541705797449 -0.18441905180265594 0 
-8.6736173798840355e-19 0 -2.0816681711721685e-17 
0 0 0 
0 0 0 
0 0 0 
0.0042635458762475612 0 0 
0.10484953272200363 -0.13424192448710903 0 
0.80971570500493317 -0.56624430703469697 -0.82683239177498158 
0 0 0 
0.033299526237617463 -0.071764302813772052 0 
0.38635134234598834 -0.50330271025976336 0 
0 0 0 
-0.71335464128796067 0.60836190352020791 0.72823573633031602 
0 0 0 
0 0 0 
0.10707266954810635 -0.58660568000410485 0.30965839652410154 
0.22580775022392008 0.35220957372890993 -0.2921219058742055 
0 0 0 
0.065100380377942968 -0.11899140001132609 -0.0097883667660644408 
-0.32415274102971625 0.32109011303211044 -0.062578883097406779 
0 0 0 
0 0 0 
0 0 0 
0.36607027248226326 -0.36612533180645346 -1.7347234759768071e-18 
0.13757504216893951 -0.11315794331485839 0 
0.44888574176263268 -0.34907850379670674 -0.25514165667916011 
0.52462868303066212 -0.48761047814589564 -0.088904912018278409 
-0.22485906792371688 0.26404926465681267 0 
0.20704530682624053 -0.33608348026062551 0.21525943997127747 
0.95339162352482842 -1.0270175795107845 0 
0.20790121349692697 -0.23687507877188957 0 
0.15683076915992888 -0.15646825224732003 0 
0 0 0 
0 0 0 
0.1324959260869556 -0.059231065009679347 0 
0.28959882070187837 -0.23627436578346889 0 
0.020222533315013627 0.20650681897488316 -0.91240097051171165 
0.20251011184396264 -0.2549386791433389 -0.1379678649818081 
0.74297120366240765 -0.66015179523249468 3.4694469519536142e-18 
-6.9388939039072284e-18 0 0 
-0.067805045045052886 -0.45930270969407228 0.50219500960664432 
0.46645816881623697 -0.48944578124740484 -0.34703265364676683 
0.10853744022534084 -0.11100011944988609 0 
0.070225626273624289 0.029401065386609401 0 
0 0 0 
0.32756917927189672 -0.03526046774433949 0 
-1.7347234759768071e-18 -0.31430932277009593 0 
0 0 0 
0 0 0 
0 0 0 
0.58403576376775768 -0.44298492461324912 -0.19197119420345385 
0 0 0 
0 0 0 
0.08761440870852194 -0.1573907496694032 -6.9388939039072284e-18 
0 0 0 
-0.24998605765233251 0.27201278448880784 0 
0.46300285675998032 -0.46076654736056344 0 
0.46300285675998043 -0.47700588125236831 -0.11316989021611965 
0 -0.016239333891804097 -0.11316989021611965 
0.42100247127629697 -0.55618938658516903 -5.2041704279304213e-18 
0.19956552489036011 0.096432982431721145 -0.86566630105911924 
-1.7174856478617246 1.926270042066996 -0.035372938946105603 
-0.49728513643834327 0.5078013101722656 0 
-1.0842021724855044e-17 -1.3877787807814457e-17 -3.2526065174565133e-18 
6.9388939039072284e-18 -1.3877787807814457e-17 0 
0.73537933885180562 -0.63416024062668996 0 
0.13655414848070632 -0.12254571744699785 0 
0.13655414848070629 -0.12254571744699783 0 
0.13655414848070632 -0.12254571744699785 0 
0.13655414848070632 -0.12254571744699785 0 
0.13655414848070632 -0.12254571744699785 0 
0 0 0 
0.61995462726405404 -0.57313556066168081 -0.038416287013441998 
0.0049110742811469561 -0.038383575497394372 0 
0.63340041972969208 -0.60575743293414708 -0.61274804057415233 
0 0 0 
0.44085145063211284 -0.49270960244322998 -0.16508999977146913 
0 0 0 
0.84503689344736155 -0.67385529272335354 -0.32209084427671075 
0.22540261337153636 0 0 
0 0 0 
0.48189340391660856 -0.42679414107638158 -0.21712516828844203 
0.8460266653633095 -0.6334454666207634 -0.42027495629467515 
0 0 0 
0.060938438258426271 -0.033676270553715699 0 
0 0 0 
0.2926515690588698 -0.043858151530121584 -0.3429781017724588 
0.22471066609670964 -0.045414443395685136 0 
-0.11567913542345105 0.22892135803735089 -0.68616684626411251 
0 0 0 
8.6736173798840355e-19 6.9388939039072284e-18 -0.18422536106641144 
0 0 0 
0 -0.0033702334062526052 0 
0 0 0 
0.022126541996339587 0.11374449765828219 -0.77116756239077344 
0.24714714025628218 0.06448470969597217 -0.55486004918923948 
0.34596381171266311 -0.37748072889001161 -0.15999990183063745 
-0.21745875723086433 0.28254180416818175 0 
0.12324707111744815 0 0 
0.12324707111744815 3.4694469519536142e-18 0 
0.12324707111744815 0 0 
0.44201986177285907 -0.028560711200665889 0 
0 0 0 
0.31108638346619871 -0.091780577506006503 -0.70931185341586511 
-0.15076829639165679 -0.41059218395570263 -0.044936525690930901 
0 0 0 
0.37826832760190415 -0.19261023806413965 -0.20275737423463955 
0.13481925785587073 -0.065453123415054812 -0.17368542101564854 
0 0 0 
0 0 0 
0 0 0 
0 0 0 
0 0 0 
0 -0.051699765955300035 0 
-0.1664451457933851 0.092151075911757779 0 
0.51854676459795268 -0.20888646292445059 -0.0015343234408323216 
0 0 0 
-0.25365272965892616 0.10963509432815151 0 
0.21858312703292021 -0.10797273299263065 -0.011098591173761623 
0.25718717955212922 0 -0.54340486545320188 
0 0 0 
0 0 0 
0 0 0 
0 0 0 
0 0 0 
0 0 0 
0 0 0 
0 0 0 
0 0 -0.022210628941589948 
-0.11294949769854641 -0.17016355257897636 0.17100439467260276 
0 0 0 
-0.57175216769499948 0.4872885644795949 0 
0.79119388126818135 -1.0166255785751099 0 
0.11800845882801764 -0.16165311877346233 0 
-1.3877787807814457e-17 -3.4694469519536142e-18 0 
0 0 0 
0 0 0 
0 0 0 
-0.039957217214655699 0.2121024109360452 0 
-0.42937583843028365 0.46879874479251332 0 
0.20973512383905013 0.043858315482074167 -0.27694325937331044 
-1.1438481343573981 0.93468670072964744 0 
0.8939101385006134 -0.97359467442143988 0 
0 0 0 
0.19148685772803828 -3.4694469519536142e-18 -0.38261098751823974 
0 0 0 
5.4210108624275222e-20 0 0 
0.11936131081534662 0 -6.9388939039072284e-18 
0.26936284706087144 -0.20289365641156692 -0.45865305486197178 
0.52341225673029945 -0.3404792060138766 -0.62462000086541236 
0.46365882796681901 -0.28275281422544035 -0.50191929341131147 
0.60661366568482367 -0.34554539019309799 -0.47549545610995225 
0.20226023001456706 -0.096727719716424021 -0.20568038347708781 
0.59379027767245274 -0.6531146638010753 -0.063323131723260123 
0.32148659470751112 -0.23808423419743682 -0.090529885302973317 
-0.4669921690550321 -0.042512767841858201 1.1730072494987855 
-0.39138666864531835 0.2353190352227553 -0.13691467026928544 
0.17556418039083149 0.23233114404031244 -3.4694469519536142e-18 
0.26572435743343636 -0.28916519778960242 0 
-0.5858767406754134 0.7293152174695926 0 
0.068927979904496367 -0.27266706682601072 -0.075305493238471077 
-1.7347234759768071e-18 0 -0.14268601616478233 
0 0 -0.14268601616478233 
0 0 0 
0.31967609284013104 -0.46977804813708424 0 
0.60763088692478839 -0.31382451690054713 -0.14268601616478233 
0.44569189844533269 -0.13539011478813548 0 
-1.6992433041049826 1.7753638285626359 0 
0 0 0 
-0.33692968531659367 0.25140394766656043 -0.39670336219688079 
0 0 0 
0 0 0 
0 0 0 
0.34072155159761452 -0.24913037122802242 0 
0 0 0 
-0.081912701373805047 -0.27585826979129247 0.43414851246237568 
0.55744725768095749 -0.55173674753734314 -0.071484581060956218 
0.049930096296221277 -0.03686565434021627 -0.065163940558212841 
-0.2155829119944645 0.1360928532834188 0.26979693895762424 
0.55501422410033774 -0.17328822532688765 -0.34348238959694033 
0.73735560170146108 -1.6178885547480866 0.49014268121816856 
0 0 0 
-0.49174473480880393 0.47040114724671633 0.50001779694899007 
0.24826523440372689 -0.24295360275098224 -0.17434268854360624 
0 0 0 
0.23387875710564823 -0.027610482026893039 -0.071297902053781517 
0.43756356095428139 -0.34100562023439962 -0.63228362353735645 
0.41741479071145987 -0.12738298747875779 -0.21139376212464533 
-1.3385544325480261 1.4426357707380464 0 
0 0 0 
0.11555670076766283 -0.056384193252252086 0 
1.2726130313855955 -1.0527364429865675 -0.7452475741623481 
-0.40887135758949039 0.50873317390370554 0 
0.34777511813485285 -0.39620625389033043 -0.15882951192344449 
0 0 0 
0 0 0 
0.70990459051158905 0 -0.99239198436503373 
0.26469559301442014 -0.26500209650408696 0 
-1.073901883381261 1.1643658352308679 -0.31577244867558385 
0.20004597102323832 -0.27148240892370812 0 
0.246269717629959 -0.5690591912342664 -0.17041633311354779 
0.020986179770088757 -0.11748551724952763 0 
0 0 0 
-0.68666731615418086 0.60034875134389787 0 
0 0 -0.0062749669075929044 
0.20845291024648666 -0.16639204667191221 0 
0 0 0 
0 0 0 
1.5978389879113784 -1.7179594394079936 -0.22317616136367746 
0 0 0 
0.66666666666666663 -0.66666666666666663 -0.66666666666666663 
0.074492681993069798 -0.14210169461042166 0 
0.19488221293217456 -0.21069893854019961 -0.099222993387448111 
0.17686755902161272 -0.25364199996403664 0 
0.32968561081924214 0 -0.16828908193617323 
-0.42274963874186933 1.028670770845679 0 
0 0 0 
0.36082478657970823 -0.37614859577473048 -0.22764913434189699 
0 0 0 
0.13464384856479283 -3.4694469519536142e-18 -0.12639577525409662 
0.06575506809698628 -0.18213189044116435 -0.29863062846002664 
0 0 0 
0.31606844618268615 0.11668500510952626 0 
0.085410624812130784 0.011423267612117335 -0.10284366466745165 
0.019737832309472098 0 0 
0.019737832309472098 0 0 
0.25864473662308879 -0.059705575434476257 0 
0 0 0 
-1.4616990495672721 1.4459074058965191 0.48264155464139696 
0 0 0 
-0.64174475462674385 -0.19348300959382497 1.3815703088156395 
-0.10897110408659152 0.019892677887146364 0 
0 0 0 
0.20200155806076261 -0.048059747495307469 0 
0 0 0 
0 0 0 
0 0 0 
-1.7347234759768071e-18 0 0 
0 0 0 
0.24321321644872454 -0.25133497534454408 -0.20511919025836126 
-0.22997310935900769 0.53046744261306944 0 
0 0 0 
0 0 0 
0.25437795856097645 -0.43588466650987556 -0.037864135922170215 
0.32773430004019516 -0.42524001125653965 0 
0 0 0 
0 0 0 
-0.38861844842086957 0 0.51702934066987116 
0 0 0 
0 0 0 
0 0 0 
0 0 0 
0.79153211859522798 -0.66819613913793896 0 
-0.80356689969002237 0.80403355042972591 1.025691178517806 
-1.1230898576380526 1.4037916592647253 -0.28997750556334967 
-0.62714021753983007 -1.214306433183765e-17 0.75432577478830809 
0.47026878407366168 -0.14309091163385804 1.7347234759768071e-18 
0 0 0 
0 0 0 
0 0 0 
0.15599024211951626 -0.0665947168517938 -0.085687686767688204 
0.15599024211951626 -0.0665947168517938 -0.085687686767688204 
0 0 0 
0 0 0 
0 0 0 
0.083645682236314842 -0.042215351966773888 0 
0.30401123300625282 -0.24752000206075747 0 
0 0 0 
0 0 0 
0 0 0 
0 0 0 
0 0 0 
0.01955198658544164 0 0 
0.38636311744271779 -0.26797514401822892 -0.45548233499353663 
0.14078219260967761 -0.059231065009679361 0 
0 0 0 
0 0 0 
0 0 0 
0 0 0 
-0.22729838545809705 0.24304586776017989 0.26798446175201973 
0.71179214703908966 -0.54909770730861007 -0.72435372734032066 
0.3675339383511555 -0.40229575163822473 0 
0.3675339383511555 -0.40229575163822473 0 
0.41999218636123226 -0.40229575163822479 1.7347234759768071e-18 
0.3675339383511555 -0.40229575163822473 0 
0.81350696983919168 -0.69652335000784116 -0.47628598148763801 
-0.083056223137347396 -0.034131816995334838 0.44805901143338711 
0.28348683857309992 -0.27543485347334945 -0.35632625924647288 
1.0021083248234879 -1.0863514578725486 -0.31304754303524596 
0 0 0 
0.64175635110727836 -0.75415716575246483 -0.20703473312978685 
1.2611585294454122 -1.0779490362751067 -0.46113741514447038 
-0.38623676048648753 0.28703501259689024 0.80727610237927694 
0 0 0 
0 0 0 
0 0 0 
0.57758076850941364 -0.57964162338161485 0 
0.42847148959312675 -0.7044416891427554 0.073171321327995476 
0.18884731170688487 0 0 
0 0 0 
0 0 0 
0.048126301380577163 -0.063628830173063006 0 
0.403273553239686 -0.41533482059441906 0.23595029132956363 
0 0 0 
-0.62848176152186996 0.52965313508495371 -0.053881041991055909 
0.54976408035422464 -0.61397178052213897 0 
0.48998638703248898 -0.4222658022013146 -0.016972932429960612 
0.52726930711942654 -0.54214015905541046 -0.49657098951984957 
0.33476034129376447 -0.27913353403741203 0 
0 0 0 
0 0 0 
-0.11683046641957369 0 0 
0 0 0 
0.34963732966255245 -0.0074153615349615426 0 
0 0 0 
0.75355901336259556 -0.73846854890070612 -0.6760106368754949 
0 0 0 
0 0 0 
0.15446721782117184 -0.09998765613924393 0 
0 0 0 
0 0 0 
0 0 0 
0.36396006478211052 -0.50930496263377867 -0.16783124119760473 
-0.21631019588659467 0.27730623721574538 0 
0 0 0 
-0.00052887119145984081 -0.33615491978551432 0.37422400775306269 
0 0 0 
-0.28721453087106202 0.26455510004003258 0 
0.65360909812250167 -0.5401813611720141 -0.23673277200294188 
0 0 0 
0 0 0 
0 0 0 
0.1443275255198059 0 -0.45350796232291435 
0.062741933919327794 -0.079605391746016968 0 
0.22051525308182696 -0.61712604777700086 0.195686955463406 
-0.038655964941983964 0.16401892649606609 -0.54153476411607016 
0 0 0 
0.19223349146701293 -0.82965451092627951 0.77537260704994304 
0.23250427012567249 -0.29491397909396355 -0.1233039260413183 
0.54965376430727431 -0.20058015817866207 -0.018513346885715154 
0.41225944800183012 0 0 
0 0 0 
0.30495446706220325 -0.091300128586271706 0 
0.10989241473353303 -0.044507809361995158 -0.4697480838865058 
-0.98287082060354725 1.2097512479642889 -0.64169602630179956 
0.20753020486351009 -0.015881466323040619 -0.16861751311382639 
0 0 0 
0 0 0 
0 0 0 
0.50953171982397083 -0.66640782529144182 -0.84084233840844491 
0 0 0 
0.92319245602257127 -0.92000163731472917 -0.82818062274661974 
0.17864287832547701 -0.09920499669836895 0 
0.040997452718651961 0 0 
0.040997452718651961 0 0 
0 0 0 
0 -0.057166072621315435 0 
-0.042570572932016139 0.036364128494080286 0 
-0.002777733619745322 0.024930207319697324 -0.010172617472540307 
-0.23640213692366427 -0.026293787454105409 -0.1114452148801218 
-0.48188573556121089 0.80747857469232354 -0.11383656194678371 
0.010396845216738546 -0.18041403847526943 -0.03504188020302848 
0 0 0 
0.42885810526358314 -0.30266173756017284 -0.52377802113879879 
0.33132420311330801 -0.23957941340400474 -0.097099630440581106 
0.52474671530896622 -0.33146122037974801 -0.7530720374415969 
0 0 0 
0 0 0 
0 0 0 
0.44321918467770377 -0.52022063226846837 -0.28361169122266083 
0.51985111434117104 -0.47590452346862233 -0.12412519286977838 
0 0 0 
0 0 0 
0.96065704927406681 -0.88801935706539858 -0.26133433738816553 
0 0 0 
0 0 0 
-0.40116718986574723 0.22446790719810342 0 
-1.1219036536356484 1.2626239252810219 0 
8.6736173798840355e-19 0 0 
-0.24124407934037312 -0.18970363789072986 0.633831076872994 
8.6736173798840355e-19 0 0 
0 0 0 
0.19314526222838779 -0.27504431226689346 0 
0.54056660260714873 -0.50429205636646057 -0.043615265854103955 
0.26639694158348826 -0.28687246346089129 -0.081016147413423251 
0.20114891228448908 -0.34479701310763272 -0.0031903814314080572 
0.14103742978223155 -0.505414485864212 0.36171258089031993 
0.70596578745094551 -0.76756368001572217 0 
0 0 0 
0 0 0 
2.3418766925686896e-17 1.8431436932253575e-18 0 
-0.74727200329252375 0.78164170932267085 0 
-0.3539403810617035 0.42968951035098968 -0.14099455557806823 
0.3836571440947617 -0.32390238006898853 -0.087177689709935932 
0.41742778811178938 -0.23037578651083243 -0.083876447054646544 
0.58965551118483717 -0.4678153583211615 -0.27134153053902738 
0.089405984414702599 -0.11049192215863357 0 
-0.78848098285272694 0.93320856156618848 0 
-0.34151782302241934 0.38261418448071205 0 
-0.60359976289096451 0.26127110956733979 0.79061751825064253 
0 -4.3368086899420177e-19 0 
0.23934243950040426 -0.33679016575022708 -0.055918968280748431 
0 0 0 
0 0 0 
0 0 0 
0.50798205926708395 -0.33950045539898521 -0.044808695388454806 
0.36021837983423383 -0.33567394756709046 -0.11318141353370666 
0.16376179503632809 -0.13111047249005084 0 
0.36021837983423383 -0.33567394756709024 0 
0.19890739844503455 0.010265027265200122 -0.28464025793310155 
-0.33690663042098346 0.66718446892270966 -0.11598544431052617 
0.083697164244200789 -3.4694469519536142e-18 0 
1.3877787807814457e-17 0 0 
0 0 0 
-0.75408951133247304 0.10361505511901314 0.78548653622224651 
-1.3877787807814457e-17 0 0 
0.091669571307410436 -0.18448276045083234 0 
0.72317680706188092 -0.42926638067426093 -0.57398537539418792 
0 0 0 
-0.2557183968875989 0.39448931968631851 0 
-1.6323334387536081 0.89672216614589295 1.2580646132332105 
0.68078643712151887 -0.47484445558388383 -0.079535039831256316 
0.093394612503014729 0.10431151180869844 -0.15554547506603156 
-0.13509918525015324 0.34912432457686771 -0.13343593297564621 
0 -0.028323398575547928 0 
0.99775723883184742 -0.71328066047645344 -0.98301790452387505 
0.37290620133751401 -0.34089314330976184 -0.087748753097118937 
0 0 0 
0.36885971089372338 -0.010420870794994801 -0.31327256654223079 
0.15570584817132346 -0.014641871517702659 6.9388939039072284e-18 
0.4035418473814919 -0.23319598383746926 -0.039095062655329471 
0.4803351972501349 -0.41305950243712847 -0.2787456852056166 
-0.075282661159191397 0.19883200478693 -0.25641677454558287 
0 0 0 
0.068925341614993224 0 0 
-0.081226789183809475 0.31628681397774505 -0.4406030346897617 
0.018571519062893879 0 0 
0 0 0 
0.26022436098954932 0 -0.18382350552835361 
-8.6736173798840355e-19 0 0 
0 0 0 
0.13287273611686581 -0.072563516533261929 0 
0 0 0 
0 0 0 
0 0 0 
0.68156601859067889 -0.81452086144521951 0 
0 0 0 
0.23984542131108996 -0.14849972247765661 -1.5034347949722813e-05 
0 0 0 
0 0 0 
0.24969593568798801 -0.42606232167463809 -0.14778336540504139 
0.14490485336266318 -0.0078078387329355362 -0.025843513833941699 
0.0076258970022688409 0.037070649032195688 -0.71452074037190161 
-1.0284922209535448 1.0544405172458118 -0.49136718088260883 
0 0 0 
0.11800845882801764 -0.16165311877346233 0 
0 0 0 
-0.72122374774634745 1.0175235377186633 0 
0 0 0 
0 0 0 
0.52151524362581736 -0.26480682698151409 -0.24438852702115516 
-0.66836707389047034 0.76013232750388682 0 
-0.21553065204828356 0.25059579756203837 -0.12101064665969254 
-0.27105608358057648 0.35656352523472401 -0.11993971437630846 
1.0751499481687932 -1.3183573964222899 -0.59951422851807201 
0.18093216474401438 -0.23433059610515597 -0.22438708397672646 
0 0 0 
0.45407913635377117 -1.1742350077479302 0.66587662997808927 
0.22170652467341245 -0.18961508018003756 -0.18633893550063316 
0 0 0 
0.19982317772100439 -0.26285861340215783 0 
-1.2996473053650404 1.2612098234859419 0 
0.87872192184036124 -0.893644328976122 -0.18972235083911607 
-0.76376538289573759 0.92597862982709578 -0.28599863716392021 
0 0 0 
0.48891796768104695 -0.53625365607963904 0 
0 0 0 
0 0 0 
0.4508924531429318 -0.46015618014099685 -0.053881041991055909 
0.46078384596503369 -0.65771620259621266 -0.053881041991055909 
0.298070046247843 -0.18169879009048528 0 
0.42608081548777454 -0.29071494646811036 -0.039557279078448519 
0.25596961233245119 -0.34565571281189356 -0.059040811216875919 
0.3014227379182165 -0.277860543732871 0 
0 0 0 
-0.4059275229001772 0.48858860854489866 0 
-1.6272561707939177e-17 6.9388939039072284e-18 -1.0408340855860843e-17 
-0.17664986457133386 0.19824000447446816 -0.27191954633675053 
0.74667480793858876 -0.36733528374063928 -0.048705164504897362 
-0.02550097556904906 -0.28342696133828127 0.68370640976262398 
0.74219537049329465 -0.83688803135112078 0 
0.68434675563407954 -0.6579088303574615 -0.56688967461491668 
0 0 0 
0 0 0 
0.21652107999296896 -0.31894278663682485 0 
0.2485683270589864 -0.31284359153131164 0 
0.41602272773740362 -0.34272392013715325 -0.40704665516852001 
0.43752759883595088 -0.33603176815063529 -0.073604727469024384 
1.0337370876955916 -0.29965387266015897 -1.5099566387253116 
0 0 0 
0 0 0 
-0.57984783295291487 0 0.15951071973025205 
0.90845447488048325 -0.95502083430051865 0 
0.15006392956943551 -0.16533627778313914 0 
0 0 0 
0.79185194584854046 -0.8522896362883482 0 
0.11359229687327574 -0.014043839685746283 -0.057793232210039812 
0 0 0 
0.29889023947190096 -0.31028808473881719 8.6736173798840355e-19 
0 0 0 
0.041423930232435374 0 -0.12001161740359678 
0 0 0 
0.88025576731034283 -0.74513455615301105 0 
0 0 0 
-0.35032688427819392 0.43640479845061447 -0.25340441912521994 
0.68967039061337476 -0.51577385719390989 -0.59144699131323752 
0.098696364313455687 -1.7347234759768071e-17 0 
0.73355194968922455 -0.91367867915085765 0 
0.53451671499278652 -0.53161132154887181 -0.39998317237223602 
0.24407834799733236 -0.12446548618126967 -0.1434944787820169 
-0.054890140252439212 0.090631460691571297 0 
0 0 0 
-0.74778159349100903 1.0966577723414757 0 
-2.2620878805041942 2.1154289136453803 0 
0.020960651214078207 -0.12762210768203641 -1.6046192152785466e-17 
0.09020852811819341 -0.4085176292025271 0.65070570805021177 
0.01512022979630127 2.0816681711721685e-17 0 
0 0 0 
0.16387573718837758 -0.143752915299585 0 
-0.17142616670557492 -0.089368004871877779 0.65391771861743975 
0 0 0 
0 0 0 
-1.0962666990858907 0 0.59123276856007601 
0.18482518003166598 -0.15135431800896249 -0.18042670701203828 
-0.67484924847185512 -0.17323231471961678 0.93412260805332481 
0.48367477975536388 -0.78967154676119777 0.32032949214466666 
0 0 0 
0 0 0 
0 0 0 
0.22173769304726054 -0.13665670013756573 -0.55023154448052525 
0.42296156199523671 -0.43003477792977468 -0.33454006518740714 
0 0 0 
0.016533499135697037 0 0 
0 0 0 
0.01546389172640889 0 0 
0.44190486940696111 -0.51780939382052449 0 
0.24917877923800982 -0.18397726619004712 0 
0 0 0 
0.37909118329329616 -0.34541613283397221 -0.63113373140313289 
0 0 0 
-0.47772481299462666 0.016453610970233783 0 
0.14556022689693926 -0.0096117411159272002 -0.099293614931092705 
0 -0.012633805140162005 0 
0 0 0 
0.83909236379300367 -0.87154016967800008 -0.66666666666666674 
0.24054027618821366 -0.3110225822198438 -0.045529143125090904 
0.056964243553120984 -0.21682021968136292 0 
0 0 0 
0 -0.12629739109924953 -1.7347234759768071e-18 
0.2122584443761022 0 -0.035566923880152986 
0.10502426597826828 -0.26316136346749863 -0.18804595585563313 
-1.1353935759225715 1.1936591831483447 0 
-0.9927661756045727 0.92855762409874409 1.1230726413698062 
-0.26641631950626399 0.74247471912699226 -0.099203810064487391 
0.26185837803003054 -0.25598535925212129 0 
-0.68454967774018383 0.90102450780926491 0 
0.83690203093706916 -0.48304190547541898 -0.44462542882315653 
0 0 0 
0.9079326099556817 -0.76406362028047348 -0.47852016347511739 
0.74686224399828149 -0.54158030389191258 -0.38628087802775302 
0.98609341058194999 -1.0417633808955891 -0.56069460978730035 
0.068622436885529423 -0.071934062705057505 0 
-7.6056782399858136e-17 -0.050856766631384727 0 
-7.6056782399858136e-17 -0.050856766631384727 0 
-7.6056782399858136e-17 -0.050856766631384727 0 
0.10755798661801816 -0.21625756208792468 0 
-7.6056782399858136e-17 -0.050856766631384727 0 
0 -0.052964661131618927 0 
0.17771522797106382 -0.26539163106408309 0 
-0.3806196771034282 0.44860947264937878 0 
0.53282736948900578 -0.69357102801116688 5.2041704279304213e-18 
0.32968561081924214 0 -0.16828908193617323 
0.23677937183358683 -0.036750241563796415 -0.17438727343725877 
0 0 0 
0.089061678849600964 -0.076140160887000791 -0.03750239416056856 
0 0 0 
0.42935192247196596 -0.60198915047517165 -0.59195316032440115 
0 0 0 
0 0 0 
0.28292334196616586 -0.1369130370959466 0 
0.15896639391971773 -0.14021058071505849 -0.94015816669816288 
0 0 0 
0.60301083879862893 -0.057222004932155381 -0.75747299055803818 
0.25513592717240496 0.2372491506757351 -0.43344775160171745 
0.41581420202132224 -0.76406362028047348 0 
0 0 0 
0 0 0 
0.044379598980169493 0.043280145247214158 0 
0.055071337957849471 -1.7347234759768071e-17 0 
0.32893009157170439 0 0 
0.16471100050476098 -0.19614426798262483 0 
-0.24508669559810858 0.18535191318264582 -0.05401818102619782 
0 0 0 
0 0 0 
0 0 0 
0.81659019411027089 -0.12237030669757722 -0.76722723835762252 
-1.0408340855860843e-17 -2.6020852139652106e-18 0 
0 0 0 
0.27380021796744486 -0.20671881860673894 -0.33791309711461665 
0.15513462003454651 0 -0.011891498432829868 
-0.40445866594178526 0.5132904939485502 -0.087177689709935918 
0.41098840498636047 -0.53406673019695905 0 
-0.23696567628493481 -0.21922085411575112 0.11148894787944461 
0 0 0 
0 0 0 
-7.8062556418956319e-18 -0.093997117853688222 0 
0.21274275873866255 -0.2021004950180976 -0.15973158976587562 
0.0083577453244206741 0 0 
0.69744867434426738 -0.33749542838970892 -0.15254138369998241 
0.55548424280306896 -0.30486830293517403 0 
0.1493004124686291 -0.056666590285242631 -0.047874485656041001 
0 0 0 
0.0016432585774063604 0 0 
0.0016432585774063743 -0.0098872745651125433 -0.0010286427831191968 
0.0016432585774063743 -0.0098872745651125433 -0.0010286427831191968 
-3.4694469519536142e-18 -0.016044560379420668 0 
0 0 0 
0 0 0 
-0.3754207508839269 0.46164027803265162 0.40691440773407572 
0 0 0 
-0.11166027162357885 -0.067246541282465905 0.10010462109941198 
0 0 0 
0.16610435395788381 -0.43299710970342775 -0.12317173476523226 
0.35231465685507429 -0.35447378232226479 -0.040383879270989673 
0.66666666666666663 -0.66666666666666674 -0.66666666666666663 
0 0 0 
0.023081095511921598 0 0 
0.19586020058362563 -0.18092275808014094 8.6736173798840355e-18 
0 0 0 
0 0 0 
0.31163962993894095 0 0 
0 0 0 
0 0 0 
0.46539425281985014 -0.12991329367490451 -0.46693213292097774 
-0.94294668159625195 0.86176738389945273 0 
0.19275025147811201 0 0 
0 0 0 
-0.60905502728515115 0.46231814299562546 0 
