solver_type L2R_L2LOSS_SVC_DUAL
nr_class 3
label 2 3 1
nr_feature 15736
bias -1
w
0.51549924721844209 -0.52780850078241304 -0.45549697397130146 
0.02963792161642477 0.010693644783258138 -0.13553624391922056 
0.69049403795462194 -0.61430674857814671 -0.14013191650797982 
0.17294877816416585 -0.17260525019968631 -0.00036437432061128729 
0.83725031830856445 -0.32476674595914751 -0.79293535223296785 
0 0 0 
0.47878715519386317 -0.16223730531905306 -0.25857727979108119 
0.50771487713784458 -0.87042208162697676 0.1420497280774389 
0.16261948079211705 -0.084837160290705343 -0.3124896183296389 
-0.61133290568483667 0.05077248737480046 -0.61441069308401597 
0.11458961515587887 -0.080599218943339129 -0.17988974368949967 
0.14809675905709296 -0.22260728033687857 -0.35903162568735592 
0 1.3899372725559467 -0.88014050223094553 
0.30084738729924182 -0.079732227414512316 -0.20055996412144669 
0.031413329992903312 -0.10465135905644184 -0.094489080942171788 
0.096300067547193183 -0.11784304640323093 0.030232346575305227 
0.16783705220026976 -0.12056000270993701 -0.27302127891962119 
0.45479006864427018 -0.28674348875010219 -0.46599754757364376 
0.18413842843746142 -0.10597328142641935 -0.52930881968938592 
0.24151373765452475 -0.50059114978400077 -0.32809245930142283 
0.54350720435404809 -0.4373179883981122 0.023824495357918394 
-0.037320242935744714 0.39820088165706319 -3.1517008533326161 
-0.08153754492967831 -0.64459166937342127 0.75735733185986254 
-0.29397519530498151 0.018120297163036512 0.048884397312365005 
0.27898158326239136 0.054951626306745806 -0.21574170230686321 
-0.087973764236934746 -0.052007070696796623 0.036096845133638797 
-0.29423947702440373 0.15713979097445988 0.069069586857587059 
0.56896068158770396 -2.4286128663675299e-17 -0.42729946355623577 
0.11834411258544569 -0.25562742674561001 -0.1403818534739692 
0.33868702235438369 -0.1542552803066928 -0.13827598767003194 
0.29757891349519117 -0.34575467242612246 0.0052163594987937913 
-0.30545333899353699 -0.15778270988386478 0.30971597161746578 
-0.040790143267400422 -0.12525309401405615 0.11404023187192557 
-0.45399693321609158 0.17964508987049299 -0.024428623183101308 
0.38323337407533609 0 0 
0 0 0 
0.13679675916581396 -0.31661853142442042 -0.1756641688988273 
-0.31338757004839496 -0.071744106948580494 0.028396117215682734 
0.14040528162686666 -0.066873863696949198 -0.15072695893853838 
0.026101774042893003 0.083829352486995024 -0.21534911198007295 
0.31191966997298665 -0.1612198822294017 -0.39588724827352229 
0 0 0 
0.067397724880138621 -0.18108025154829957 0.046728105667012208 
0.12878750232535074 0.20574135564903928 -1.6626149316381102 
0.49226048388213189 -0.57251768500333133 -0.35905729176447893 
0.14944154773516385 -0.10438469357180943 0.081826526005616337 
0 0 0 
0.25614481335217409 -0.37188976337571616 0.14679846476717173 
0.33346269551645241 -1.0342613807824586 -0.53458819790495715 
0.33890890626787867 -1.0389252379395513 0.16265807008344604 
0 0.97894576944733191 -0.11465425181146136 
0.16846762830330178 -0.20967322307351488 -0.30699877670850906 
0.26358039180976489 -0.17701323121898213 -0.010367875748876782 
-0.85573357494630942 1.3923726690148983 -0.070624637899907389 
0.20239985950748943 0.10693949351805294 -0.14062287101666865 
0.054413774715166847 -0.075639118100176803 -0.14152079165269538 
0.33702384324005363 -0.46375494463124239 -0.22242921963072476 
0 0 0 
-0.032382928483205363 0.033068722936625279 -0.10850079777174011 
-0.03269000755050764 -0.067452163307601412 0.12173594642484736 
0 1.1095298915875496 -0.87947872022625895 
0.620852425014637 -0.3924986376292447 -1.4721209311026924 
0.094462026936468602 -0.066455666186271134 -0.23258020227020904 
0 -0.48692937961676147 0 
0.17133560218336133 -0.35872838216424102 0.27335027352053648 
-0.85140099227276078 0.59287041534436957 -0.19242545243464848 
0.30187051324008529 -0.79889446881775528 -0.070840381719512124 
0.067498073299785133 0.083562883504615298 -0.16166709968448661 
0.32856559890383147 0.38676233466059767 -0.50498965291402165 
0 0 0 
-0.065838649392028645 1.1083037840118746 -7.8062556418956319e-18 
0.89184356854958646 -0.26924329682704767 -2.3543906330937041 
-0.37366605569884537 0.0029129466842753096 -0.029310583410010783 
0.61874983066798772 -0.31752207633255508 0.020513498241582863 
0.58685553778202793 0.69411770445018617 -0.41757786819028886 
0.26857537879172172 -1.3287522850692028 -0.15930742940914616 
0.0051362295914955461 -0.33612190771787803 0.074472200487025395 
-0.064174170629768046 -0.11727616416028831 0.82762238725988846 
0.38698306657944076 -0.10761881689755409 -0.30475766879250377 
0.2597412757050413 -0.19927008015381051 0.004542773793241351 
0.033766963771953762 -0.20912059184483478 -0.053340149643986784 
0.13922435231794186 -0.03705468856331872 -0.15628143532794125 
0.0385610978262537 0 -0.0051383206566095246 
0 0 0 
0 0 0 
0.44449772311841929 -1.0478809680906842 0.33230316589430969 
0 0 0 
0.34790882034147796 -0.25000770382273885 -0.30014275492905018 
0.37861010139273132 -0.26392703840589854 0.050924030268655281 
0.14239793634328349 -1.4789769738839473 0.57905834938803058 
-0.013384664630527969 -0.27604794237495472 0.18643434835393166 
0.16109063212100755 -0.055569962099879168 -0.66083642463935388 
0.28458756388995826 -0.037209980360682085 -0.19248475019874792 
-0.57842444032361939 0.027414250743461391 0.57285255850490768 
0.60568934400114771 -0.24039597133845078 0.53517309170609773 
0.66248065147463708 -0.48378854815668104 -0.15038398801628525 
0.81271135559168173 -0.83732173020579403 -0.46020970267821437 
-1.0185613194206473 -0.98902372872887756 1.1660582387386329 
-0.45402655602839681 0.072562294663692711 0.2630421463221258 
0.54574017625689963 -0.68980981027516985 0.10528144353473617 
0.19248030472456162 -0.35192408265929959 -0.15309297153974588 
0.44020675129090275 0.13250160070261352 -0.12474942566428016 
-0.024217088912709683 -0.70349793202357191 -0.42620379062711666 
1.0772395730053614 -1.3198904119460662 0.50991515565422407 
0.4232181119145933 0.0069052525574571063 -0.14960529823682986 
0.68350502570827332 -0.71250626033161502 -0.92325746593923907 
0.25340772378258242 -1.4247228921631723 0.64818605723746148 
1.033830321637377 -0.050573303669926101 -1.9863656664738358 
-0.071917986867049977 0.54127249351982998 0.095827825111646545 
-0.22110010000326638 0.30753529851141742 -0.018312752305879428 
0.018096960051591379 -0.094270472314893716 -0.20178690533937452 
-0.52065642508599319 -0.78681039743373515 0.42000964167923188 
0.6925862270623967 0.16118485531930046 -0.59846979252118082 
0.22477795275445817 -0.17333652235687294 0.089207020217219504 
-0.034111797944145705 0.46210838452924463 -0.97835428788774792 
-0.18079703630598726 -0.16984573000196893 -0.16508647979890118 
0.20837811901608402 0 2.0816681711721685e-17 
0.71009132932035435 -0.027345880669774357 -0.27938217836974649 
0.3171245651946093 -0.10322302674496446 0.27543495443306154 
0.45636214973922395 -0.5277577462257832 -1.4521847131568695 
-0.34195012627328236 0.018072932094367333 -0.9774615483998963 
0.429371596172549 -0.61911246218252591 -0.3978684313556754 
-6.9388939039072284e-18 1.0139265736035563 -1.6435539586193808 
-0.072003179361176214 -0.06894630757644428 -0.35468110380515122 
0.74063163260258102 -0.87210624531728242 -0.20372865855535027 
0.2150227650830023 -0.4271151112278192 -0.15496120307893849 
0 0.36847291916322572 0 
-0.32174284647391715 0.3132014447398217 -0.21284881365073771 
0 0.36847291916322572 0 
0.14929429685136242 0.13243274318293485 -0.10873735304299911 
-5.6088431537504206 1.0069590892859834 1.4717640991706911 
0 0.36847291916322572 0 
0.40020233348471157 -0.51022214518926323 -0.51043024157264116 
0.31500179200656214 -0.50366555521674727 -0.3204249934991501 
0.45516198902032551 -0.62588585988748835 -0.03270501501956103 
-0.026003935237048952 0.0047119341243892447 -0.10191860684959035 
-3.4694469519536142e-18 1.0191269267019929 -0.4825660210737705 
-0.94023385018097771 -0.56672428412589504 0.80017123214344155 
-0.34004182320326998 0.19454324218415608 -0.12696620801542782 
0.60564953159697787 -0.61193811142761589 -0.16864440241841544 
-0.2521198452731257 0.29146104582048898 -0.095301391347524453 
0 0 0 
0.21407130140334713 -0.30962159888364615 -0.086910912560993203 
0 0 0 
0 0.21816304789834426 -0.10821047023439626 
0.066840144671278134 0.056183801879210307 -0.026744026942609866 
-0.010631144592978137 -0.094463289850427137 0.47177790474267467 
0 -0.616580066488432 0 
-0.0038947784584966554 -0.023149634737183344 -0.015757683279549954 
-0.087729396844530988 -0.11012624696150433 -0.24174308244937803 
-0.67986144135341553 -0.5043633686214205 0.69100880590024194 
-0.65166277932687033 0.89600136503445826 -0.21647439862833176 
1.0549373100614345 -0.92510107905590422 -0.10438282991529789 
0.10217189155165886 -0.32938719336591649 -0.014250048642363041 
0.4687175628657208 0.31403925668399407 0.30451845107382786 
0.73258346009795028 0.33384267591840877 -0.52484153013392953 
0 0 0 
0.049343636482285999 -0.26201079864262689 -0.023292568573941505 
0.019221738747663471 2.1362343838130933 -0.8159367246621021 
-0.19647514996348886 0.80272929112560309 0.4865460137444122 
0.83042816589483859 0.2990811282764384 0.19697683475645472 
0.25354495037533326 1.38929424490453 -1.6979836387081653 
0.0011752805450088531 -0.42796618282041493 -0.14698380278245413 
0 -1.3458989307561162 0 
0 -1.3458989307561162 0 
0.86357737239957111 -0.55252379149247266 0 
0 0 0 
8.534572973403938e-05 -0.040142296243985492 -0.16762010804427613 
0.03106968979357588 0.62833184226616079 -0.86640529299196611 
0.4999994329237647 -0.33894860489426376 -0.40103310522603408 
1.5899470853370929 -0.18820834205273251 -1.8644286651465729 
0.40467305736536058 -0.0013400240302875329 -0.30522210825203699 
0.48976652604403359 -0.29010392134823204 -0.21084276919251876 
0.37019145710750229 -0.64919565890088271 0.23443593662532361 
-1.1219204976387029 0.55240579152422664 0.60256587429487141 
-0.28799262628452599 -1.0549439963398335 0.96494745957339356 
0 0 0 
-0.26400023764020875 0.11139164713344235 -0.12469662045833498 
0.31938603271337418 -0.30661619777789129 -0.3098233669479114 
0 0 0 
1.2362438003451457 -0.25168183493653551 -1.7903200622486857 
0.16483256820573838 -0.11898933843338831 -0.24622026186984136 
0 0 0 
0 0 0 
0 0 0 
0.34423028675016626 -0.085568496815685541 0.25091827951476259 
-0.05216466789506341 0.07094180155926004 -0.27340856010353393 
0.16153978532541011 -0.21585174781710542 0.075017929438948402 
0 0 0 
-1.5449880957918438e-18 0.61746861826614197 -0.93856157411665087 
-0.16696398728386277 -0.15318520226761195 -0.033708973920837514 
0.17522256590236529 -0.5355506448615418 0.29930855541310697 
-3.4276133238705455 1.5025458680633264 0.7049294184722813 
0.043309184026721403 -0.031516991638042183 -0.27937123723382801 
-0.55785337258149914 0.5363848315538422 -0.032893441918770944 
0.035318801874595802 -0.33586144575981991 0.25079794474794126 
0.27316496633038306 -0.49999583145680915 0.082331118327546804 
0.2031557946417008 0.10921877461092905 0.29453420444311418 
0.49402849274432797 -0.20313134346817963 -0.42907020041961436 
-0.34341743970963623 -0.041120596585306549 -0.54374318894592255 
-0.027283782445385495 -0.28050740068886487 -0.026497442349404401 
0.45935618268511519 -0.28174482091923703 -0.40452206803144763 
0.053933251130603446 -0.14301366308935168 -0.094278303338537053 
0.34106373445863958 -0.82924596364657588 0.17036964310892311 
0.38603047708678895 -0.015213639999273623 -0.43842539019417814 
0.53365160281310164 -0.35533328462958136 -0.37412823849100013 
0.14620763179482482 -0.32545702067433419 0 
0.14620763179482482 -0.32545702067433419 0 
0.14620763179482485 -0.32545702067433419 0 
0 0 0 
-1.2403456473352874 1.3630863182752022 0.1320911075302702 
0 0 0 
0.52111942428901803 -0.24285405426536144 0.034294365020403589 
0.24049809991654394 -0.64923421448818397 0.24295689044847582 
0.39739936691701816 0.15856698264554253 -0.1972230396669459 
0.45098672327377015 -0.45492060898519476 -0.19722303966694585 
-0.13249962474698357 -0.065479185266590509 -0.023886728120185975 
0.20562290537295885 -0.62484785153784228 -0.17336992750699926 
0 -0.78732228979361363 0 
-0.65463684506445063 -0.13576510720348592 0.39696426918050592 
-6.9388939039072284e-18 -0.55932533294951714 0.21374611689596351 
0 0.37437419929439403 -0.17469269738859708 
1.2377000547241481 -0.37493499479068793 -0.097575986779532553 
-0.13801221544674452 0.20105413149437784 0.11140456098812093 
-0.41644857856743217 -0.21870598247398518 0.28173947077417838 
0 0 1.0765696598215442 
0 0 0 
0 0 0 
-3.7268104219553049 0.27371459796431302 1.7281463713910767 
-0.63847879825822718 0.32340427432338081 -0.18297258755657475 
-0.30278515501436437 0.15258827589218288 0.03897076459063821 
0.15256306954315529 0.46620174011642967 -0.26697927494290458 
-0.75456499874898286 0.7463739735960977 0 
0.030734258821281515 0 0 
-0.49538651863397226 -0.52562935323482607 0.1310375021712839 
0.7299604964980132 0.5318516201131368 -2.5538131092952652 
0.58508154990389827 -0.84972364152371849 0 
0.49583528290139117 -0.87259053143941701 -0.02238839936570158 
0 0 0 
0 0 0 
0.77272724893963085 -0.25634549358540937 -1.3884193826307216 
0 0 0 
-0.24021163640630344 0.49347737906362316 0.28075142960477029 
0.56971565564483251 -0.52184425616174179 0.33390598810469441 
0.054220203009955677 -0.064315045860221701 -0.042871277153592409 
-0.48409911606022993 -0.75841238605182493 0.23109510124425853 
-0.30242125626338323 -0.48809843827360577 0.23865327920521562 
-0.18807739083199471 1.4834105140645886 -0.1364511065239038 
0.10996339557185154 -0.70735690077560021 1.7347234759768071e-17 
-0.22696378889055513 -0.1821249527886446 0.024816010680933837 
0.061276923341791099 -0.10367436559152535 -0.97929807677212866 
0.061276923341791072 0.24080798499342179 0 
0.061276923341791072 -0.19065400665225898 0 
0.09573588248331566 -1.1534546960925598 0.43646293555929538 
0.10846076569850459 -0.11342959204345447 -0.25303306751189486 
0.059643610969271448 -0.28170512366083966 -0.15742808457824742 
0.3600059636354912 0.086845990523836472 -2.6271844332165117 
0.23996964947510219 -0.41801618687259451 0.19091559175756301 
-0.23578060100134957 -0.4580517320970568 0.099528806139125792 
-0.17887409297423609 -0.68965879252986917 0.26193263529240024 
0.69937658639376621 -0.52073731678827095 -0.55662669170566759 
0 0 0 
-0.090208847470618095 -0.32051659040394426 0.064973544755111537 
0 -0.21630769627739094 -6.9388939039072284e-18 
0.029837416688686291 0.0070937679474440442 -0.6751568988614447 
-0.2553923724231022 0.17166171204985442 0.55213383086083911 
0.34434756579988224 -0.33166588329578778 0.036444703022099227 
0.29549559028134686 -0.9622454488170753 0 
-0.02642622754561906 0.28568842877746747 -0.43362365690904203 
0.20625082523520233 -0.822667541449703 -0.060020995662291923 
-0.17191986071463872 -1.3477384491416626 0.63025429892541474 
0.90102117180358021 -0.18375336255411076 -0.9642540666946624 
5.2041704279304213e-18 1.2186626127400879 0 
-0.031940807816682917 0.32015748286314716 0.009213117355365754 
0.67040410691360608 0.94511632380795274 -0.65229165123393773 
0.41663654933382738 -0.21554314492808335 -0.2196052179595655 
0.088799785394746783 -1.1498307366212031 0.067746580998601924 
0.32206782544500923 -0.89401126480150839 -0.16631317820759858 
-0.14818183459931963 -0.2892142283149054 -0.17314807119326581 
-0.13942381909512616 -0.23957828226584255 0.37110926261395721 
0.4354587455222193 -0.24074717377096094 -0.65768053799369186 
-1.1706718998892456 0.4088208395431886 0.38287670133057794 
-0.46733684322987618 -0.18559983287751089 0.59019745241658428 
0.21585949765949666 0.83776185126103597 -2.990213209575038 
0.52888778414484838 0.060739614645301351 -2.7481547511116058 
0.1849530945955763 -0.24682463901830765 0.17221954421413471 
0 -0.50212650634795131 -0.074444216619305864 
0 0 -0.074444216619305864 
0.15163679149192175 -0.085029658629966268 -0.28647415082308747 
0.55497283265240149 -0.18312101751235313 -0.56468501874458565 
0.37370008549144329 -0.33657041876601124 -0.62113119566185315 
0.61449446765765925 0.020340205373818504 0.41819957334144753 
0 0 0 
0.52025262577894438 0.23766360124636107 -0.063104212069640994 
-0.7202507891960086 0.46039779846612916 0.56437431746197908 
0.52666783319723109 -0.35957666321768855 -0.50121809300531139 
0.038565445616083882 -0.038380695601721804 -0.37305964447818396 
0 0 0 
0 0 0 
0.34826647966478108 -0.36116768723566883 0 
-1.1934130450958587 -0.36116768723566867 1.1007525946549259 
-0.094428363990262262 -0.44841396982168125 -0.25987901492553722 
0.87099745835784093 0.43262256874565574 -1.576240398544354 
0.50948371167413042 0.31138489697356869 -0.90855287177835542 
0.71145549769037497 -0.28419319638770402 -0.032511314594228298 
-3.4333076600854193 3.5351723564151931 -2.473130963248976 
-0.099633742929647856 0.62368368908017557 -0.48166605858049411 
-0.14691353142149505 0.17934982766972263 -0.14417046075189438 
-3.7245222216867635 0.69941088557509734 1.3231804065411565 
-1.5781502346800593 -0.30988253356453888 0.71059326407326751 
0.049162936765606874 -0.32874620061856408 0.77936685586704191 
-0.28359644172049919 0.91072552460987266 0.56652884564950912 
0 -1.7724975102444427 0 
0.64783918460810497 -0.06258915448510044 0.10038443847115296 
2.7755575615628914e-17 0.72995224637107747 6.2450045135165055e-17 
0 0 -0.68087938782588997 
0.79837411052271956 -0.54932862262216642 -0.51529731780009636 
0.21752990190300212 -0.067016755456824784 0 
-0.081871384707258632 0.31483280107253803 0.198796177557577 
1.0397176706999653 -0.19360002156759065 -1.2212910369598313 
1.11865793590777 -1.5955388771709136 -0.56252788807788334 
0 0 0 
0.89208078609053076 0.17657058776066709 -2.5371624354917119 
0.80548927656086478 -0.65495421573744361 -0.36603123683987027 
-5.5511151231257827e-17 -0.4881780667339719 -0.74436645780815891 
0 0 0 
0.25112303853772228 0.086127594304264227 -0.88144305585850491 
-0.30044882295708009 0.30139181521864888 0.59869305571315889 
0.078157397259575989 0 0 
0.078157397259575989 0 0 
0.078157397259575989 0 0 
0 0 0 
0.11489577582161008 0.45316578018398779 -0.03435314933026043 
-0.22317379416626346 -0.048826679943770643 0.22434964943339503 
-0.13062163556891593 -0.052116045765189412 -1.001194077116649 
-0.056447666124501458 -0.4934863214375429 -1.9521498925892318 
0.091260231450728535 0 0 
0.23776340883240338 -0.14788508083206692 -0.53225371487535034 
0.70612588504888807 -0.072221180763591408 -0.19493312773397581 
8.6736173798840355e-19 -0.032338648661396491 0 
0.40098463517891259 -0.040140527757128203 -1.0510386909449085 
8.6736173798840355e-19 -0.032338648661396491 0 
0.36758471774365753 -0.24398512116450574 0.29432415250879629 
-0.28935409015028701 0.16192026623113526 1.0251664938299472 
0 0 0 
0 0 0 
0.61406068036541139 -0.20302281346518963 -2.2786557671748304 
0 0 0 
-0.54561859268518886 0.039947332654424732 0.031255880180242362 
0 0 0 
0.57725810189158366 0.12375448339753663 -3.5337667457356203 
-0.61465127474766379 -0.73155888559896098 0.35417040405304184 
0.59500715746926658 0.047766848402007879 -2.5470400695225277 
0.1739361916686856 -0.71227813845372845 0 
0.72568770341607902 0.15059591884086981 -0.87892075766134681 
-2.6280296749622547 -3.1225022567582528e-17 2.1825746307365814 
0 0.49174158328767603 -0.61977720491734567 
0.37061154060285234 -0.38392405025312376 0.0051852548522445105 
3.1225022567582528e-17 -1.0593307173769955 0.13796699966035567 
2.0816681711721685e-17 -1.9385256956787054 0.69400859167144602 
-0.18823610588482101 0.57854415268933856 -1.0352283225585615 
0 0 0 
0 0 0 
0 0 0 
0.70602400239072927 0.024997351486359926 -1.0541951186850957 
0 0 0 
0 0 0 
0.78629739387968045 0.19286674527649511 -1.0696800493514957 
0 0 0 
0.098619098868203109 -0.23573168471818276 -0.6207355409434383 
1.0408340855860843e-17 -0.13598246589067683 -0.057086519754357475 
0.78748577087632043 -0.15130495100349178 0.033007178430211448 
-0.25649011819632 0.26540302288997519 0.18702687202640786 
0 -0.067916748181764366 -6.9388939039072284e-18 
0 0 0 
0 0 0 
0 0 0 
0.645832138684861 -0.77293581385934973 -0.07359478180815357 
0 0 0 
0 0 0 
0.16500482382339668 0.098308855324902036 -0.2554635185570876 
0.18135779313732281 -0.68448841838580043 0.63139926279505854 
-0.11510032085748573 0.17430461676657194 0.33069950981032376 
0.3136763669731753 0.072904015822656792 -0.23950029507962495 
0.093049275315915989 0 0 
0.72436126501256259 -2.1057691987731797 -6.9388939039072284e-18 
-0.32275573565465887 0.14986649456079104 0.18294471113790128 
-0.1820685797220416 0.48571966376969533 -2.2378125136151841 
0 0.41975741173677206 0 
0 0 0 
-0.26588744030975031 -0.66863308226086837 0.13628395906023968 
0.92054882886144274 -0.28457515910545228 -2.0947220749062776 
0 0 0 
-2.0997397282228447 1.8700918123255732 -0.37577929969654739 
0 0 0 
1.1532116189749846 -0.65209069609829906 0.076894466096578851 
0.27098719175890279 -1.775112462259411 0.075980499696344364 
0.55562350250156745 -0.26665399092736736 0.15531080757199012 
0.41025528675154205 -0.36764107181736588 -0.49096154026651306 
0 0 0 
0 0 0 
0.44532002315153779 -0.29315909681265129 0 
0.46185603663809988 -0.21139006126387053 -1.9669978499972645 
0 -0.38100933776171358 0 
0.36462789265483275 -0.031319895887745891 -2.1453183984938451 
0 -0.38100933776171358 0 
0.21627421538558697 0.60743245005769286 0.10117553591709436 
-0.55256027327853641 0.22765182387833313 0.49473215107378088 
0.40900137937170589 -0.51505287189098881 -0.23529192211599159 
0 0 0 
-0.51528696880781699 0.25842634653941848 -0.19131116820765975 
0.13233147806474477 0.50900862400457936 -1.9897166821926766 
-2.7437913411509545 1.3865516806930511 1.5454160453873085 
0 0 0 
-0.95193752504498941 -0.37671520640445322 1.7039720149893287 
0.46599493930697611 -0.028367103129828396 -1.8823753993940013 
0.21478375818557394 -0.73173682043498456 0.73353200349041037 
0.41161642568056939 -0.61282553719132205 -0.080991794146098639 
-5.5077470362263625e-17 -0.56676126504832325 -7.3075226425522999e-17 
0.7637593681963325 -1.0229625865578156 -0.0027263628378710347 
0.055597678098243238 0 0 
0.2946903757486467 -1.051015238822143 -1.5969575083203116 
0 0 1.3011474412996229 
0.037706176087332899 -0.89160906636447157 0.17390789359446709 
0.059627909717054645 1.0408340855860843e-17 0.13103750217128393 
0.15032663395803911 -0.41999658921127203 0.31317361142641353 
0.021268106007133292 -0.71832879209136236 0 
0.50418917466374336 -0.81971217503019944 -0.7565175860958373 
0.6409846221087222 -1.7936649870005132 1.3877787807814457e-17 
0.41315337968180899 -0.73732302377421988 0.38124956571515267 
0.11280202936416947 0.45437262750481622 -0.028370113714852263 
0.06838063212776993 0.37096496505123183 -0.47355388224303696 
0.080923801172454415 1.3279343109799444 -0.38344692493356125 
0 -0.56057627601441806 0.44758619878539607 
0 -1.5832168876990005 0.63471159153418655 
0.43969150929339917 -0.14736013598927997 -1.6324341311530861 
0 -6.9388939039072284e-18 0 
0.0099065059287249818 0.6724856551508871 -0.22924214601916526 
0.4529861236432931 -0.41550718843739587 -0.0028778079529904643 
0.27248494983242016 -0.39131597593053952 -0.27966709485176477 
0 0 0 
-0.13824224442565297 0.60243386704801627 0.1867159500630616 
0 -0.81850821472319024 -0.15988716907777356 
0.079294862116536885 0.003225072416870485 -0.21875319757032632 
0.19333576674855618 -0.26764975095026849 -0.35574448136818992 
-0.0018907327344540601 -0.31497744051441062 0.098373564087135518 
-0.030548134721107324 -0.095637291617795703 0.14689730583329197 
0 0 0 
2.2551405187698492e-17 -0.80752502237869206 1.2815797938884956 
2.0816681711721685e-17 -0.13108127298121677 0.2801961343109643 
0.78306840816889034 -0.0087897698643033054 -0.045823501200888496 
-0.25510261617849789 0.12614834940869779 -0.021615290739504148 
0.1375405313063266 -0.12259528306447076 -0.39869061763818364 
0.22174131734841504 0.32318762615179991 -0.081611681557862484 
-9.540979117872439e-18 0 0 
-0.5947139512099554 -0.78872870459508249 -0.17823766979069752 
0.45787219626516884 0.1816361779984616 -0.69601289430266478 
-0.0022537986516158477 -0.11609235089411386 0.080247758457404686 
0.22324912628624682 -0.6230626301720249 0.41944806089629794 
0.35294880831537223 -0.016002612605651476 -0.19303127438273038 
-0.17461650572682352 -0.19681285883539773 0.7170428142792179 
-0.35429393577795132 -0.506905561604032 0.40524190910762886 
0.44399380171544389 -0.037389719870499258 0.5134365644801101 
-0.21810195149383976 -0.17814084106243017 0.48814445618379909 
0 0 0 
0 0 1.7347234759768071e-18 
0.31123410209987878 -1.1262048346591207 0.0092442290009325523 
0 0 0 
0.38845926700706002 6.9388939039072284e-18 -0.27861226641940851 
0.40146761985794821 0.12199265062745994 -0.15911202099976574 
-0.461466263399256 0.10144806149013921 -0.10913493841975162 
-0.26654297010573824 0.1053285774902461 -0.46271098715562597 
0.89418609613201949 0.20531727418940632 -0.95631069503817689 
0.852243483259011 -0.45740439696008123 -0.9103636483800166 
0 -0.22231518170636885 -0.32023437318818709 
0 0 0 
0.64621989163312121 -0.086467262774671538 -2.0047636124888477 
0.947244290687422 -1.7177124031481825 -0.28627313827356055 
0 0 0 
0 -0.19301985548831274 0.49638376716523647 
0.42478066467100395 -0.15047480799657792 -0.37531578925898906 
0.15025905425242739 -0.18457001526668321 -0.18109053977456968 
1.3010426069826053e-17 -0.16551957283912486 -0.051386536670317319 
0 4.9439619065339002e-17 0 
0.62025712192063709 -0.16368239120539246 -0.72371284082264697 
0 0 0 
0 0 0 
0.052515091216747335 -0.17939232764506097 0 
0.25175142501662073 0.13797173179582278 -0.73863652287878034 
-0.023198463728848328 -0.076560583771922638 -0.28484495267070109 
0 0 0 
-0.50635631688521843 0.74793013779450501 -0.93899152631366622 
0.14787689113721064 0.7962136726652902 -1.7347234759768071e-17 
0.073609003233635867 -0.21969217166638633 0.18292045415907732 
-4.5102810375396984e-17 0.34866137352442683 -0.1453719160154214 
0 0 0 
0.6511465354445195 -0.031390261793172843 -0.77476668324795339 
0.40322773025384911 -0.81776354390337436 0.45795907033617683 
-6.9388939039072284e-18 1.3038015112426624 -0.95304856902315471 
-0.35798376767334722 0.20909067850724827 0.55342154369624086 
0 0 0 
0.24716086483239585 -0.76129746637689455 -0.67722783039765244 
0.15423735035629133 0 0 
-0.42469091069400489 0.64379713233619718 -0.36207907884592549 
-1.0340809182276529 0.48481343603772542 -0.32513222276199105 
-0.18744706125923927 0.040355069826680481 0.0036422152597789404 
0 0.099912305700376847 -0.15792111814105472 
0 -0.015777242801270464 -3.4694469519536142e-18 
0 0.21462274235437726 0 
0 0.23039998515564752 0 
0.038015976675341748 0.022843134564466839 -0.21944480499424046 
0.36638272854922982 0.38351688794858241 -1.993453923664378 
-0.012335526865195933 0.061142350928180052 -0.40979677404385911 
0.036243973120734907 -0.34718182309669587 -0.42840536911264349 
0.43213986414169514 -0.28870681147521415 0.36184663573454173 
0 0 0 
-0.14633764731862331 0.35435957363991061 -2.1308500248869189 
0.81711212764738517 0.14331907793720045 -2.1297312194989346 
0.94242716382820702 -0.29103864599780094 -0.27849142782299707 
0.29279940416866074 0.73915928861555469 -1.0605569352954101 
0 0 -0.019127083811961543 
0 0 0 
0 -0.085125693061239446 0 
0.27338364740169568 -0.061553017654108214 0.22619377731272361 
0.5644994090572798 -0.73449720940809049 -0.46498102581798761 
0.64707117560150607 -0.058750728114879365 -0.05266526770634198 
0 0.778896938866108 -0.60040331941289415 
0.8477804019383518 -0.8211578120695594 -0.9160623971724382 
0.53311786055846477 -0.70690836717892291 0 
0 0.10035359067759546 0.071241074138251509 
0.50231495532668435 -0.52615973847230335 -0.33705653832972043 
-4.533295881894615 0.26479871385020692 1.3553060905119498 
0.10148514116498346 -0.25213377481797355 0.017466399161046885 
-0.33138099512978941 1.0613519879822191 -0.213995883377921 
0 0.6142800779206441 0 
1.6890364357938845 -0.4982872485668085 -1.1889683950865153 
0 0 0 
0.27112789030098489 0.76991776008852764 -0.32762578844789014 
0.014191985445956195 -0.16959501294670584 0 
0.098257777089945944 -0.21839982175454051 -0.33065633278610529 
-0.13712334955612482 0.035820768198112606 -0.33065633278610534 
-0.111253230065535 0.11742650206664178 0.49359516438765288 
0 0 -0.33065633278610529 
0.21097741796715261 -0.63301403788412736 0.64722667582544169 
0 0 -0.33065633278610529 
0.44040808331327486 -0.90588469077373457 0.90241572624099431 
0 0 0 
0.20135643972050526 -0.24335828164487908 1.3323703985382587 
0.46082060898074856 0.045188389500650121 0.19838438379615808 
0 0 0 
-0.18760140797766098 0.92166727149356298 0.19347930716933154 
0 0 0 
-0.087883401499525934 -0.45895255454579142 0.33648855786940313 
0 -0.23104580455723128 -0.88161617356574573 
0.66721222460310448 0.93732842551964257 -0.36480230152513299 
0.18652617789046513 -0.98942664194959684 0.10425209106766439 
-4.6179673631501359 1.0220597160445335 1.4661930510722878 
-0.39108287024583349 -1.9449314321335616 -0.14184962822702421 
0.055597678098243258 -0.54605858180571043 0.20319472245288209 
-4.1021276588728117 0.42438549044066326 1.2662675451381356 
-0.09779264796089826 -1.1146943517592209 0.41289277385572454 
0.13541855570137851 -0.74605887801327941 -0.59240727417577377 
0.091412756853914562 -0.17128297834260531 -0.24534241139625093 
0.46241319522290475 -1.3573084980095271 -0.065391036332145824 
0 0 0 
0.43860765286789039 -0.95282889360269041 0.85378910178514777 
-0.036814888844103971 0.32975772807250381 -0.029172708975360895 
0.10755379167289737 -0.50365816619127357 -6.9388939039072284e-18 
0.98895283068631046 0.12659773145393785 -1.3211689929406911 
0.7280826846217795 -0.40341016350892189 -1.3890970838294374 
-0.71228453802489511 -0.15121571492272032 0.62356493262561097 
0.65655307807074936 -0.044440914079179702 -0.11957830781572977 
0 0 0 
0 0 0 
0.67044761918487716 0.81960886835320057 -0.95196685674417514 
0.80874559570630955 -0.39618114061121218 0.65607909107079854 
0.56178915371658644 -1.027781691504305 -0.30693024359339777 
0 -0.15008775718137418 0.21125780730124596 
0.67969261693395366 -0.29575842519283529 -1.1635290955805577 
-0.063399323955924264 -0.24717494213312485 0.048148533000286327 
-0.063293045643442597 0.35124600979656817 0.71822869225125086 
-0.1638042912135193 -0.37522015205679671 0.29582353203399553 
-0.45475738029340429 1.3604674617113126 -0.82751300836083153 
0.26857537879172172 0.30422864068331362 -0.018108129174442579 
-0.32411499241175612 -0.96969713445115358 0.56891908103775368 
0.38192924092852676 -0.017304571329171244 0.25217482230138255 
0 0 0 
0.0076667127091455088 0.12137392442597186 0.17475717199952323 
0 0 0 
0.47382964408425271 -0.35869991636413889 0.24918519435359959 
0 -0.11215327703633321 0 
0.11571260130389782 -0.13389266266062211 -0.076894861711695461 
0.64060288176314262 -0.048055430102599349 -0.80671342411774982 
0.86145295885699791 -0.16834358982195646 -1.7772192373991602 
-0.41055781448097334 0.15780650236332308 0.51360049247949591 
0.0071772726173813641 -0.56061246976405943 -0.13957475109706211 
-0.20841195783219718 -0.77840490754691771 -0.36143577476182992 
-0.45649286264786126 0.038303441104575862 0.48976791033140193 
0.022516465174283413 0.42179076634242618 -1.1805859219816668 
-0.14409115586011295 0.20962987398492111 -0.60330659307124035 
0 0 0 
0 0 0 
-0.39105835166488501 0.20320598042529622 -0.18297258755657486 
-0.067628744990446299 -0.023320118591072816 0.065408410536656456 
0.21075031228961566 6.9388939039072284e-18 -0.10528388942275668 
0.13680923354966851 0 1.7347234759768071e-18 
1.0187609015558743 -0.35016259731377564 -0.97862599275101214 
0 -0.053806024356454894 -1.7347234759768071e-17 
0.76220449041852256 -0.30599185297299131 -0.022963104097970734 
0.15506946115551382 -0.19524401279517584 -0.11902436844619481 
-0.012103819180999675 0.37531208635148766 0.56030419126796938 
0.11347849167793621 2.3029606038790558 0 
0 0 -0.020590440368228484 
0.1506412186536534 1.435210260863792 -0.0650035768559485 
-6.9388939039072284e-18 -0.10108862032588907 0 
-3.4694469519536142e-18 -0.10108862032588907 0 
0 -0.3679660676546791 0 
0.056350827605646872 -0.10108862032588907 -0.49475419443879654 
-0.22752189322049535 -0.15797619912316729 0.041944265246666765 
-1.0663232862450547 0.4577982876204732 -0.055289599995643236 
0 0 3.4694469519536142e-18 
-0.38889906564451437 0.29846070653349177 -0.24820288150315106 
1.7347234759768071e-18 -0.52116235043642301 -0.18894805848812146 
0.89624930864203434 -0.81176369784731228 -1.1000741508781051 
0 0 0 
0.22766935030260099 -0.34792964337322979 -0.055110543957125814 
0.28493930822640706 -0.09991600955853136 -0.26415884153546876 
0 3.4694469519536142e-17 -0.25322573827058814 
0.092545656957092645 -0.18997288804480394 0.58168024976658417 
0.027304935927970394 -0.19984461696041339 -0.1375045924723553 
0 0 0 
-6.9388939039072284e-18 0 -0.028640930353162532 
0.45173014696762648 0.055650473948476158 -0.46307712990441852 
0 0 0 
0.42616600449340747 -0.46443556034453798 -0.14768721704345145 
-0.82614962385433166 0.013550575610444928 0.15540761272294432 
0.38723381659346745 0.51076246794802116 -1.683177355683386 
0.35516632257599323 -0.0098103078657542208 0 
0 0 0 
0 0 0.075265902455371292 
-0.060102901888783047 0.13607544302220645 -0.072085031456670251 
0 0 0 
0 -0.19638002248266678 -3.4694469519536142e-18 
0 0 0 
0 0 0 
0.83570406316365897 -0.69188750818301104 0.48985067270133908 
0.31252498593609346 -0.13546268963831876 -0.49978738659455457 
0 0 0 
0 0 0 
0 0 0 
-0.040120564316103322 -0.18547641202451226 -0.0059462259943278487 
0 0 0 
1.0653973797028309 0.63404259788762585 -2.1419480523492824 
0.13004165777421875 -1.1498307366212031 0.27358895910701447 
0 0 0.20485257393110626 
0.73421764771740439 -0.31172814332594784 -0.65040217332891237 
0 0 0 
0.24150776626221757 1.0082119235240679 -0.94901150563595826 
0.42719559054385914 -1.3626395527077166 1.1893887431268788 
-0.10169306929723913 -0.30445265944602029 0.25984634128045514 
-2.7631519679633367 2.5942659912712309 -0.36363071138366976 
0 -0.49869969022291516 0.36174072823231423 
-0.13771191027201479 0.048201768087602376 0.10173370748838655 
-0.01222382123496887 -0.063550351615419248 0.019886828081628016 
0 -0.33023390364744787 0.48275426452300529 
-0.62401140791721432 0.59933481962289226 -0.21055278426230215 
0.56268431773091365 0.23648865097286764 -0.8896468213513572 
0 0.68714613658987278 -0.53228208503760444 
0.28530307804577898 -0.76691126993125325 -0.095797654599133919 
0 0.68714613658987278 -0.53228208503760444 
0 0 0 
1.0920109306844989 -0.58600246901688269 0.14412272324642036 
0.71896698023344885 0.094287286750728838 -0.69389931866960453 
0.62721809852349131 -0.021787450994741359 -0.084898564036526805 
0.53411184375685683 0.25639164357447164 -0.77750955488073659 
0 1.7347234759768071e-18 0 
0 0 -4.3368086899420177e-18 
0 0 0 
-1.1693796008129795 0.47564185528871594 0.04506835047229802 
-0.99737093875644689 0.54448925477986798 -1.8006596110123323 
1.4026327798492726 -0.3130038486822474 -0.54353750848980653 
0.52150252567203037 -1.2378490474851762 -0.50717716281094194 
0.39494006775303675 0.13258402909714762 -0.57183244346288387 
0.52150252567203037 0.65388859032554014 -0.66770353031344942 
0.064435256551248377 -0.28139035422904218 -0.6723275684006863 
-1.6733281668618631 0.15504906136392532 1.361609527469483 
0.52150252567202993 0.12232617831279996 -0.50717716281094194 
0.1112273232570235 0.73626523772819652 -1.3852360643809414 
0.52150252567203037 -0.69319794258761525 0.09789595798527076 
0.29008102861166257 -0.69102883783522773 -0.29375750831416847 
0.59868942205190523 -0.27930698062586279 -0.77445550397552276 
-0.6576912441590943 0.34990227501026266 -0.10041087485775968 
-0.20907979637439289 -0.30614256503300774 0.28081051943990615 
0.040896365455125011 -0.17099173507335819 0.16127544922705389 
0.55273493642012383 0.36935275846330712 -0.94046853049362789 
0.34299032275693719 4.7162794503119443e-17 -0.18259628610446418 
0.23686957637769412 0.37525838153947116 -2.1437353248020781 
1.3877787807814457e-17 -4.9981720151581754e-17 -0.48141495909469606 
0.74080842331135344 -0.52012012518923423 -1.3820748687915592 
-0.0010501609135986989 0.38708680973289755 -0.7341008999800509 
0 1.9407218887490529e-17 0 
0.53027686012669872 -0.55389606160696159 0.10981549666134582 
0 0 0 
0.14010280252738977 0.082456207488588909 0.060546344962364107 
0.1082121510061657 0.13137454729430759 -0.35738296913719741 
0.25764729772813882 -0.24977751011826205 -0.97239783203693497 
0.73413992368895997 -1.0164443362727975 -0.62708793310098621 
0 0 0 
0 0 0 
0.35143199391879265 0.16343880747443612 -0.36014895890189685 
0.51236769035369389 0.20566525753426873 -0.13594515613451991 
0.051741247862954427 0 0 
0.466716295072721 0.033293209244462323 -0.1156292472067624 
0 0.58731407837737071 -0.39426773013013194 
0 1.0414782624558965 -0.64606608801940901 
0.46409435632530915 -0.37164450981900138 -0.0039854041999479208 
0.40911531235230092 0.12747377648663993 0.16924249168219452 
0.61611220847806736 0.10396591256095516 -0.64606608801940912 
0.74786649305578978 -0.44796401649258888 -1.3883807952945859 
-0.41857756833729104 -0.67382193403952328 0.49494821681539258 
0 0 0 
-2.6892807307359954 2.4265327022328194 0 
0.016341922680082874 0.074136402933699885 -3.4694469519536142e-18 
0.015692396428398959 0.10101674215029754 -1.4639193554134615 
0.081144088507146314 -0.1737850885109968 0.1788617102774967 
0.23811468313428 -0.35938357205596783 -0.12434458457996678 
0 0 0 
0.30637468857111372 -0.13055538666624128 0.56042359523686847 
0.14083886903273471 0.14946308250681117 0.1941740074951846 
-0.16882488186999045 0.6959841901468351 0.64815320269799703 
0.77110237658156355 -0.040726291782987034 -1.2144285119457696 
0.25901190878903374 0.27123884317878638 -0.45017871149911237 
0.42953913625322931 0 0 
0.20677354515512955 0.031447793572713545 -0.60370480492589529 
0 0 0 
0.21780551404037293 -0.33549489533869914 -0.43788402988030239 
-0.052874262822300969 -0.12925121168156659 0.093305519237063997 
5.5511151231257827e-17 -1.5779989907848118 -0.040100124885352716 
-5.5511151231257827e-17 -0.60836521423330336 -0.26339712214366134 
1.096379720337048 -0.97585440839330762 0.59865798203797826 
-3.623061711433686 4.3666383794728878 -1.5220530738362439 
-0.82747949307139623 0.12756889431583832 0.84677593520551664 
0 0 0 
0.39389573999105787 -0.16222825238476732 -0.18811335344068952 
0 -0.6404504719956422 0.67147052464116597 
0 -0.081771581253512721 0.07347808076391954 
0.13462588637636147 0.7040394324133129 -0.90063917933840654 
0 -0.61793805688874692 0.18354240436593175 
0 0.21387674914369581 -0.37644466954062694 
0 0 0 
0.61884529510870412 0.47335909453394975 -0.52369563143449271 
0.46340574336467871 -0.050715980390323212 -0.43537482448687209 
-0.14815661003808803 0.39582712190355462 -0.23864191068936896 
1.0098713750269166 -0.70930399328815663 -2.0561121798327129 
0 9.2048764444019326e-17 -0.18509911809586638 
0 0.021548644970204422 0.42444439869366923 
-0.64344387443712736 -1.0755828809642423 0.37412273453419403 
-0.3536172126307438 0.061273902619652765 0.62303243936563646 
0.15766072023986133 0 0 
0.15766072023986133 0 0 
-0.30260018873190542 -0.11920023147088285 0.15321594961537538 
-0.33440815733942825 -0.14793321463588696 0.82243791537799349 
0 0.99842481008204087 0 
0.15766072023986133 0 0 
0.0082670009985375114 0.15403480562222471 0.45236228493394898 
-0.53412854494250728 -0.11826051768569787 0.85917742729248259 
0.90902003227973738 -0.18190989974668492 -0.70727752335186334 
0 -1.0408340855860843e-17 0 
0 0 0 
1.3457484860198576 -1.1211899170274762 0.53390583388443691 
0.14571036832333023 0.12839345702126734 0.13130004223757308 
0.0052943092548649231 -0.1986175374847419 -0.14234781697911522 
0.4332388770237845 -0.66151860171276633 -0.12120979849951417 
0.092121928623779895 -0.94800126495675174 0.067473492145757402 
0 0 0 
0.22499572938843737 -0.19779472023523098 -0.53844018923031611 
-0.39437759329684258 0.11928498542568368 0.20709126145209861 
0 -0.010806895237007218 0 
0.40808308632003359 -0.39941489929583418 -0.39071180028042746 
0 -6.9388939039072284e-18 -0.068353064654221557 
0.073943053899155481 -0.46583065197570683 0.70124469224982788 
0.094390080385754735 -0.13322414226478121 0.17383111246923583 
0.36840704556778886 -0.88756589576840872 0.095406102512731267 
-0.28099359456839701 0.5024493577645297 0.14644977374260221 
0 -0.19641389170233234 -0.19473048242146612 
0 -0.18644205025981897 0 
0.00029540524445014729 0.93412836481616701 -0.51928512510320968 
0.04272030676294445 -0.38265573750582932 0.45608323082242463 
0.85892410274783404 -0.59400465673655689 -0.85533747605099042 
0.26414743010102393 -1.7039963685284276 0.32797100737045448 
-3.4694469519536142e-18 -0.12063929555050606 -0.39046339762085636 
-0.10212600861165846 -0.17700349230877965 -0.30416702080352992 
8.6736173798840355e-19 0 0 
8.6736173798840355e-19 0 0 
8.6736173798840355e-19 0 0 
-0.8428040688584314 -0.057495554163143885 0.81101805370341007 
0.84449376532872877 -1.1167610361387748 -0.81669057395390354 
0.41238739732939006 -0.59484412794414376 -0.32622479480349631 
0.68016917099814167 -0.18520935160947849 -0.4337656013383922 
0.46149020358658754 0.023878429753381197 -1.007283337184282 
0 0 0 
-0.097677071135290505 -0.91417072301432845 -0.37629037482280342 
0.28101770815529681 0.36564867384387756 -1.9954347750864936 
0.20677354515512958 -0.18934334599977978 -0.38780222679540238 
0.29798258790638199 0.39495873608179266 -0.75355537016307139 
0 -0.18934334599977976 0 
0 1.1290297962754774 -0.30684726254661693 
0.46602470438324239 -0.076524712268213418 -0.39548686945798206 
6.9388939039072284e-18 -0.204590439389496 0.23292801081726336 
0 -1.3877787807814457e-17 0 
1.7347234759768071e-18 -0.030011898537882956 0.77239298657438493 
0.51485768408343635 0.20394353653579517 0.52514846123418679 
0 0 0 
0.020410209790378588 -0.17014540043175716 -0.034240881580627699 
0 0 -0.2035009544649653 
0 0 0 
0.24791015797193994 -0.036817127883486081 -0.014690739770365342 
0.43056821028548287 -0.41944532120482891 -0.48410221288032274 
0 0 0 
0 0 0 
-8.6736173798840355e-19 0.18822948337278603 -0.40230165623633396 
0.61102576639277961 0.064228138800253076 -1.1965452830287087 
0.34087816123266335 -0.0055073096870156078 -0.43188215074651354 
0.74322091233828091 0.30266898695067579 -0.26073754255262149 
-0.1954821258809441 0.43996077462857452 0.31969934470710826 
0.21031513149913705 -0.57327454577028902 0.13278223498427152 
0 -0.046497094496467453 0 
-0.21702930344889804 -0.11723237981168366 0.059709404117176589 
0.71704878334413946 -0.26433277427020729 0.43472198457621603 
0.18011117694552095 0 -0.02762280827726667 
-0.027967981054469425 0.18325299598548606 -1.3841281513785775 
0.34063920060012781 -0.56649885465332328 0.35710819134790633 
0.0027871422326677942 -0.15236857607400403 -0.49147316443374173 
-0.41165167068282066 -1.5091517011517444 0.42336566524758201 
-0.13874365147750209 1.4910389693576105 0.20273960242977995 
-1.5123017670635113 -0.090546573913037331 1.5299197512025824 
0 -0.38242865617389421 0 
0.006090224077909683 0.21763158170023952 0.27727341953490398 
-0.021539540884773986 0.22827255197780608 -1.5959109437962835 
0.83901008799746601 0.053429978426345309 -1.718674764831555 
-6.9388939039072284e-18 0 0 
3.4694469519536142e-18 -1.9271493347771891 0.036200221766310325 
-0.60571711559839803 -0.42922141865607821 0.81323159894163966 
-0.24514721825652902 -0.75730495637296225 0.59826953473384359 
0 0 0 
1.2825238867289661 -0.6582036080091116 -0.66157658806493902 
-0.66706075721876357 0.44754803092500994 -0.34025068667633668 
0 -0.11177164782766499 0 
0.2012647408390047 -0.023185638852779921 -0.58475712770306965 
0 0.55651996439262752 0 
0 -0.11177164782766499 0 
-0.77899374228692431 0.7660358896776398 0.34313739110683528 
0.07263775304103616 -0.32404922003600867 -0.25876203747349696 
0 -0.11177164782766499 0 
0.42182666347295772 -0.065898711825631284 -0.022850840728890053 
0.81281801742656312 -0.37696265423762454 0.097698281125043557 
0 0 0 
0 0 0 
-0.56614814629963228 -0.14558985612313152 0 
-2.6824856273706237 2.4193694904077949 0.51670529125307618 
0.52063734508501891 -1.3354391148540152 0.13330146493936429 
0.050736164911273085 -0.028240679250305475 0.65457775919237293 
0 0 0 
0.36869058510240915 0.82032064448380126 -0.3610423200278105 
-0.84646064747449956 6.0715321659188248e-17 0 
0.89994191988169825 0.29644971751953142 -0.30272089589466633 
0.073242631444308648 -0.52113344899978276 0.29239225003712577 
0.59469114945290869 0.027208158626831402 -1.9580056469033924 
0.019218559126449423 -0.24154952258815388 0 
0.12668776609001259 0.21252841381133575 -0.50677077103906931 
-0.54629439743663066 1.0485127768089517 0.12592718641711603 
0.19886988411333795 -0.089547560125943657 -0.75640912093298995 
0 0 0 
-0.55456778956908925 -0.62657266955501967 0.96243629805421449 
0.52161074221609072 -1.8947140946033034 1.0357879908320236 
0.93832786863274587 0 -1.0282346854210873 
0 0 0 
0 -0.052434680465464151 0.26866802369464121 
0 -0.052434680465464151 0.26866802369464121 
0 -0.052434680465464151 0.2686680236946411 
0.6921941617484404 0.46452642576144315 6.7654215563095477e-17 
0 -0.052434680465464151 0.26866802369464121 
0.65026003951933586 -0.66863308226086804 0 
-2.0827380162887383 0 1.0824569317476944 
-0.68990376092829209 0 1.5605474620869464 
-0.30318261505876221 -0.10335775016850519 0.44640278701429215 
0 0 0 
-2.5026466574072836 0.63108160575725103 1.7154922178015821 
0 0 0 
0.10687259824698049 -1.3138210984044119 0.49272134195766515 
-0.34876218789607893 -0.25051605319842807 0.10618184687033114 
0.031543401184187539 0.3158449445563028 -0.036200393634712238 
0 -1.7347234759768071e-18 0 
0.17845634036401564 1.0616935193135366 -1.789647223110969 
0.17845634036401567 -0.10853439687306551 -6.9388939039072284e-18 
0 0 0 
0.56729453486101511 -0.24950359139115644 -0.0068863282490504909 
0.17845634036401567 -0.10853439687306546 0 
0.1926483258099719 -0.33315358046932664 0.17330220742759955 
-0.20674333343298137 0.37391029320791747 -0.24569272548845991 
0.17845634036401567 -0.10853439687306546 0 
-0.25488602812173111 -1.5589952804772196 -0.035552599011527318 
0 0 0 
0 0 0 
0 0 0 
0.0076010129933144176 -0.70359266826361688 0.043076917471824357 
-1.8009853035354519 3.1606519663387171 0 
0 0 0 
0 0 -0.0045216782864763811 
0.80408045161433783 -0.64387613959382295 0.09291748901351285 
0 -0.065230975050731832 0.26467071500771261 
0 0 0 
0 0 0 
-1.3438205253496562 1.602925892807423 -0.45046120707720311 
0 0 0 
0.60171142621123697 -0.63997888940154513 -1.3043864646611454 
0 0 0 
0 0 0 
0 -0.44411334047083989 0.040652953223665092 
-1.0417870690039133 0.85653319179604337 -0.0027263628378710208 
0.0020997485345289309 -0.19421834629587492 -0.0047982107033657066 
0 0 0 
0.51931814369651219 -2.198691584242531 -0.1128352729401727 
2.6020852139652106e-17 -0.25715390030168078 0.17674927175972899 
-0.50405126354047214 -0.031408946858085221 -0.072326348946002331 
-1.7347234759768071e-18 -6.9388939039072284e-18 0 
0.53883382425630733 -0.42206811589390514 -0.8071214283706154 
0.053842377217920206 -0.093906607952729412 0.41501269548314185 
0.95274734934741168 -0.58784435909015709 -0.27385852716446246 
-0.77979278558158016 0.074603327537276054 0.82030355373311159 
0.55769229968761058 0.20534465204959362 -1.8370578106232285 
0.64044938529670059 -0.0044097350137249358 -1.3204729699516375 
-0.35842934924691494 0.47655733377505133 -1.322515367106857 
0 -1.0408340855860843e-17 0 
0.35827659946222778 -0.6296068474645935 0.23302104917046645 
-0.7225063814445486 0.011621418565503618 -0.1979710728088675 
0 -0.98885204198830112 -0.37006144165404598 
0.476452290780572 -0.77978457164867598 -0.65371016278867655 
0 -0.18033865729798007 0 
0 0 0 
0.32050458011098681 -0.055185282750706201 -0.4388553720637165 
1.0208179486954281 -1.1111636879913918 -0.98432369775809414 
0 -0.27848835548024337 0.13209110753027026 
0.35103511411074251 -0.095589604153143812 -0.065900703256592683 
0.24584332828180411 -0.15350516108363882 0.46611773375220705 
0.45238711066575304 -0.95749334665210339 0.013941750938915327 
0.90298835424683987 -1.0660501702889711 -0.56499012368854329 
-0.79484099258956686 1.6091706302377855 -0.50520774953248482 
0.67099095828580568 -0.12412793527783528 -0.54030484676125434 
0.02808664484072319 -0.58396440456642984 0.95181624308039459 
0 0 0 
0 -0.17569741699311642 0 
0 0.28796652193274425 -1.1620096293395372 
0.39806649572773906 0.0073849869040732222 0.6341456517962083 
0 0 -0.2389051901755791 
0 0 0 
0 -0.17569741699311642 0 
0 -0.17569741699311642 0 
0 0 0 
0 0.4122580539292407 0 
0.35222221048109159 0.21695954563889458 -0.11815024006660856 
0.39709588683274877 0.90783499542805102 -0.7012666018316932 
0.52076920333061505 -0.66145835736796255 -0.21212381223007828 
0.77663896492597795 0.8543043185963658 -1.751168736642478 
-0.70533819459427693 0.8950188703333346 -0.43719977564018475 
0.017603055134474601 -0.13129692146847444 0 
0 0 0 
0.11849165736638052 -0.32776914452183403 0 
0.18077457744716022 -2.2551405187698492e-17 -1.503440887749742 
0.11742618538835607 -0.13195469231646617 -0.087530630220181413 
0.094097374378008525 0.22958920802122681 -0.30833893547728047 
0.094097374378008511 -0.13195469231646625 -0.21950771594110496 
1.2445254936748635 -1.5221600802492512 -0.2932167336572763 
-1.3877787807814457e-17 0 0 
0.1720722558635438 0.42874473571431926 -0.74561978182660238 
0.51192684238702779 -1.8587915240268138 0.024116746611564682 
0 0 0 
2.0925101928970236e-17 1.0433876796309938 -0.21578548490849361 
0.59049245536339712 -0.30619025598694072 0.15487411066714574 
1.4204519508543627 0.29651024834654183 -1.9201032499317301 
0.3205281971402727 -0.67120449403603 -0.2493835597600868 
0.40097868156366356 -1.4963177387148474 -0.065894898961768908 
0.98015529007734681 -0.37160582582018337 -1.3442527016072552 
0.65214922497185956 0.55798743471690782 -0.7352916419178932 
-0.17371831340519284 -0.055052571170803144 0.0057817943707186292 
-0.30706303148854147 -0.11344091392953705 0.7735890725399035 
0.032809964587897866 0 0 
0.43616158183946385 0.87570899908800748 -0.30060857812179792 
0.79543420274654941 1.0974482569504382 0 
-0.28815466406346146 0.093009772107996339 -0.27291855144827171 
0.34565810044472506 -0.46025303951697516 -1.0838214053764204 
3.4694469519536142e-18 -0.13638876924864088 0 
0 -0.13638876924864088 1.0469120646184793 
-0.14539497502280818 -0.012466200121456555 -0.21601347496128098 
-0.068749739331379914 -0.18706827992762692 0.68462189298305443 
0 0 0 
0.68450699531032433 0.090116522906331098 -0.040168327249595639 
0 0 0 
0.34387724554283905 -0.089829387551620482 -0.44448435067929171 
0 0 0 
0 0 0 
-1.6145350169925514 0 1.100752594654925 
1.0408340855860843e-17 -0.49197058308443814 0 
0 0 0 
0 -1.5612511283791264e-17 -0.071212236372242679 
0 0 0 
0 0 0 
0 0 0 
0 0 0 
0.0046156145004166366 -0.019559517301823672 0 
0.83879681029122621 0.00021756857535791888 -1.8014516882690312 
0 0 0 
0.34739007653963178 -0.7880830786776658 1.3067018600001918 
-0.19428149852343901 -0.064139472952962392 -0.44418176145519639 
0 0 -0.48129360993092779 
-0.27733054584412853 -1.283802452307091 0.1944331077949224 
0.44334834909469761 0.27929320579113892 -0.67036130702295116 
0 0 0 
0 0 0 
0.11310147089090626 -0.057060807931417573 0.092789881119149153 
0.53696526195641803 -0.29757705936977386 -0.6272049598466376 
0.30816684607816003 -1.4964629649981325 -0.11070969121258475 
0.001306511913547085 1.2754395076741163 -1.426138571041093 
0.1797388028995659 -1.1787994513572935 0.51785072348683092 
0.21293140051230064 -0.34380168487373342 -0.035820245048874946 
0.74770888715646588 0.17819736939850622 -1.9379646429085406 
-0.14618228861514221 -0.58184008633069295 0.64114472832167013 
1.3877787807814457e-17 0 -0.2033564995938911 
1.7347234759768071e-18 0 -2.010995131694691e-05 
-0.12847423018555884 -0.37075321111204601 0.06633038534467349 
0 0 0 
1.7347234759768071e-18 -0.31920728040317609 0.21327677339474563 
0 0 0 
-0.15237507662855199 0.24403651370358612 -0.21024312816426433 
0 1.9127537574160141 -0.56461757470024954 
0 0 0 
0.1465851773876207 -1.3877787807814457e-17 0 
3.4694469519536142e-18 -1.1248597539537109e-18 -0.37017718104770814 
0 0 0 
0 0 0 
0.69445832810534225 -1.1602136425804572 0.29270140518442767 
0 0 0 
0.6561840072684153 -1.3124653995472895 -0.75134125043752287 
0.064504584613720717 -0.50072026009328374 -0.15984866865581029 
0 0 0 
0.062522419640085439 0 -0.35292861160454281 
-0.030905539411050974 -0.35120215743652716 0.31556724363544281 
0.24039910498135966 -0.40409116755776453 0.29001741622858984 
-1.3877787807814457e-17 -1.7347234759768071e-18 0.58717032914753731 
0 0 -0.028640930353162532 
0.71429056069268526 0.33232620265890078 -1.2893774988739659 
0 0 0 
0 0 0 
0.11245564037692547 -1.1303290217544175 0.89734874053547553 
0 6.9388939039072284e-18 -0.54317228341398438 
0.91582603071630608 0.060006230580597508 -1.9767488292469688 
0.046562161198188727 0.26183936572476441 -0.4644275769703532 
0 0 0 
1.2693607281234041 -0.30184271339106883 -0.91364853102503529 
0 0 -0.21600110394781319 
0.10904141248319101 0.35349120590292488 -1.4521847131568695 
0 -0.14227028782615833 0 
0.20273848787647086 -1.185075531075257 -0.038008175303780055 
-0.52334982950925957 0.43047262229410321 -0.20372407123478986 
0.97284202358906935 -0.6790938408402748 -1.1417474983295803 
0.22370109842740071 -0.022197799229466238 0 
-0.061445431210126633 -0.090067639990191684 -0.16940196931752982 
0.29087719522382471 -3.5705577553047005 3.4694469519536142e-18 
-1.424485675493675 0.83004086181823655 0.039789679851185061 
0 -0.2581189140462804 0 
-0.34409430591772611 1.7600863880585527 -1.0499501157848747 
0.011571103621443349 -1.9006926316540644 0.29302114631041765 
0 -0.2581189140462804 -0.41099280969027163 
0 0 0 
0 0 0 
0 0 0 
0 0 0 
0 0 0 
0.024235385557799683 1.1268473738777394 -0.17238361368382318 
0.31833065599246557 -0.39815758035351467 -0.37435716014915166 
0 0 0 
0 0 -0.066348773111608875 
0 0.20812630669420437 -0.066348773111608875 
0.90822492684993839 0.076981181248986369 -1.3369197305198959 
0 -0.14431920646537619 -0.22161666827826287 
0 0 0 
0 0 0 
0 0 0 
0 0 0 
0.31316303904055942 0.62316169848620939 -0.50101140721671844 
0.23631930091975828 -0.62715853149478762 0.074983625467528292 
0.027768119533526842 0 0 
0.040000486412272079 -1.1943146320070384 0.31825005647298915 
0.027768119533526842 0 0 
0 0 0 
0.68961191783509102 -1.8413253919857941 -4.163336342344337e-17 
0.11993154757933649 -0.37909210087569611 0.29135401626223817 
0.018527534690486038 -2.4286128663675299e-17 0 
0 0 0 
0.72705733127195371 -0.55632869394703555 -0.25979725460075864 
0.22795118408621151 -1.0911235349206618 -0.35210878981450089 
0.47974424271284249 -0.91453778488898629 -0.85744587544706941 
-0.16527512321681223 0.66984815101271356 -0.7192309371870057 
1.1418761038581693 -0.58564927349353668 -0.16869984152772999 
1.1128365027631779 -0.43974684088422678 -0.24630843867653471 
0.39490807101154735 0.39547834242398539 -0.30357167013442232 
0.016799015478715276 -0.4988139159877607 -0.59711949108811768 
0.22795118408621157 -0.28745550712614831 -0.35210878981450089 
0.17792059801184928 0.17219690108536401 -0.078945817190794687 
1.2608151148058453 -0.2804005314016671 -0.82104698687745736 
-1.9081958235744878e-17 -0.79395770052440529 -0.13752795723311664 
0.66709151725798022 -0.72199296960426629 0.38479473817374743 
0 0 -0.66839352027822008 
0 0 0 
-0.3054075182511386 -1.9627787286818006 0.75635071383555119 
0 0 0 
0 0 0 
0 0 0 
0.26270296850705144 -4.2067044292437572e-17 -0.15826460235519518 
0 0 0 
0.18176794029364693 -0.96960425584751742 -0.10112779709383414 
0.070144384298435863 2.7755575615628914e-17 0.57227222449026494 
0.67991899850731863 -1.4846799884791204 -0.19324149811556809 
-0.91655992695019906 0.11913080933616359 0.57405679505113438 
0 0 0 
0.11433196966613969 -0.86890402220068297 0.7498171567142824 
0.026843675835778055 0.69178228374066186 0.95663181397974473 
0.83127999043384471 -0.39999422707202203 -0.62576401823782812 
0.30815214017517489 0 0 
0 0 0 
0 0 0 
0 0 0 
-0.32988462872862506 -1.2177176150817512 -1.9428902930940239e-16 
0.1474640555272258 0.090480393211872789 0.069071883101323978 
1.3865966158722727 -0.49257545791376228 -2.0071943451602561 
-0.089936908401206703 0.86095908488144279 0.029976083234597443 
1.7347234759768071e-18 -3.4694469519536142e-18 -0.15661018570523322 
1.7918138554151177 -0.4061828751763496 -0.82642711478788389 
0 0.63642832840163344 0 
0 0 0 
0 0 0 
0 0 -0.042523785956663299 
0 -0.33297507794113235 -0.042523785956663299 
3.4884204899721105e-17 -0.19644021048580307 -0.21304128211761125 
0 0 -0.042523785956663299 
-0.55933807506042066 0 0.56641074121405866 
1.7347234759768071e-18 6.9388939039072284e-18 -0.042523785956663299 
0 0 -0.042523785956663299 
0 0 -0.042523785956663299 
-3.7974181091304793e-17 -1.3885787564035827 0.79862231372648596 
0.035084275701055989 -3.4694469519536142e-17 0 
0 1.7347234759768071e-18 0 
0 0 0 
0 0.69418105952442022 -0.36853985465576367 
0 0 0 
0 0 0 
0.27958728549970419 -0.75750204845612723 -0.65860431861398749 
0.42108542505160568 -0.21722649969155308 -0.25724022257703444 
0.26488888218599083 0.30098074653187595 -2.2234498299810661 
-0.084162330444021688 0 0.1536817371098696 
0 0 0 
0 0 0.36144354703725601 
0 0 0 
0 0 0 
0 0 0 
0 0 0 
0.16860749242642559 -0.020996764445312326 0 
0.38596490500249292 -0.5611513400555671 0.0095792516977629902 
0 0 0 
0 0 0 
0 0 0 
0.18918190140099306 -0.30227561634095973 0 
0.18918190140099306 -0.30227561634095973 0 
0 0 0 
0 0 -0.035552599011527339 
0 0 0 
-0.59006882099588631 1.0408340855860843e-17 1.060052369378558 
0 0 0 
0 0 0 
0.5003827451729036 -0.10177569084176909 0.071206535780211244 
0 0 0 
0 0 -0.06533357794847694 
0 0 -0.06533357794847694 
0.40191178262910943 -0.58517660737856214 1.5024115995302032 
0 0 -0.06533357794847694 
0.063423168674960451 0.22696042298645733 -1.3427903250350215 
-0.20717760970885571 0.77410624964026198 0.22994837755675551 
1.3746198737745403 -1.1438310556936335 -5.5511151231257827e-17 
0 -0.095228491511307467 0 
0 1.9081958235744878e-17 0 
0 0 0 
0.5017602229431406 0.10862082089935175 -1.7097242259334182 
-0.76786123829828368 1.2324165730924479 -1.8031538715016007 
-0.05957024566365253 -0.4813427042918979 0.43116281185729172 
0 0 0 
0.12915822148463088 0.20567407163407173 -1.156064264403031 
-0.26190365794924764 -1.2408677731169762 -0.50155781678185674 
0 0 0 
0 0 0 
0 0 0 
0.80881870508575415 -1.6888722915136758 -0.40766647464193756 
0 -0.035889705861742276 0 
-0.26663330686426451 -0.8917914479485205 0.47186211802077638 
0 0 0 
0.2853030780457792 -0.13131362998026058 -0.1284190568159852 
-0.14893604545311598 0.55521047554409575 0.08475662055705592 
0.0069789867723130533 -0.40073438012723744 -0.51355603178374698 
6.9388939039072284e-18 3.2959746043559335e-17 2.7755575615628914e-17 
0.72321975617992929 -0.39187249212166703 -3.4694469519536142e-17 
0.040073502212289322 0.26875085007592586 0.66749163363826436 
0.53770555330255687 1.7347234759768071e-17 -0.51124620596418258 
0 3.4694469519536142e-18 0 
0 3.4694469519536142e-18 0 
0 3.4694469519536142e-18 0 
0 3.4694469519536142e-18 0 
0.31744944142243442 -0.27758781311299763 -0.033927988231623532 
0.13451706062815508 -0.15299603313104948 0 
0 0 0 
0 0 0 
0 0 0 
1.0782660188205917 -1.0841104861001374 -0.54878532730154639 
0.42390151321979502 0.78167898719873485 -0.38344517170848602 
-0.91016310410141033 0.55653370685766779 -0.66465137508193939 
-0.42782692100652836 1.1674119919551069 -0.7235230827600756 
-0.40757945011858543 -1.5794471590126558 0.26739083664377139 
-0.78076690855686892 -0.65130553997098506 0.43986800425806177 
-0.028724343243413157 0.064298794731141085 -0.41082603060510359 
0 0 0 
0 0 0 
-0.57335151272280127 -0.64588900983067199 0.74985731647536269 
0.1954407763404257 -0.76011552900053692 0.33128276524164113 
-0.58711387621831723 0.39129328115268491 0.50822815396592469 
0 0 0 
0.22271089507996691 -0.067773558472189549 -0.31572900369319601 
0 0 0 
0.4765706192941479 -0.41914710210858835 0.28026780341744134 
0.91374809067531726 -0.077848668121011433 0.38092350199857483 
0 0 0 
-0.077569473987800855 0.41896544726150259 0.19893536359067587 
-6.9388939039072284e-18 0.032178048774254626 -0.36662061417902286 
0.61988643011877842 -0.52293153678644377 0.18652514536745252 
0 0 0 
0.21998629400880518 -0.16610298748368932 0.21854866445212179 
-0.16610833862390892 0.13475795409771035 0.15988959266759326 
-7.3725747729014302e-18 -3.5561831257524545e-17 3.4694469519536142e-18 
0 0 0 
0.029024340197524385 0.41816313101432967 -0.13610223560392945 
0 0 0 
0 -0.042806139718363292 -0.10690480989461494 
0.42622355422469116 -0.43366460340418633 0 
0.25769445072920705 5.2041704279304213e-18 -0.44778349497003228 
0.63349953684657623 -0.4555577503393482 1.1128023230696236 
0.14065764534226494 -0.088414159448225671 -1.0257513440429058 
0.27958041469119288 -0.34901624890127814 -1.0993713856605944 
-0.010966030444772887 -0.92156293788845522 0.38282155145691477 
0.5029853078754063 0.28699326469757619 -0.72209764382060482 
0.40884983130826608 0.31640919813596752 -0.96503922416454757 
-1.3380834826213557 0.39943069908429585 -0.12481163920989521 
0 3.4694469519536142e-18 0 
0 0 0 
0 -0.18465197353515483 0 
0.011778345960525363 -0.066268364976024952 -0.19040468072421113 
-0.12374754886038652 0.41134246350979808 -0.086770924410417768 
0.65238186992917213 0 0 
0.28656089247103178 -0.59102918672315241 -0.77085888228813382 
0.16337108061837816 0 -0.19365120207323194 
0 -0.69092168249790509 -0.041491545090061699 
0.50261050334881763 -0.084502554469050653 -0.37920268062174034 
0.4477300859568234 -0.82286144264548722 0.0052872570931842677 
0.39278098611657147 -0.1398337327103531 -0.19365120207323216 
0.39278098611657147 -0.31398485758668992 -0.19365120207323183 
0.0079349166121354762 -0.68070769456712954 0.071019512934480694 
0 -0.32849561171275932 -0.1486735226533219 
0.34127269770270496 -1.8375850763562851 0.43616620132930811 
0.34042462043372218 0.14544937198002889 -1.112828843542462 
0 1.7347234759768071e-18 0 
0 0 0 
0.0051994343440445595 1.6816310695588421 -1.4515961411249421 
-3.4694469519536142e-18 -0.94021716166687441 0 
0.25615546000165823 -0.4651570856038616 -0.30063827080706496 
0.67792302134037696 -0.51999753479788269 0.092369273542804248 
0.21554869037975694 1.1248678790601394 -0.51690270069969602 
0.41171154110788594 -0.58778856153458481 -1.4037535089171347 
-0.96215644414912604 0.81313653614839487 0.90845729975700173 
0 0.40761134173899594 0.7910883336316118 
0.14919441407089434 -0.39430379318351277 0 
0.16109063212100758 0.1773385726482061 -0.37786409964500678 
0 0 0 
0.03669018265029543 -0.3869489975355036 -0.33524156486407852 
0 -6.9388939039072284e-18 -0.25615638728927032 
0.36687383401395202 0.18966875745330994 0.10772872520379945 
0.58942078011064114 0.75673873091947486 0.23086920430554494 
1.3877787807814457e-17 -0.61944782996773184 0.36394094790604947 
0.8382925918268217 -0.19131848475930222 0.34342357744834945 
0 0 0 
0 0 0 
0 0 0 
3.4694469519536142e-18 0 0 
0 0 0 
0 -3.1639362630004033 -0.0077454365604486984 
0 0 0 
-0.19772088646816596 -1.0004918981738198 0.017886219156500016 
0 0 0 
0 0 0 
0.50828525355420484 -0.33931634047580711 -0.3990462412567517 
0 0 0 
0.20297069189432179 -0.68420380346213117 -0.83626264863313826 
0.38474440812820765 -0.86019590814607305 -0.54957890219334382 
0.095597004396567611 -0.12240406650378799 0.14806432076842718 
0.32656928531630436 0.5798713881839993 -1.6486913696216525 
-0.4318934479112197 0.82454493527213302 1.0722732105272335 
0.32193020915841775 -1.1358109294116687 -0.94382650955382341 
0.29751866479878142 -0.23584004810331524 0.22997752212563258 
-0.72165395644732211 0.13466874410438062 1.3637729711115947 
0 0 0 
0.22065061758457349 0.39490300426121755 -0.37761722054611774 
0.54000759117079056 -0.88831522664998752 -0.07315798695570376 
0.24604743560552522 0.24511947394720149 -0.56141076330374484 
0.12522698599620499 0.74007606969457174 -0.65423413586011325 
0.12522698599620499 -0.90178599405210036 -0.58532715325851181 
0.057849136707074394 -0.56232650994352507 -1.7347234759768071e-18 
-0.1553060855229916 -0.38689185646480123 -0.056170037561496883 
-0.12563746507177806 0.1555932024119504 0.23191207821459625 
0.60677922895020531 -0.18312101751235269 -0.19869112925121349 
0.21089793734373416 -0.023806742780451914 0.41501556752293101 
0.37356154713730116 -1.0969178677705542 -0.33378791426023713 
0.051508288413866066 -0.41690163970555988 0 
0.91816173320466021 -0.69512953189003912 -1.1081933602300995 
0 -6.9388939039072284e-18 0.19387130223397203 
0.37909101840107318 -0.33016967900645999 -0.051471693515933406 
0.2014072221450233 0 0.070730550170562012 
0.21411403904496906 -0.38582973027988432 0.052289916171412237 
0.20140722214502327 -0.065062843259280315 -0.48450652948216599 
0.17827836640311143 -0.0017404550429485077 0.082665418594258133 
0.21181793237262028 -0.18028447195669492 -0.090204397341379763 
0.20140722214502327 0 -0.48450652948216599 
0.0085880455180090964 1.7347234759768071e-17 -0.31700228738221098 
0.16216722947612069 -0.33711602513940581 0 
0.10282614946872334 6.9388939039072284e-18 -0.20801766224935789 
0.0085880455180090756 0 0 
0.008063990774041031 0.33782841969344329 -1.6193008460459948 
0.0085880455180090756 -0.9052291213428737 0 
0.0085880455180090756 0 0 
0.55500285009846584 -0.77342828745200065 -0.11751200131273126 
-0.43608397871936538 0.32037429996016065 -0.56328132808631659 
-0.12213167839786195 0 -0.073985876890828361 
0 -0.79931585709477115 0.17712512915803724 
0.0032040964156869666 0.064942575007150047 0.32995948165334871 
0 0 0 
-2.0816681711721685e-17 -1.4584757365261081 0.1630937753204538 
0.36004826920265404 -0.32227180588756782 -0.2388237272129442 
0.42350363233602034 -0.60334996026734244 -0.030962057353034759 
0 -0.049193288924951624 0 
0 0 0 
0.11326774611614525 -0.44490283995021507 -0.20993901753786093 
0 0 0 
-0.062824647855382373 -0.31117250492376686 -0.04898749887909417 
0.75658807230342517 0.68639017011901626 -1.2311561811600256 
-0.42197381127275824 0 0.89393619569678617 
0 -1.5031052628945074 0 
2.7755575615628914e-17 1.3737788424544271 -1.1750422310228466 
0 0 0 
0.42054972155655357 -0.015895118907775702 0.019363624933344394 
-0.014059795292956756 -0.39400113679213022 -0.10818710822431775 
0 0 0 
-0.62895736386626633 0.17139220192316118 0.35073847315053341 
0.76647367339053885 -0.92134752062077041 -0.66128002870418701 
0.27988207827769257 0.13532182488507094 -0.33775514984938271 
0.12246381295150824 -1.0792408273337075 -0.1283546687412602 
-0.056930941684546342 1.5460099236671692 0 
-0.57446089394083566 0.54235442664159228 0 
-0.57446089394083566 0.3630781610929551 0.090276452037536092 
-0.57446089394083566 0.54235442664159228 0 
-0.35673206386156719 0.36348670171248015 0 
-0.57446089394083566 0.54235442664159228 0 
0 2.7755575615628914e-17 0 
0.47981783757159374 -0.1611975181243499 -0.60151498251780977 
0.16200310435524998 -0.16975139222738247 0.24367818525015605 
0 0.19643388721591143 -0.42553804809344326 
0 -0.42686700749351159 2.7755575615628914e-17 
0 0 0 
0.92292335414308402 0.29209893636945738 -1.0019670225515886 
-0.94676594359595834 0.15950188504992255 0.99599763694723287 
-6.9388939039072284e-18 0 0 
0.097520356179729303 -1.3841361410230493 0.3162439551631252 
-0.37766116150433221 -0.74878880962465622 0.49885317120934725 
-0.012095121727394131 -0.17569891074536287 0.54512833905494973 
-0.89248738353746415 0.92417724822939251 -0.35465453277388759 
-0.31691190190880891 1.0369209214333666 -0.31811970000648498 
0 0 0 
0 1.0237565217704707 -1.407998522886093 
0.48527075286898069 -0.95224859174935028 -0.75886827096645015 
-3.4694469519536142e-18 6.9388939039072284e-18 0 
0.81237381854537349 -0.079485128426377186 0 
0.018359002341291716 0 0 
0.018359002341291709 -0.53161825457004674 0.5903336082266557 
0.018359002341291716 0 0 
0.018359002341291716 0 0 
0.018359002341291716 0 0 
0.018359002341291716 0 0 
0.025660574792052127 0.015834916381481073 -0.45023327063345264 
-0.50043443849290636 -0.28153000227780789 0.58912195653969934 
0.025611069846249838 -0.085029658629966268 0 
6.9388939039072284e-18 -6.9388939039072284e-18 -0.26172190415185154 
0 0 0 
0 0 0 
-1.3877787807814457e-17 -1.563319275359863 0.55076416734026579 
-0.05582530927717886 -0.53710742234521658 0.56979504048723273 
0 0 0 
-0.028214515609378266 -0.012631102298162666 0.050590895622062315 
0 0 0 
0.19422139702523702 -0.36676865531712216 4.163336342344337e-17 
0 0 0 
0 -0.41812247710971662 0.63033035879011012 
0 0 0 
0.3201486614809716 -0.27343147456791944 -1.169732297497114 
0 0 0 
-2.6020852139652106e-18 -0.24932999739180264 -0.70968980639646362 
0.029837416688686298 -0.36419161120775195 0 
0 0 0 
0 -0.30744839678486602 0 
0 0 0 
0 0 0 
0.83732968730488189 -0.70827971862097017 -1.0139407623566346 
-0.23487193450113811 -0.41338502661883403 0.39800966605862037 
-0.23487193450113805 0 0.51665442743081569 
0 0 0 
0 -0.072460941474293231 -0.08880524281897817 
0 0 0 
0 -0.19301985548831274 0.49638376716523647 
0.43259768698442735 -0.05947323442957797 -0.67282493856938719 
0.54414162000788291 -0.36617822948572887 -0.052957990478310984 
0 -0.11327616743443204 0 
0.51192677295886446 -0.11327616743443204 -0.27807218856479704 
0 0 0 
-0.57434419163573303 0.60981808898863443 -0.14905958005754849 
0 0.92440294750459007 -0.52602699285893639 
0 0 0 
0.78953469296653433 -0.71181293645911325 -0.73727135289599466 
0 0 0 
0 -0.33702521754737186 0 
0 0.61300468020866172 -0.24769222286032788 
0.76656222396659135 -0.30770811722211061 -0.5443956497436433 
0 -0.44345370272748674 0.0057933890471810745 
0.20881211873361366 -2.5054538918322864 0.89702284397891308 
0.44845163041672181 0.40890743336798924 -0.61880816175737707 
-0.083159274901406621 0.32805690305283858 -0.70066647758309719 
0.25350048579008011 -0.16479821361666175 -0.64576194130352327 
-0.0062045212240087024 -0.17617003526650687 0.54003637478887656 
0.68118534931899455 0.28858541000649762 -1.0141336226536513 
0.018554406621642663 -1.4117038055123055 1.28047417863394 
-0.4124717954069283 -0.56582786292935316 0.1694343479914813 
0 0 0 
0 0.46627170957347064 0 
1.2569806978993749 -1.0408423523532107 -1.1032987867798771 
0 0 0 
0.41305652066758214 -0.48052439428135163 6.9388939039072284e-18 
0 0 0 
0 0 -0.38585300486837582 
0.015622096369296963 -0.39131597593053946 -0.35140057315743589 
0.082674820292394369 -0.38427480742199255 -0.14075154601064224 
0 -0.11260976186939023 1.203417962894314 
0 0 0.3395625347760961 
0 0 0.3395625347760961 
0 0 0.3395625347760961 
0.3928856604251052 0.24010634593666944 -0.19208691116330459 
0.24009427024299435 -0.0024264809171310221 -0.18562551796749283 
0.59926912162239299 0.59065512374453144 -1.1295666598850076 
0 0 0.3395625347760961 
0 0 0.3395625347760961 
0.33991010030173474 -0.35348296863354528 -0.01367019901106787 
0 0 0 
-0.086989241236237816 -0.023293997647422588 -0.0063850245302797641 
0 -0.35561797966836406 0 
8.6736173798840355e-19 -3.4694469519536142e-18 -0.03931753687105561 
8.6736173798840355e-19 -3.4694469519536142e-18 -0.03931753687105561 
8.6736173798840355e-19 -3.4694469519536142e-18 -0.03931753687105561 
0 0 0.27289917517395956 
0.20696535134950972 0.66601718189425529 -0.024628297021081429 
-0.2661733880404229 -0.03669273228562682 0.65052697891372335 
2.0816681711721685e-17 0.18467517217098328 -0.2034303610473375 
0 0.11091848849536705 0 
0.053123413505445111 -0.15493118101753756 -0.067835054073299483 
0 0 0 
0 0 0 
0.52860934217811373 -0.29194314351244033 -0.1679673760536661 
0 -1.7344948574408514 0 
0 6.9388939039072284e-18 0.54337064997504614 
0.020543678653832539 -0.21546026500170659 -0.014231385563898441 
0.21212033974650052 -0.23295823576742453 0.1594840300474111 
0 -0.07793457789785696 0 
0.4802119980185473 -0.17939232764506097 0 
0.29109772003339796 -0.23809345922958855 -0.41440291059012635 
0.011529838923600939 -0.11847581117811731 -2.7755575615628914e-17 
0 0 0 
0.089713219584607526 0.26725364865519102 -0.37427798237699028 
-0.43336773304591525 1.5063406083740887 0.027402388679167201 
0.56859155728954136 -0.53191483222349567 -0.2770193187617781 
0.41908939126331574 -0.98393921100389492 0.51280895755523981 
0 -0.31457182902894348 0 
6.9388939039072284e-18 -0.31457182902894348 -0.31667516261042677 
0.44166576289771931 -0.61602160594612365 -0.21600110394781322 
-0.47331700471919075 0.62463951461580747 -0.83998579944907015 
-0.99631273721175984 -0.6518936079895713 1.012310527017072 
0.030734258821281502 0 0 
-1.0408340855860843e-17 -0.13619364782734034 -0.76458795696334592 
-1.1623850726139782 1.2036574086354737 -0.042315467014644732 
-0.18555685439618946 -1.011862492750252 0 
-0.34058391264472604 -0.48683435102315159 0.13939582659910379 
0 0 0 
0.019042692451888485 0.92821114780302239 -1.7160699933134067 
0.18533655584880265 0.17493702367343836 -1.3986775767891295 
0.019042692451888481 -0.060342551532635187 0 
0 0 0 
0 0 0 
1.024739771687782 -0.16216718020575721 -1.9307385366255918 
-0.029455941923305726 0.50282715146668289 0 
0.14540362692639885 0.074267660556351756 -0.84422060295417256 
-0.029455941923305726 0.502827151466683 0 
-0.029455941923305726 -0.10460242156645472 0.27030937164702479 
0.36296305865030892 -0.07652790699647774 -0.033062919405851078 
-0.40449406529962684 0.40627801493807209 -0.29374949068949302 
0.2531895679540907 0.71408505833430669 0.028961290293938707 
0.68745769136110946 0.33088214680658218 -0.73847480917619257 
0 0.12918094520453563 0 
0 1.4384216263965457 -0.20086002657591667 
0.29357585242611323 0 -0.25419251162896273 
0.2687515684260664 -0.47049741081320129 0.40091873088701585 
0.73055962987049194 -1.2336833779876457 -0.57140282628458183 
0 1.4702489982242599 -0.085691897535228587 
0 0 0 
0 -0.16407152686343363 0 
0 -0.42228458084172532 0.2380818869455936 
0 2.4640890567913427 -1.7780915628762273e-17 
0.41249452821855515 -0.67427963177638128 -0.038112075886013924 
0.232136289174669 -0.0019680157198293941 -0.3522101571074428 
0.049185668798260224 -0.93291216636422536 0.82065911300872429 
-0.079256623049087108 1.6405276934877633 0 
0 0 0 
0 -0.012821670953440639 0 
0 0 0 
-0.084162330444021771 -0.34970204320035408 0.1536817371098696 
-0.52213994196560132 0.52265124968397025 -1.5006724948390795 
0 -0.55156090438113858 0.55752198151618659 
0.03188424207966379 -0.17101478814196991 -0.98750618161162951 
-0.59802294840565329 6.9388939039072284e-18 0.55682036278444613 
0 -0.4541641840785261 0.25179835788927685 
0.10921861315459616 0.4565909743810877 -0.038126249606197399 
0.2422970362829161 -0.891303578736233 0.48625854450403999 
-0.82490266986964245 1.0966645948801876 -0.38281559761686201 
0.2229001904803159 -0.29041341238492152 -0.35340643179704367 
-0.56355035803448006 3.4694469519536142e-17 0.60133417301012482 
0 0 0 
0.1096820349078039 0.55757320281077605 0.27473171348463971 
0 0 0 
0 0 -0.1173900428340215 
0 0.012639877171355523 0 
0.25197989263154408 -0.17366669145033412 -0.96153591955905071 
0 0 0 
0.36421920109326145 -0.8415344664512624 0 
0 0.67259006659734588 -0.1786012068482761 
0 0 0 
0 0 0 
0 0 0 
0 -0.064139472952962337 0 
0 0 0 
1.1384585272019461 -3.7070316465509423 -0.088014303336009903 
0 0 0 
0 0 0 
-0.2772506804820421 -0.23003067915419273 0.086739413482131253 
1.214306433183765e-17 0 0 
-0.26393901377748424 0.33702285150048766 -0.0074453770409419334 
0 -0.38931231973079455 0.11876506636004656 
0.82360407561725169 -0.13640830220992467 -0.15938699559003811 
0 -0.39039306021135117 0.75270231245917285 
0 -0.83243949550462348 0.46946477586021051 
0.85776224033831805 -0.72620917698286314 -0.52940172729153845 
0 0.49174158328767614 -0.61977720491734556 
0 0.49174158328767614 -0.61977720491734556 
-0.16070564774632856 0.83931576886029946 -0.64479190905586603 
0.28967715609341643 -0.71725067226986772 0 
-0.13381732297470619 0.17189739305537916 0.26528643442102007 
0.21522618959630754 0.013456566658616748 0.0032845392147923258 
0 0 0 
-0.12285241621603313 -0.22076999423499111 -0.082919785991630149 
0 0 0 
0.061060123586334739 -0.0022704488436097034 0 
1.0632893130172432 0.35890524928313883 -0.51070371273934878 
0.17723942799561682 -0.92216731535130603 5.4643789493269423e-17 
0 0 0 
-0.39412432183816437 1.1796119636642288e-16 1.2062943176403869 
0.32468334524303238 -0.35826243992362805 -0.50820615450080031 
0 -0.15310140271527387 0 
0.20624761978921963 -0.71832879209136236 0 
0.37869104126599906 -0.48203204845711356 -0.10508261882273798 
-0.67376961639222932 -0.59262390275766774 0.12203378208430293 
0 -0.15700590245879309 0 
0 -0.15700590245879312 0 
0.072855492231911345 -0.1438918486784479 -0.276386849309535 
0 0 0 
0 0 0 
0.10172549041083341 -0.08006922320491397 0 
0.10172549041083341 -0.08006922320491397 0 
0 0 0 
0.10172549041083341 -0.08006922320491397 0 
0 -0.25173301998114539 0 
1.1781404475623942 0.18971707935689669 -1.3516607068956692 
0 0 0 
0 0 0 
0 0 0 
-0.60312900904847322 -0.43233710255676094 0.43094958281591372 
-0.74432493548164169 6.4184768611141862e-17 0.45115729961589995 
0 0 0 
-0.0047181022112099819 0.1157143055608485 1.4236668439576112 
0.2119285768391545 -0.43730767610327842 -0.40918951565656014 
-0.42731519387955008 0.56247897658758172 0.51211092633150201 
0.31921251506192083 0 -0.88843322234251421 
0.034928111239863426 0.32153530246808237 -1.3877787807814457e-17 
0.5821278094936071 -0.12486663049872129 -1.1764629279810481 
0.18163710435917008 -0.49152032271296919 0.48275426452300541 
3.4694469519536142e-18 0.19835922657534943 0 
0 -0.1320914799567364 0 
0.07719575323327893 -0.48543441581021068 1.1406934292813597 
0.6169761288150728 -1.3638671818213917 -0.051855390453529562 
0.64436019221417218 -0.17730587607163334 -0.23011349365733075 
0.11868818910019449 -0.7401292429584222 0.77200945718189029 
0.79312779061131966 0.19746973413797253 -0.80275047068062466 
0.014916483452103913 0.7532133397813825 0.26679533968994218 
1.3166270453047493 -2.2234217482563468 0.23793111273297513 
0 -0.084040812649846516 -0.07806581101529797 
0.10761277393817587 -0.1412018457348812 0 
0.18572730751236671 -0.066748484073397257 -0.23334615193279909 
0.085200184819324176 -0.52720720629467821 0.035582626385330475 
-0.21748223169469294 0.30539227941493269 -0.85366327851473967 
0.3969368440247239 -0.11130815821866952 -0.71044261854139468 
-0.097314923365207515 0.82679166941295534 -0.97237658527877024 
0 -0.65115087531990012 0 
-0.25550527322771266 -0.37521047192024171 -0.21101032779961335 
0.27322420516056001 0.14455359570085788 -0.42878712982175232 
0 -0.6511508753198999 0 
-3.661108729742597 0.8488312401188931 1.4839949264795407 
0.61181736905352202 -0.70094036114316405 -0.085328329436528932 
-0.64718523777722647 2.2260707603849825 -1.624765956257969 
-1.5612511283791264e-17 0 1.2275827286847201 
0.26667398095395906 -0.73286341606696226 0.20183367891804901 
0 0 0 
0 0 0 
-0.5941323850156095 0.57982196164744937 -0.18486108910903593 
0.36334985995034813 -0.72613815226516654 -0.19258318826224663 
0 0 -0.2849094713724728 
0 -0.26301309284111457 -5.5511151231257827e-17 
0 6.2450045135165055e-17 1.3877787807814457e-17 
0.53158288931645292 -0.086852192250564619 -0.54816877220247529 
0.025573806138355391 0 -0.0019327186189733541 
0.025573806138355405 -1.1709383462843448e-17 0.28277134966462059 
0.13905229781629153 -0.084987509662102084 -0.0019327186189733541 
0.025573806138355391 -0.1331538818042988 -0.0019327186189733471 
0.025573806138355398 -0.099664411491552224 -0.0019327186189733471 
0 -0.28673488619118631 0 
-0.32738940782597298 0.13827266515803224 -0.086992454218073348 
-0.14881683160953724 0.016092297864141084 -0.4967085023452853 
0 0 0 
0.37731212067083841 -0.39309071654691452 -0.19857122076730152 
0 -3.4694469519536142e-18 -0.2257241995481275 
0 -3.4694469519536142e-18 0 
-1.9207995207062165 0.6655051328488788 0.32457208830634421 
0 0 0 
0 0 0 
0.23047040392779861 -0.20772445476958099 -0.11477986236052924 
-0.80617519952639594 -0.82183257011414634 0.97972812854236491 
0.17909165853919728 0.25751430237134126 0.735778195438618 
1.1204209051722303 -0.43504353714977106 -0.5348902579965209 
0 0 0 
0.0092724301542035613 -0.20984525945645122 -0.19802707588092291 
0 0 0 
0 0 0 
0 0 0 
0.61736578488159188 -0.21842138624371346 -1.0176516192879683 
0 1.2210746067575746 5.5511151231257827e-17 
0 -0.54363411032881404 0 
0.60103749432112685 -0.42948545776579533 -1.7506767773333005 
-0.29255280646667314 0.39474965692682723 0 
-0.48565862464174581 -0.88015102426228986 0.76443460816414721 
0.28967715609341682 -2.7755575615628914e-17 -0.39767117108607836 
0.23913662524993509 -0.20990500366764075 0 
0.25685677999591261 0.49269323917197605 0.036433939001428314 
-0.33436028579804339 0.15872366496152537 0.2593570723729331 
1.2254660385565406 -1.1792864822746916 -1.1128252378837831 
-0.75833846083494805 -1.0002073833285328 0.44877109338986299 
0.2272683280271745 -1.214306433183765e-17 -0.31571927269719102 
0 0 0 
0 0 0 
0.11363416401358725 0 -0.054589845923872227 
0 0 0 
-0.21039464736678093 -0.3399956555387505 0.63691181010359077 
0.4765844059851555 0.83961814256655487 -2.0550831212055529 
0.67792302134037696 -0.073749110599432122 -0.32122867242231501 
0.081571943194164082 0.22450395190832695 0 
0.081571943194164082 0.22450395190832695 0 
0 0 0 
0 0 0 
0 -0.078637280662471304 0 
0 0 0 
0 0 0 
1.7347234759768071e-17 0.66832431386460889 -1.0408340855860843e-17 
-0.41546731005560306 0.25430656769000742 0 
0.90724845179338398 -1.9942012170672243 0.71805879948708473 
0 0 0 
0 0 -0.54852078562867201 
0 -6.9388939039072284e-18 0.19387130223397203 
-0.3269166751455358 -0.97387258381535147 0.61127700231795568 
-0.001463346100516516 0.38574900349158669 0.060227067571325926 
0.15500267046853144 -0.50168901791920806 -0.047834656709080499 
0 0 0.50714002392036128 
0.67874897508729848 0.031758532976133201 -0.96945707254555036 
0.13493112670194476 -0.15895015492572862 -0.44018441837814748 
-0.0043246463935258019 -0.98126957788954328 -0.64452669888424974 
-0.45076915527393857 -0.012985995951702411 0.58963498951059057 
-0.77261744962620282 0.80793907135265153 0 
0 1.0755285551056204e-16 -0.26638886482266183 
0 0 0 
0 0 0 
0.68009827755494345 -1.0013749710696151 -0.7680341703877358 
0 0 0 
0.40918195018964482 -0.68775797027234375 0.53849505253830776 
-0.79651263808824613 2.5428524504969312 0 
0.015622096369296956 -0.39131597593053946 0 
0.015622096369296956 -0.39131597593053946 0 
0 0 0 
0.20207611971354789 -1.0513403519755498 -0.58888072679472292 
0.015622096369296956 0.25687229772840597 0 
0 0 0 
-3.1521802619501189 0.45170491799848339 1.7864677392238435 
0 -0.23162603536843868 -0.17856766292939522 
0.0007072266488849534 0.55192002752308833 -0.81173823160321468 
0.53870367144154874 -0.40488537983406714 -0.43487240238739949 
0 0 0 
0 0 0 
0.25283460028156773 -0.85039942683451786 0 
0 0 0 
1.3877787807814457e-17 -0.48994941923041441 1.1898558398006416 
0.34857607240450583 -0.11121632020827681 -0.38208648083986851 
0 0 0 
0 0 0 
0.64789977666963761 -1.2175038003281411 0 
0.52351657175252153 -0.37510303648613186 -0.46028538299674315 
0.65530652704959913 -0.66328026380272109 0.068688022498924736 
0 0 0 
-0.030227871444856044 0.05258499643623836 0.32951633444398176 
0.013462393410929738 -0.37880050218033678 0.041129788582016158 
1.214306433183765e-17 0.46090809342489436 0.12005627859939705 
0 -1.1213342077489734 0 
0 0 0 
0.031507277780797427 0.083869277457155667 0 
0 0 0 
0 0 0 
0.13657979075080556 -0.67419126940523277 0 
0.12763714284119004 1.6860885093960623 -2.2452909388534246 
0 -0.58216696173589189 0.45469944421292263 
0 0 0 
0 0 0 
0 0 0 
0 -0.01759098604763655 0 
0.29782660079996437 -0.39534954992067278 0 
0.34592221980649523 0.42030971380003501 0.32083902907574274 
0 0 0 
-6.9388939039072284e-18 0 -0.16169232336823111 
0.12750145758897255 -0.1396719469881548 -0.36331411913855904 
0 0 -0.25495752866130378 
0 0 0 
0 -0.64862653036569407 -0.36276599674706378 
0.044834788741679697 -0.76497542924650364 0 
0 0 0 
-0.063463039182583184 0.6769121438928799 0.31817886947683488 
0 -0.0025066195651440287 -0.040084665595621849 
0.050891253555210611 -0.68556626829518585 0.019378032090611813 
0 -0.2271792300263894 0.11876506636004656 
0 0 0 
-0.40258371266392423 1.5637793830633262 -0.14550414762946867 
0.00070722664888490483 -0.2271792300263894 0 
0 -0.2271792300263894 0 
1.3877787807814457e-17 -0.3302195458295798 0 
0 0 0 
0 -0.074708103251242025 -0.33731064264547278 
0 0.21753159879113104 -0.28738825290246467 
0.20226265142637953 -0.56897139512917994 0 
0 0 0 
-1.7347234759768071e-18 0 0 
-1.3877787807814457e-17 -1.3877787807814457e-17 0 
0 0 0 
0.47664460532445369 -0.1144738829923906 -1.5587848182158552 
0.31478875783977633 0.35784840216238345 -0.55268643505202764 
0 0 0 
0 0 0 
-0.02607253425599089 -0.39830972348984078 -0.047355646449681328 
0 -0.20912059184483495 0 
0.194221397025237 -0.20912059184483495 0 
0.090698870362353468 0.4790045810975998 0.34678093713769537 
0 0 0 
5.2041704279304213e-18 -0.86014230109188272 -0.20824212699112546 
0.056444709753045927 -0.00046454334385640297 -2.7107762476211574 
0 0 0 
0 0 0 
0 0 0 
0.18652617789046513 -1.0408340855860843e-17 0 
0 0 0 
0.49125646140487067 -0.03532288603777585 0.29610259973086783 
-4.8572257327350599e-17 -0.60596329950088379 -0.82127863581768024 
0 0 0 
0.62383718430882817 -0.4491114442475081 -0.59502239806775059 
-1.0626896267891943 0.69052901328226945 0.056380768284899879 
0.14877690003397473 0.14807407177093537 -0.0072768693567499716 
0.30721061019030793 -0.74928503390247247 -6.9388939039072284e-18 
0.11730692292734238 -1.3949621206832565 -0.22308781816953255 
0 0 0 
0 0 0 
0 0 0 
0 0 0 
-0.091520417730688128 0 0.22963976470353786 
0.23666287763042088 -0.40755362997191319 0.11041748390639469 
-0.087218873934737998 0.10225550508785122 0.037618968345458387 
8.6736173798840355e-18 1.0613247535005961 -0.23109254526071243 
0.37856837751125932 -0.021492490876044525 0.22193306824091713 
0 0 0 
0 -0.021492490876044584 0.63520775939393281 
0 -0.021492490876044584 0.63520775939393281 
-0.040230790139091852 -0.073259800991414201 0.63520775939393281 
0.0082670009985374888 -0.027596620935970265 -0.2187506545064942 
0 0 0 
0.090434436625025622 -0.026267833780071585 -0.35755533536354345 
0 0 0 
0 0 0 
0 0 0 
0 0 0 
0 0 0 
0 0.7511770663192594 -0.014169298194651974 
1.0650732149028723 -1.010194664511352 -0.12935617509092842 
2.5054761693000116 -3.8644581361753301 -1.2490009027033011e-16 
0 0 0 
0 0 0 
-0.36437209924118052 0.45152946760267021 -0.37188906227621316 
0.56202036172899372 -0.30945371278639727 -0.30401334769224136 
0.11586019252492402 -0.29572803657983715 -0.071794881697568522 
0 0 0 
-5.5511151231257827e-17 2.3083087943760079 -1.3148381883861648 
0 -2.7755575615628914e-17 -0.21702061657666988 
0.3433623729050887 -0.095335122065421302 0.46767149109108996 
0 0 0 
0 0 0 
0.28715657802595423 -0.16935840445118869 0 
0.14177496759255639 -0.62898714263147126 0.5479058189841014 
-0.94508918975028267 0.50857406568889085 0 
0.14177496759255642 -0.62898714263147182 -0.38892384096218224 
0 0 0 
0.12715889837174787 0 -0.34332994292969571 
0.17115065630186688 1.7347234759768071e-17 -0.46258627182930218 
0.11876922618425913 -0.39597895912484876 -1.0157186529669766 
0 -3.4694469519536142e-18 0 
0.13797910891333179 0.14005278085970008 -0.3476503974093077 
0 -5.5511151231257827e-17 -0.46092383042863155 
0.20694267735555516 -0.35422819266827449 -0.3956776734401839 
0 0 0 
0.00264680512208484 0 -0.070907879967980925 
0.45520626878742476 0.482781252317037 -0.46347209526778299 
0 0 0 
-0.19156382661347773 -0.86992214391490774 -0.35918666114698178 
0 0 0 
0 0 0 
0 0 0 
0.13433719476318268 -0.26061652822517473 -0.085621725956934652 
0.22681148729295547 0.052578501620636091 -0.64176594873131554 
0 -0.27057546954865724 0 
0.16532681374754377 0 -0.2104337716171841 
-0.14473997958314164 -0.50865225409693393 0.25091187602131709 
0.031884242079663692 -4.163336342344337e-17 -5.5511151231257827e-17 
0.031884242079663692 -3.4694469519536142e-18 -6.5052130349130266e-19 
0.031884242079663692 -3.4694469519536142e-18 -6.5052130349130266e-19 
-0.043143764464129472 0.32980036414647479 -0.37104189486069128 
6.9388939039072284e-18 -0.071688679051351165 -0.0080220986671834648 
-0.27599125873217506 1.8631023437190752 0 
0 0 0 
-4.8572257327350599e-17 0.22079644728698378 0.24137208984448327 
0.45316030876373542 -0.42695723305658312 -0.28360346776953127 
0.30149683185782078 -0.95098606048316237 -0.5091086173731163 
0 0 0 
0.48254682017839651 1.3877787807814457e-17 -0.41323863765380453 
0 -0.065062843259280315 0 
0.3662085843699725 -0.41896043221480889 0.54799660072729151 
0 0 0 
0 0 0 
0 0 0 
0 0 0 
0 0 0 
0 0 0 
-0.46998296835379333 -0.53619511581177293 1.0101707683361387 
1.0838610831480175 -4.3368086899420177e-17 -1.3837670478058026 
-3.0008278070534096 0.81160408542408002 1.2753462711932704 
-1.5593991107933312 -0.19914849578796942 3.3195584927512982 
0.019275393835799286 -1.3509661579382237 -0.14221122026399854 
0 -0.038377459860547851 0 
1.3151028166228056 -0.48981432221597554 -1.8501254680433419 
0 -0.47177730935363493 0 
0.17774248259825137 -0.15236857607400395 0.68910766693662917 
0 0 0 
0.16337108061837816 0.18467517217098356 3.2526065174565133e-19 
0.11849658425947429 0.58587996141359533 -1.6913970378471748 
-0.30976413639992839 -0.60534691031511845 0.22064589896858422 
0 0 0 
0.38845926700706002 -0.013023210573662783 -0.27861226641940856 
0 0 0 
1.0408340855860843e-17 1.5143246356966753 0.16116749488939422 
0 0 0 
0 0 0 
0 0 0 
1.1838007862134043 -4.1156974274417026e-05 -0.60899393941859059 
0 -0.21002205523088463 -0.42839095738219096 
-0.035193951464732573 -0.14559091134532715 0.089055785159428941 
0 -0.17521272625160325 0.12137208402090646 
0 0 -0.42839095738219096 
0 0 6.9388939039072284e-18 
-6.9388939039072284e-18 -0.98400565840853416 -6.9388939039072284e-18 
1.3457995727028111 -0.69586622747566951 -0.15705647203623463 
0.042752628470603772 -0.017725321005884389 0 
0.29357585242611323 0 -0.053332485053046608 
0 0 0 
0 0 0 
0 0 0 
-0.64159318431481149 0.27546534652781224 1.2381004279913621 
0.143051066831824 0.47617663756474171 -1.3877787807814457e-17 
-0.63275723579754795 0.25359325665626242 -0.18189314166688308 
0 0 0 
0 -0.7969457964489477 -0.01318967922292808 
0.018876033386387193 -0.24217133481395514 0 
3.4694469519536142e-18 -0.050702140311820659 -0.67227343349708513 
0 -0.12362610712684141 0 
0 -0.12362610712684141 0 
0 -0.12362610712684141 0 
0 0 0 
0 0 0 
0 -0.12362610712684141 0 
0 -0.12362610712684141 0 
0 0 -0.14028539350863761 
0.061984781797152819 0.19052812239381445 -0.28279950358653294 
0 0 0 
0 0 0 
0 0 0 
0 0 0 
0 0 0 
0.28666168664682523 -0.46746637981436762 3.4694469519536142e-18 
0 0 0 
0.15964782432712055 3.4694469519536142e-18 0 
0 0 0 
0 0 0 
0 0 0 
0.0050862122807865551 -0.33066396831445732 0 
0.068026504135354271 -0.36028381428417866 -0.10731029469362924 
0 0 -0.056231729048055602 
0.73718263147813734 -0.48903493051930685 -0.24967067900230125 
0 0 0 
0.11075267593717335 -0.40835159370995133 -0.048432849281446443 
0 0 0 
0 0 0 
0 0 0 
0.17152579894597719 0.51089474301924287 -0.13442896354708858 
0.17397581106433971 -0.16809830016434019 -0.38912647914310267 
-0.44991797825158686 -1.1558306496727204 -0.086770924410417727 
0 0 0 
0.2147643876415305 -0.24546906374269137 0 
0.54902881837242457 -0.71920562273094868 -0.036518785045942692 
0 0 0 
0.21130112848237406 -0.13815316563184901 -1.332456160665465 
0.20226265142637959 0.81521810011172824 -1.3072780291822814 
0.6637268938463996 -0.60302335690667097 0.30195245624141587 
-0.55859604858808876 0.45921876228031316 -0.60264946932458374 
0.6637268938463996 -0.51090040933182213 -0.063386391564632147 
0.65542007845378636 -0.083813568142779182 -0.47122019063174719 
-5.5511151231257827e-17 -0.047738920853024155 0.66796575802817704 
0 0 0 
1.4510337211246647 -0.8944079493156063 0 
-0.80079657139655769 0.83883493915221585 -0.010864693109713532 
0 -0.74704272261888138 0.18010351956939588 
-0.45688983347232731 0.80095447491459171 -0.010864693109713549 
0.071243421806190393 -0.27539509989221717 0.19387130223397209 
0 0 0 
0.0039949206424087667 -0.39728937143901089 0 
0.13258301385456012 0.11728074734048156 -0.7715522513659594 
0 -1.0340856799394416 -0.082872341724527537 
0 0.72829072477773227 -0.13233115740186371 
0 -0.1458265339352405 0 
-1.214306433183765e-17 -0.19916289660173708 -2.4286128663675299e-17 
0 -0.47370768202096375 0 
0 -0.47370768202096381 -0.0289176382260075 
0 0.68827514565302939 -0.73952512445121288 
0 0 0 
0.32461828708723128 -0.25443560113253577 -0.017670654617407754 
0.32461828708723128 0 0 
0.013102834191152411 -0.67493974095338161 -0.77109161515854285 
0 0 0 
0 0 0 
0 0 0 
-0.1827123612154925 0.84538347861712726 -0.15409532361191014 
0 0 0 
0.21850876927709109 -0.61354315394844938 -0.36492114721402302 
0 0.48362280304187627 -0.003078139509044342 
0 -0.06419232987010523 0 
0 0 -0.32928480448402414 
0.030519430619966183 -1.2160934616236068 0.39874885239720859 
0.59117490761533065 -0.60696822825308461 0.36586554313202929 
0.29323117437367652 -0.84703867584826564 0.017031318146574756 
0.017407842135416237 0 -0.62382771088949729 
1.0059427182596101 -0.59764744449191864 -0.018652672346011472 
0.22795118408621157 -0.8216599466565202 0.45674294229003681 
0.16692045488574372 -0.31473748278589647 -0.78716557000149301 
0.16957802332980063 0.26385391028575939 -0.41634574791926759 
0.44561178032515392 -1.4616879472442186 0 
0.004153701252428782 -0.62339422459115412 0.1312725280221583 
0 -0.26071708767745971 0.82009981139961319 
0 0.55475939276986541 0 
0.40120978965511478 -0.49754401308848006 -0.92018046445617196 
0.050689155187796701 1.3010426069826053e-17 -0.12947957779662461 
0 0.17015827339101974 -0.040183522742446146 
0 0 0 
0.11897543517674376 0.28358746344837671 0.018093061760702377 
0 0 1.7347234759768071e-18 
0 -0.18478633875522826 -3.1225022567582528e-17 
0.45424068810315876 0.18272460540347846 -0.1110597635656162 
0 -0.12889372896056708 0 
0 0 0 
0 0 0 
-0.29612378288535995 0.3552299748654123 -0.12737419562951593 
0 0 0 
0.059482867226986424 -0.066661297830440433 -0.11633868068722385 
0.062800571753117873 0.01333646951866042 -2.121864216330839 
-0.34446234046580532 0.5854618105613093 -1.0249331492700415 
0 0 0 
0 0 0 
0 0 0 
-2.7755575615628914e-17 0 -0.26538850808496689 
0 -0.39894401323342243 0.74692578386309705 
0 -0.1684036963666877 0 
0 1.1137840755939821 -0.27638684930953489 
-0.05714563678602147 -0.44243740692685724 0.97842986927979325 
0 -0.1684036963666877 -0.30433522643746391 
-0.091520417730688045 0.12850844886326893 -0.14975033721999068 
0 -0.1684036963666877 0 
0.50151395552063538 0.33651462580597447 -1.4961109483711179 
0.55946208641803719 -1.131617848003337 0.27227198670945763 
0 1.0827456916741682 -0.91847810418223752 
0 1.0827456916741682 -0.91847810418223752 
-0.34815790139730163 -0.29403154042345053 -0.11407253687819954 
-0.20192839876395657 -0.61527128234302542 -0.04026684400855058 
0.25250944876621922 -0.1314882091393644 -0.56261406296298389 
0.80899540591723818 1.6053015110360112 -0.94990154472356259 
-4.163336342344337e-17 1.3073062971993217 -0.93425098716619415 
0.65541141944441728 -0.024403778271857364 -0.018474387968227882 
0.14873927070169857 -0.8210725172635529 -0.090520566952354886 
0 -0.071330514205440732 0 
0.14400840126878856 -0.21486568036206863 0.062078878850684943 
0 -0.32519092423559298 0 
0 0 0 
0 0 0 
-1.5793076534238528 1.1187708297891017 0 
0 0 0 
0.94440856958103114 -0.18138098474288089 -0.79393792672800645 
0 0 0 
-0.083029702129022429 -2.2551405187698492e-17 0.084923918121637368 
-0.39754329798944421 -0.23106243150917025 0.16451014912303535 
-2.0816681711721685e-17 -6.9388939039072284e-17 0 
0.14923595993201599 -0.21613645837252471 0 
0.63334658936500521 -0.15763390926836976 3.3827107781547738e-17 
0.2628241678602663 -0.60713138608704109 -0.057892943618505888 
-8.6736173798840355e-18 -1.1023641599427632 -0.19080951031058357 
0 0 -6.9388939039072284e-18 
0.12600811113848215 -0.25340348817363872 -0.69398328728363701 
0 -0.088481171356310673 0 
0.16627597461381916 0.82776075433750174 -0.84670316742211349 
0 -0.088481171356310673 0 
0 -0.088481171356310812 0 
0 0 0 
0.10688067939848976 0.9465793620742522 -1.373727860320771 
0.022228055141594559 0.04959315547021749 -0.25687080135167584 
-0.22970304427428248 -0.67317952498868194 -0.097429634755437561 
0 0 0 
0 0 0 
-0.039996294563951082 0.55285770345399432 -0.81058885044861351 
0 3.4694469519536142e-18 0 
0.29174749113543014 -0.34942470462188846 -0.067366640153125892 
0.71907307429761935 0.28137385875591125 -1.2185432798111828 
0 0 0 
0 0 0 
-1.6310451544383902 0.9771947252497577 0.551573916912939 
0.095006081759151567 1.0269578207277539 -0.39298492342274827 
-0.74407769575272409 -0.69546929330597318 0.87441715082587901 
0.26342238136767548 0.8094069190934301 -0.14350011428869688 
0 0 0 
0.018458049965033259 0 -0.0040931561349011455 
0.044834788741679697 -0.76497542924650375 0 
0.04313176529209526 0 0 
0 0 0.068701508157596167 
-0.66538905184549157 0.35630607546442483 -0.25123028697316802 
0.19914674295671805 -0.5954979886080175 -0.14981607994940691 
0 -0.17683213822846056 0 
-0.69158625433801668 0.92242938472408142 0.031763735380795854 
0 -0.47141134560742032 0 
0 -0.14291573389466133 0 
0 -0.14291573389466133 0 
0.023441527415964607 -0.19475840752102241 -0.064478039649485369 
-0.43857824439142062 0.54642723201975718 -0.91465036090870289 
0.023441527415964634 -0.19475840752102241 -0.064478039649485369 
-0.61694085004369426 -0.19475840752102241 0.72768617682464687 
-1.6606416113392677 1.2841891863997539 -0.43744777275166113 
1.0131659680992 -1.0211678011282788 -0.022072459637521094 
0.25769445072920705 -1.7347234759768071e-18 -0.13071170455941383 
0.99096215278315125 -0.74206573215193106 -2.0325117253520637 
0.21941369755139667 -1.2909256272494656 -0.12677278312926424 
-0.013744489401138545 0.23383505004286484 0.30267689382894752 
0 0 0 
-0.573338745665945 -0.0010508608891384719 0.26784504997959213 
0.31696192495279718 -0.16538403494103979 -0.030873458177084423 
0.063263587595775106 0 -0.1973851553738506 
0.063263587595775106 0 -0.1973851553738506 
0.063263587595775106 0 -0.1973851553738506 
0.063263587595775106 -0.31528470980241208 0.00071483086292079001 
0 0.11418340661564466 -0.25687080135167584 
-0.5811187148056417 -0.2991051937235914 1.4225162464954795 
0.18572730751236666 -0.066748484073397285 -0.23334615193279903 
0 -0.81910156075756169 -0.56222498392152309 
0.38173607036573576 -0.17639489779771569 1.5619397295954538 
0 -0.034095207270105045 0 
0 -0.034095207270105045 0 
0 -1.2086630897906758 2.7755575615628914e-17 
0 0 0.44437124229636127 
0.35647434005604761 -0.31398485758668987 0 
0 0 0 
0 0 0 
1.7347234759768071e-18 0 -0.36568624469763489 
0 3.4694469519536142e-18 -6.9388939039072284e-18 
0 0 0 
0.17763868149389292 1.3726794094092747 -0.5951958020432162 
0 0.36071455660194668 -0.12922111854762466 
0 -0.41626103695165484 0 
0 -0.35994717897421019 0 
0.88892118836994183 0.056727376069264909 -0.49415241568602014 
0 0 0 
-1.713618753631065 -0.56800669042380303 1.5638864117170748 
1.0842021724855044e-19 -0.13393138898601181 -6.9388939039072284e-18 
0 -0.10219207900794751 0 
0.44665417845940947 -0.38314922270215446 0.91322342518079269 
0 -0.44785266278118302 0 
0.20809250770264653 -0.34844264050489493 -0.2487670734755377 
-0.69290268962845158 0.061177517602759857 0.11876506636004645 
-3.4694469519536142e-18 -0.30495972849874886 0 
0.10694356204310249 -0.043899881887559555 -0.54766904302884312 
0.10694356204310249 -0.047701575167593942 0 
0.10694356204310249 -0.047701575167593942 0 
0.044319113888492689 0.86721204253668982 -2.2100967025033245 
0.044319113888492689 -0.092800002351846766 0 
0 -0.17088494863192749 0 
0.55167073644177234 0.089572003848660098 0.22304546710562331 
0 -0.17088494863192749 0 
0 -0.17088494863192749 0 
-0.31290506929801332 -0.8835316633168564 0.86855912859017836 
